#include <math.h>
#include <string.h>
#include "protocol_selection.h"
namespace net{

    void predict_tcp(double * input, double * output) {
        DVLOG(2) << input[0] << ", " << input[1] << ", "<< input[2] << ", "<< input[3]<< ", "<< input[4] << ", "<< input[5]<< ", "<< input[6] << ", "<< input[7];
        double minmax[40] = {49.43, 29699.89, 0.22, 18127.13, 0.0, 606.0, 0.0, 1.0, 0.0, 0.69, 0.0, 4.28, 0.0, 49.21, 0.08, 209.03, 0.0, 12791.31, 1180.01, 14692133.71, 0.19, 341.64, 0.0, 12834.39, 0.74, 29462.0, 0.12, 12835.87, 1183.95, 15845614.27, 118.0, 51425.0, 0.01, 511.14, 15.0, 6272.0, 0.0, 13.88, 0.0, 406.0};
        int index[8] = {0, 1, 2, 3, 10, 13, 17, 16};
        double min, max;
        for(int i=0; i<8; i++){
            min = minmax[(index[i])*2];
            max = minmax[(index[i])*2 + 1];
            input[i] = (input[i] - min) / (max - min);
        }
        DVLOG(2) << input[0] << ", " << input[1] << ", "<< input[2] << ", "<< input[3]<< ", "<< input[4] << ", "<< input[5]<< ", "<< input[6] << ", "<< input[7];
        double var0;
        if ((input[3]) >= (0.0149999997)) {
            if ((input[6]) >= (0.0266101956)) {
                if ((input[6]) >= (0.090698421)) {
                    var0 = 0.250605732;
                } else {
                    var0 = 0.431127608;
                }
            } else {
                if ((input[2]) >= (0.0107260719)) {
                    var0 = -0.0757709295;
                } else {
                    var0 = 0.368738919;
                }
            }
        } else {
            if ((input[6]) >= (0.0286878683)) {
                if ((input[2]) >= (0.0156765673)) {
                    var0 = -0.0755362213;
                } else {
                    var0 = 0.401699722;
                }
            } else {
                if ((input[2]) >= (0.111386135)) {
                    var0 = 0.0986036584;
                } else {
                    var0 = -0.419394583;
                }
            }
        }
        double var1;
        if ((input[3]) >= (0.0149999997)) {
            if ((input[3]) >= (0.0350000001)) {
                if ((input[6]) >= (0.0934153795)) {
                    var1 = 0.193388209;
                } else {
                    var1 = 0.333000809;
                }
            } else {
                if ((input[6]) >= (0.0227744915)) {
                    var1 = 0.183829889;
                } else {
                    var1 = -0.0575136542;
                }
            }
        } else {
            if ((input[0]) >= (0.0215846561)) {
                if ((input[7]) >= (0.0391974635)) {
                    var1 = -0.233056143;
                } else {
                    var1 = 0.13704595;
                }
            } else {
                if ((input[6]) >= (0.0358798131)) {
                    var1 = -0.0865578502;
                } else {
                    var1 = -0.318045318;
                }
            }
        }
        double var2;
        if ((input[3]) >= (0.0149999997)) {
            if ((input[1]) >= (0.0112716397)) {
                if ((input[1]) >= (0.0120798312)) {
                    var2 = 0.233607337;
                } else {
                    var2 = 0.419139653;
                }
            } else {
                if ((input[1]) >= (0.00374084711)) {
                    var2 = 0.00995723624;
                } else {
                    var2 = 0.412609339;
                }
            }
        } else {
            if ((input[1]) >= (0.0112117846)) {
                if ((input[1]) >= (0.0298801623)) {
                    var2 = 0.180846572;
                } else {
                    var2 = -0.0554481633;
                }
            } else {
                if ((input[1]) >= (0.00390220946)) {
                    var2 = -0.28623569;
                } else {
                    var2 = -0.0110418415;
                }
            }
        }
        double var3;
        if ((input[6]) >= (0.024532523)) {
            if ((input[3]) >= (0.0249999985)) {
                if ((input[6]) >= (0.0894198492)) {
                    var3 = 0.0847513676;
                } else {
                    var3 = 0.22930479;
                }
            } else {
                if ((input[2]) >= (0.0156765673)) {
                    var3 = -0.0282615814;
                } else {
                    var3 = 0.35816732;
                }
            }
        } else {
            if ((input[2]) >= (0.0585808605)) {
                if ((input[2]) >= (0.150990099)) {
                    var3 = 0.428377509;
                } else {
                    var3 = 0.0109748701;
                }
            } else {
                if ((input[2]) >= (0.00577557739)) {
                    var3 = -0.251800984;
                } else {
                    var3 = 0.212832153;
                }
            }
        }
        double var4;
        if ((input[6]) >= (0.0128655899)) {
            if ((input[0]) >= (0.0384184606)) {
                if ((input[6]) >= (0.08334665)) {
                    var4 = 0.0606530234;
                } else {
                    var4 = 0.237485752;
                }
            } else {
                if ((input[2]) >= (0.0107260719)) {
                    var4 = -0.0540519096;
                } else {
                    var4 = 0.182793528;
                }
            }
        } else {
            if ((input[5]) >= (0.00273026526)) {
                if ((input[6]) >= (0.00199776259)) {
                    var4 = 0.224137485;
                } else {
                    var4 = 0.713244677;
                }
            } else {
                if ((input[2]) >= (0.164191425)) {
                    var4 = 0.453133017;
                } else {
                    var4 = -0.314846218;
                }
            }
        }
        double var5;
        if ((input[7]) >= (0.0334846303)) {
            if ((input[1]) >= (0.00372733129)) {
                if ((input[7]) >= (0.0556120761)) {
                    var5 = -0.230568528;
                } else {
                    var5 = -0.127400413;
                }
            } else {
                if ((input[0]) >= (0.00773714809)) {
                    var5 = 0.286187112;
                } else {
                    var5 = 0.012323427;
                }
            }
        } else {
            if ((input[1]) >= (0.00371243642)) {
                if ((input[1]) >= (0.0112708118)) {
                    var5 = 0.0885725096;
                } else {
                    var5 = -0.0671188831;
                }
            } else {
                if ((input[0]) >= (0.00681557693)) {
                    var5 = 0.457846045;
                } else {
                    var5 = 0.126293316;
                }
            }
        }
        double var6;
        if ((input[3]) >= (0.0350000001)) {
            if ((input[1]) >= (0.00381394289)) {
                if ((input[1]) >= (0.00750431232)) {
                    var6 = 0.147114977;
                } else {
                    var6 = -0.0448490754;
                }
            } else {
                if ((input[4]) >= (0.0266217589)) {
                    var6 = 0.0667568967;
                } else {
                    var6 = 0.336128533;
                }
            }
        } else {
            if ((input[0]) >= (0.0223640725)) {
                if ((input[1]) >= (0.00441250019)) {
                    var6 = 0.0151802339;
                } else {
                    var6 = 0.265267789;
                }
            } else {
                if ((input[1]) >= (0.00380787463)) {
                    var6 = -0.144255683;
                } else {
                    var6 = 0.0395173654;
                }
            }
        }
        double var7;
        if ((input[6]) >= (0.0128655899)) {
            if ((input[6]) >= (0.0341217816)) {
                if ((input[6]) >= (0.0734377503)) {
                    var7 = -0.0420934856;
                } else {
                    var7 = 0.175795555;
                }
            } else {
                if ((input[4]) >= (0.00601845048)) {
                    var7 = -0.168158278;
                } else {
                    var7 = -0.00996073429;
                }
            }
        } else {
            if ((input[6]) >= (0.00503436197)) {
                if ((input[3]) >= (0.0149999997)) {
                    var7 = 0.0131699555;
                } else {
                    var7 = -0.266764641;
                }
            } else {
                if ((input[7]) >= (0.10996224)) {
                    var7 = -0.250398099;
                } else {
                    var7 = 0.414733738;
                }
            }
        }
        double var8;
        if ((input[6]) >= (0.0127057694)) {
            if ((input[3]) >= (0.00499999989)) {
                if ((input[2]) >= (0.114686474)) {
                    var8 = 0.195070907;
                } else {
                    var8 = 0.0310189631;
                }
            } else {
                if ((input[7]) >= (0.00887249783)) {
                    var8 = -0.048094146;
                } else {
                    var8 = 0.0975429937;
                }
            }
        } else {
            if ((input[6]) >= (0.00519418251)) {
                if ((input[2]) >= (0.167491749)) {
                    var8 = 0.392099679;
                } else {
                    var8 = -0.228253499;
                }
            } else {
                if ((input[7]) >= (0.13083756)) {
                    var8 = -0.293462366;
                } else {
                    var8 = 0.281019241;
                }
            }
        }
        double var9;
        if ((input[1]) >= (0.00389669277)) {
            if ((input[6]) >= (0.0346012488)) {
                if ((input[1]) >= (0.00491120666)) {
                    var9 = -0.0104327723;
                } else {
                    var9 = 0.408280283;
                }
            } else {
                if ((input[1]) >= (0.0146544557)) {
                    var9 = 0.219678789;
                } else {
                    var9 = -0.201612294;
                }
            }
        } else {
            if ((input[6]) >= (0.0128655899)) {
                if ((input[6]) >= (0.0210164618)) {
                    var9 = 0.419016808;
                } else {
                    var9 = 0.154616773;
                }
            } else {
                if ((input[0]) >= (0.00717965234)) {
                    var9 = 0.011004936;
                } else {
                    var9 = -0.227948219;
                }
            }
        }
        double var10;
        if ((input[1]) >= (0.00365175307)) {
            if ((input[1]) >= (0.0112699848)) {
                if ((input[1]) >= (0.0247612521)) {
                    var10 = -0.0643560737;
                } else {
                    var10 = 0.107202686;
                }
            } else {
                if ((input[2]) >= (0.126237631)) {
                    var10 = 0.255509287;
                } else {
                    var10 = -0.108790718;
                }
            }
        } else {
            if ((input[2]) >= (0.0420792103)) {
                if ((input[7]) >= (0.164224356)) {
                    var10 = -0.00600156188;
                } else {
                    var10 = 0.338722706;
                }
            } else {
                if ((input[0]) >= (0.00720730796)) {
                    var10 = 0.218580082;
                } else {
                    var10 = 0.0507881269;
                }
            }
        }
        double var11;
        if ((input[3]) >= (0.0450000018)) {
            if ((input[2]) >= (0.159240931)) {
                if ((input[3]) >= (0.474999994)) {
                    var11 = 0.0221389737;
                } else {
                    var11 = 0.269614488;
                }
            } else {
                if ((input[6]) >= (0.115151033)) {
                    var11 = -0.133738339;
                } else {
                    var11 = 0.110324912;
                }
            }
        } else {
            if ((input[1]) >= (0.00396620296)) {
                if ((input[6]) >= (0.0357199945)) {
                    var11 = -0.00786956772;
                } else {
                    var11 = -0.122957386;
                }
            } else {
                if ((input[6]) >= (0.0210164618)) {
                    var11 = 0.338475645;
                } else {
                    var11 = -0.0296601672;
                }
            }
        }
        double var12;
        if ((input[4]) >= (0.00718992576)) {
            if ((input[6]) >= (0.0224548504)) {
                if ((input[1]) >= (0.0043598162)) {
                    var12 = -0.0908334106;
                } else {
                    var12 = 0.168787286;
                }
            } else {
                if ((input[3]) >= (0.0549999997)) {
                    var12 = 0.338881671;
                } else {
                    var12 = -0.207072556;
                }
            }
        } else {
            if ((input[1]) >= (0.00368319824)) {
                if ((input[4]) >= (0.000248938333)) {
                    var12 = 0.00816644356;
                } else {
                    var12 = -0.243830085;
                }
            } else {
                if ((input[6]) >= (0.0128655899)) {
                    var12 = 0.292678982;
                } else {
                    var12 = -0.137482375;
                }
            }
        }
        double var13;
        if ((input[0]) >= (0.163878918)) {
            if ((input[6]) >= (0.090698421)) {
                if ((input[1]) >= (0.00930357166)) {
                    var13 = 0.197311088;
                } else {
                    var13 = -0.163041681;
                }
            } else {
                if ((input[3]) >= (0.0149999997)) {
                    var13 = 0.249284387;
                } else {
                    var13 = 0.397129357;
                }
            }
        } else {
            if ((input[6]) >= (0.0718395412)) {
                if ((input[1]) >= (0.00482542254)) {
                    var13 = -0.084826909;
                } else {
                    var13 = 0.406249225;
                }
            } else {
                if ((input[6]) >= (0.0360396355)) {
                    var13 = 0.107127242;
                } else {
                    var13 = -0.035675887;
                }
            }
        }
        double var14;
        if ((input[2]) >= (0.210396051)) {
            if ((input[0]) >= (0.0136682531)) {
                if ((input[0]) >= (0.0220207386)) {
                    var14 = 0.175383702;
                } else {
                    var14 = -0.188042417;
                }
            } else {
                if ((input[3]) >= (0.0249999985)) {
                    var14 = 0.232385218;
                } else {
                    var14 = 0.476249486;
                }
            }
        } else {
            if ((input[4]) >= (0.00853712112)) {
                if ((input[4]) >= (0.0197247043)) {
                    var14 = -0.182269305;
                } else {
                    var14 = -0.0781148076;
                }
            } else {
                if ((input[2]) >= (0.00577557739)) {
                    var14 = -0.00493644178;
                } else {
                    var14 = 0.157374591;
                }
            }
        }
        double var15;
        if ((input[7]) >= (0.00660301652)) {
            if ((input[6]) >= (0.072319001)) {
                if ((input[0]) >= (0.0136778653)) {
                    var15 = -0.0969048813;
                } else {
                    var15 = 0.219235823;
                }
            } else {
                if ((input[2]) >= (0.160891086)) {
                    var15 = 0.240529224;
                } else {
                    var15 = -0.0107083526;
                }
            }
        } else {
            if ((input[0]) >= (0.12517193)) {
                if ((input[6]) >= (0.129055455)) {
                    var15 = 0.102533512;
                } else {
                    var15 = 0.313999951;
                }
            } else {
                if ((input[6]) >= (0.072319001)) {
                    var15 = -0.00264174794;
                } else {
                    var15 = 0.128015012;
                }
            }
        }
        double var16;
        if ((input[3]) >= (0.0450000018)) {
            if ((input[2]) >= (0.0272277221)) {
                if ((input[6]) >= (0.0376378447)) {
                    var16 = 0.0855572149;
                } else {
                    var16 = 0.378319085;
                }
            } else {
                if ((input[6]) >= (0.163257152)) {
                    var16 = -0.42166248;
                } else {
                    var16 = -0.00243719807;
                }
            }
        } else {
            if ((input[1]) >= (0.0248428993)) {
                if ((input[1]) >= (0.0274307653)) {
                    var16 = 0.0528651886;
                } else {
                    var16 = -0.288923323;
                }
            } else {
                if ((input[2]) >= (0.136138618)) {
                    var16 = 0.176574916;
                } else {
                    var16 = -0.0192612074;
                }
            }
        }
        double var17;
        if ((input[1]) >= (0.00365451141)) {
            if ((input[1]) >= (0.0095551312)) {
                if ((input[7]) >= (0.0445385724)) {
                    var17 = -0.147243112;
                } else {
                    var17 = 0.0434558652;
                }
            } else {
                if ((input[1]) >= (0.00502457377)) {
                    var17 = -0.112543084;
                } else {
                    var17 = 0.00923980959;
                }
            }
        } else {
            if ((input[6]) >= (0.0106280968)) {
                if ((input[6]) >= (0.0176602192)) {
                    var17 = 0.294992119;
                } else {
                    var17 = 0.0798621401;
                }
            } else {
                if ((input[6]) >= (0.00439507794)) {
                    var17 = -0.211691976;
                } else {
                    var17 = 0.335722506;
                }
            }
        }
        double var18;
        if ((input[3]) >= (0.00499999989)) {
            if ((input[7]) >= (0.0225872099)) {
                if ((input[6]) >= (0.0360396355)) {
                    var18 = 0.259989619;
                } else {
                    var18 = 0.00640513282;
                }
            } else {
                if ((input[2]) >= (0.114686474)) {
                    var18 = 0.0957038403;
                } else {
                    var18 = -0.0276604965;
                }
            }
        } else {
            if ((input[7]) >= (0.0383953191)) {
                if ((input[2]) >= (0.0684818476)) {
                    var18 = -0.155756906;
                } else {
                    var18 = -0.0511585213;
                }
            } else {
                if ((input[6]) >= (0.0672047287)) {
                    var18 = -0.049401693;
                } else {
                    var18 = 0.0481065735;
                }
            }
        }
        double var19;
        if ((input[4]) >= (0.00554986112)) {
            if ((input[2]) >= (0.188943893)) {
                if ((input[2]) >= (0.531353116)) {
                    var19 = -0.416309744;
                } else {
                    var19 = 0.109639563;
                }
            } else {
                if ((input[4]) >= (0.0458632335)) {
                    var19 = -0.262381703;
                } else {
                    var19 = -0.0555157922;
                }
            }
        } else {
            if ((input[0]) >= (0.0017023345)) {
                if ((input[0]) >= (0.00750696613)) {
                    var19 = 0.0201535597;
                } else {
                    var19 = -0.0493900515;
                }
            } else {
                if ((input[2]) >= (0.00742574269)) {
                    var19 = 0.172945917;
                } else {
                    var19 = -0.0049837972;
                }
            }
        }
        double var20;
        if ((input[5]) >= (0.00281362608)) {
            if ((input[5]) >= (0.0341000706)) {
                if ((input[5]) >= (0.0406723395)) {
                    var20 = 0.0480410419;
                } else {
                    var20 = -0.188556954;
                }
            } else {
                if ((input[6]) >= (0.118667096)) {
                    var20 = -0.0512613207;
                } else {
                    var20 = 0.321504205;
                }
            }
        } else {
            if ((input[5]) >= (1.05175004e-05)) {
                if ((input[0]) >= (0.00181295676)) {
                    var20 = -0.039592199;
                } else {
                    var20 = 0.0810852945;
                }
            } else {
                if ((input[6]) >= (0.0106280968)) {
                    var20 = 0.0301928855;
                } else {
                    var20 = -0.205837429;
                }
            }
        }
        double var21;
        if ((input[1]) >= (0.00361865317)) {
            if ((input[6]) >= (0.024532523)) {
                if ((input[1]) >= (0.00477301423)) {
                    var21 = -0.0126081454;
                } else {
                    var21 = 0.207526818;
                }
            } else {
                if ((input[1]) >= (0.0142616695)) {
                    var21 = 0.168344185;
                } else {
                    var21 = -0.0990214422;
                }
            }
        } else {
            if ((input[6]) >= (0.0107879173)) {
                if ((input[6]) >= (0.0178200416)) {
                    var21 = 0.25765413;
                } else {
                    var21 = 0.0690965876;
                }
            } else {
                if ((input[6]) >= (0.00407543592)) {
                    var21 = -0.172842383;
                } else {
                    var21 = 0.301580161;
                }
            }
        }
        double var22;
        if ((input[4]) >= (0.000248938333)) {
            if ((input[0]) >= (0.179919302)) {
                if ((input[7]) >= (0.00809970126)) {
                    var22 = 0.0138529474;
                } else {
                    var22 = 0.185326204;
                }
            } else {
                if ((input[0]) >= (0.00093303778)) {
                    var22 = -0.00427064532;
                } else {
                    var22 = 0.148156822;
                }
            }
        } else {
            if ((input[3]) >= (0.0649999976)) {
                if ((input[0]) >= (0.0532140136)) {
                    var22 = 0.227561757;
                } else {
                    var22 = -0.0361379348;
                }
            } else {
                if ((input[0]) >= (0.116650805)) {
                    var22 = 0.293662339;
                } else {
                    var22 = -0.233265609;
                }
            }
        }
        double var23;
        if ((input[2]) >= (0.0305280536)) {
            if ((input[1]) >= (0.00466737058)) {
                if ((input[1]) >= (0.00742570031)) {
                    var23 = 0.0183268301;
                } else {
                    var23 = -0.140779078;
                }
            } else {
                if ((input[6]) >= (0.0232539549)) {
                    var23 = 0.27076593;
                } else {
                    var23 = 0.0460047275;
                }
            }
        } else {
            if ((input[6]) >= (0.121863514)) {
                if ((input[7]) >= (0.0113767534)) {
                    var23 = 0.0458222739;
                } else {
                    var23 = -0.382634759;
                }
            } else {
                if ((input[2]) >= (0.0156765673)) {
                    var23 = -0.080376938;
                } else {
                    var23 = 0.0346586518;
                }
            }
        }
        double var24;
        if ((input[0]) >= (0.153278902)) {
            if ((input[2]) >= (0.093234323)) {
                if ((input[4]) >= (0.0128130037)) {
                    var24 = 0.0096268896;
                } else {
                    var24 = 0.241996467;
                }
            } else {
                if ((input[6]) >= (0.103004634)) {
                    var24 = -0.0966338143;
                } else {
                    var24 = 0.207240641;
                }
            }
        } else {
            if ((input[1]) >= (0.0248406921)) {
                if ((input[1]) >= (0.0274307653)) {
                    var24 = 0.0252551623;
                } else {
                    var24 = -0.173907936;
                }
            } else {
                if ((input[1]) >= (0.0151846074)) {
                    var24 = 0.125199392;
                } else {
                    var24 = -0.0149010019;
                }
            }
        }
        double var25;
        if ((input[4]) >= (0.0198125653)) {
            if ((input[1]) >= (0.00613452587)) {
                if ((input[0]) >= (0.0170547105)) {
                    var25 = -0.0158280227;
                } else {
                    var25 = -0.103471883;
                }
            } else {
                if ((input[7]) >= (0.0793535858)) {
                    var25 = -0.0139870876;
                } else {
                    var25 = -0.260973305;
                }
            }
        } else {
            if ((input[1]) >= (0.00352983503)) {
                if ((input[7]) >= (0.00855946634)) {
                    var25 = -0.010716428;
                } else {
                    var25 = 0.0415957049;
                }
            } else {
                if ((input[0]) >= (0.0108622257)) {
                    var25 = 0.258574218;
                } else {
                    var25 = 0.0617871732;
                }
            }
        }
        double var26;
        if ((input[3]) >= (0.0949999988)) {
            if ((input[6]) >= (0.0873421729)) {
                if ((input[1]) >= (0.00755203143)) {
                    var26 = 0.0447753146;
                } else {
                    var26 = -0.187134832;
                }
            } else {
                if ((input[3]) >= (0.145000011)) {
                    var26 = 0.269263417;
                } else {
                    var26 = 0.0635195598;
                }
            }
        } else {
            if ((input[1]) >= (0.0249741953)) {
                if ((input[1]) >= (0.0267649032)) {
                    var26 = -0.00226740562;
                } else {
                    var26 = -0.197445303;
                }
            } else {
                if ((input[6]) >= (0.0416333713)) {
                    var26 = 0.0618806742;
                } else {
                    var26 = -0.0296927541;
                }
            }
        }
        double var27;
        if ((input[2]) >= (0.188943893)) {
            if ((input[1]) >= (0.0255217254)) {
                if ((input[7]) >= (0.0115919635)) {
                    var27 = -0.179462194;
                } else {
                    var27 = 0.0909721106;
                }
            } else {
                if ((input[1]) >= (0.00474377582)) {
                    var27 = 0.123905323;
                } else {
                    var27 = 0.389914781;
                }
            }
        } else {
            if ((input[1]) >= (0.00377808465)) {
                if ((input[2]) >= (0.0107260719)) {
                    var27 = -0.0289441105;
                } else {
                    var27 = 0.0708779246;
                }
            } else {
                if ((input[5]) >= (6.6221296e-06)) {
                    var27 = 0.0812000558;
                } else {
                    var27 = -0.0800643787;
                }
            }
        }
        double var28;
        if ((input[6]) >= (0.0119066648)) {
            if ((input[0]) >= (0.00246286229)) {
                if ((input[5]) >= (8.18027729e-06)) {
                    var28 = -0.0233193412;
                } else {
                    var28 = 0.0261601899;
                }
            } else {
                if ((input[6]) >= (0.017979864)) {
                    var28 = 0.270511627;
                } else {
                    var28 = 0.0326834507;
                }
            }
        } else {
            if ((input[0]) >= (0.0150009478)) {
                if ((input[6]) >= (0.00902988669)) {
                    var28 = 0.075533554;
                } else {
                    var28 = 0.390236497;
                }
            } else {
                if ((input[2]) >= (0.00742574269)) {
                    var28 = -0.0956293195;
                } else {
                    var28 = -0.28580156;
                }
            }
        }
        double var29;
        if ((input[2]) >= (0.0288778879)) {
            if ((input[1]) >= (0.00474653393)) {
                if ((input[0]) >= (0.0091792848)) {
                    var29 = 0.0232072044;
                } else {
                    var29 = -0.08549463;
                }
            } else {
                if ((input[2]) >= (0.0585808605)) {
                    var29 = 0.195725873;
                } else {
                    var29 = -0.00645384286;
                }
            }
        } else {
            if ((input[2]) >= (0.0173267331)) {
                if ((input[6]) >= (0.0304458998)) {
                    var29 = -0.0176058151;
                } else {
                    var29 = -0.181717932;
                }
            } else {
                if ((input[6]) >= (0.0103084547)) {
                    var29 = 0.0247620586;
                } else {
                    var29 = -0.189801216;
                }
            }
        }
        double var30;
        if ((input[2]) >= (0.576732635)) {
            if ((input[3]) >= (0.0850000009)) {
                var30 = 0.249620706;
            } else {
                if ((input[2]) >= (0.672442198)) {
                    var30 = -0.573703349;
                } else {
                    var30 = -0.262855947;
                }
            }
        } else {
            if ((input[2]) >= (0.269801974)) {
                if ((input[6]) >= (0.106840342)) {
                    var30 = 0.27651903;
                } else {
                    var30 = -0.0129345758;
                }
            } else {
                if ((input[6]) >= (0.105721593)) {
                    var30 = -0.0556088127;
                } else {
                    var30 = 0.00416164799;
                }
            }
        }
        double var31;
        if ((input[4]) >= (0.00695563015)) {
            if ((input[1]) >= (0.00727344025)) {
                if ((input[7]) >= (0.0778960288)) {
                    var31 = -0.256236523;
                } else {
                    var31 = 0.00140853133;
                }
            } else {
                if ((input[4]) >= (0.0864548236)) {
                    var31 = -0.479904264;
                } else {
                    var31 = -0.0858182535;
                }
            }
        } else {
            if ((input[5]) >= (0.00281362608)) {
                if ((input[2]) >= (0.0255775582)) {
                    var31 = 0.0718716383;
                } else {
                    var31 = 0.429682583;
                }
            } else {
                if ((input[5]) >= (0.000118029726)) {
                    var31 = -0.0760818422;
                } else {
                    var31 = 0.0122113572;
                }
            }
        }
        double var32;
        if ((input[3]) >= (0.0949999988)) {
            if ((input[6]) >= (0.0988492891)) {
                if ((input[1]) >= (0.00498071685)) {
                    var32 = -0.0154850828;
                } else {
                    var32 = 0.370927215;
                }
            } else {
                if ((input[3]) >= (0.194999993)) {
                    var32 = 0.222194076;
                } else {
                    var32 = 0.0606942922;
                }
            }
        } else {
            if ((input[6]) >= (0.0686431229)) {
                if ((input[1]) >= (0.00497630332)) {
                    var32 = -0.0503974184;
                } else {
                    var32 = 0.321221292;
                }
            } else {
                if ((input[1]) >= (0.0147110019)) {
                    var32 = 0.109080821;
                } else {
                    var32 = -0.0141388774;
                }
            }
        }
        double var33;
        if ((input[0]) >= (0.306082428)) {
            if ((input[1]) >= (0.0302679837)) {
                if ((input[2]) >= (0.037128713)) {
                    var33 = 0.17955175;
                } else {
                    var33 = -0.170136869;
                }
            } else {
                if ((input[7]) >= (0.00819752365)) {
                    var33 = -0.0486400351;
                } else {
                    var33 = 0.300589591;
                }
            }
        } else {
            if ((input[2]) >= (0.507425785)) {
                if ((input[6]) >= (0.11027649)) {
                    var33 = -0.00363606773;
                } else {
                    var33 = -0.285447627;
                }
            } else {
                if ((input[2]) >= (0.276402652)) {
                    var33 = 0.0975984558;
                } else {
                    var33 = -0.00532817096;
                }
            }
        }
        double var34;
        if ((input[4]) >= (0.00308976416)) {
            if ((input[5]) >= (8.18027729e-06)) {
                if ((input[1]) >= (0.00336654182)) {
                    var34 = -0.0498362221;
                } else {
                    var34 = 0.109627306;
                }
            } else {
                if ((input[1]) >= (0.00732060801)) {
                    var34 = 0.0456657;
                } else {
                    var34 = -0.0405346788;
                }
            }
        } else {
            if ((input[1]) >= (0.00381228793)) {
                if ((input[2]) >= (0.00907590799)) {
                    var34 = -0.00431858236;
                } else {
                    var34 = 0.102446489;
                }
            } else {
                if ((input[5]) >= (6.6221296e-06)) {
                    var34 = 0.116437316;
                } else {
                    var34 = -0.0519250892;
                }
            }
        }
        double var35;
        if ((input[6]) >= (0.0119066648)) {
            if ((input[0]) >= (0.000782955787)) {
                if ((input[1]) >= (0.00378801464)) {
                    var35 = -0.00358169712;
                } else {
                    var35 = 0.0456648618;
                }
            } else {
                if ((input[6]) >= (0.0131852329)) {
                    var35 = 0.290369511;
                } else {
                    var35 = -0.00722066266;
                }
            }
        } else {
            if ((input[6]) >= (0.00463480921)) {
                if ((input[4]) >= (0.000483233278)) {
                    var35 = -0.123522721;
                } else {
                    var35 = 0.132800534;
                }
            } else {
                if ((input[5]) >= (0.00725551695)) {
                    var35 = 0.0711143464;
                } else {
                    var35 = 0.569165289;
                }
            }
        }
        double var36;
        if ((input[6]) >= (0.0214959234)) {
            if ((input[1]) >= (0.00497740647)) {
                if ((input[1]) >= (0.00732060801)) {
                    var36 = 0.0114860479;
                } else {
                    var36 = -0.116691634;
                }
            } else {
                if ((input[7]) >= (0.0668518767)) {
                    var36 = 0.329300433;
                } else {
                    var36 = 0.0773073584;
                }
            }
        } else {
            if ((input[3]) >= (0.0549999997)) {
                if ((input[6]) >= (0.00847051293)) {
                    var36 = 0.445851833;
                } else {
                    var36 = 0.0533423126;
                }
            } else {
                if ((input[7]) >= (0.0964431763)) {
                    var36 = 0.0309361424;
                } else {
                    var36 = -0.0634979233;
                }
            }
        }
        double var37;
        if ((input[2]) >= (0.0288778879)) {
            if ((input[1]) >= (0.0124384128)) {
                if ((input[0]) >= (0.0269216727)) {
                    var37 = 0.0298751295;
                } else {
                    var37 = -0.0794548541;
                }
            } else {
                if ((input[6]) >= (0.0392360538)) {
                    var37 = 0.129690751;
                } else {
                    var37 = -0.0357592553;
                }
            }
        } else {
            if ((input[6]) >= (0.0844653994)) {
                if ((input[3]) >= (0.0549999997)) {
                    var37 = -0.0638466626;
                } else {
                    var37 = -0.325140148;
                }
            } else {
                if ((input[6]) >= (0.0210164618)) {
                    var37 = 0.0413653329;
                } else {
                    var37 = -0.0486974195;
                }
            }
        }
        double var38;
        if ((input[2]) >= (0.0288778879)) {
            if ((input[0]) >= (0.0771035254)) {
                if ((input[3]) >= (0.00499999989)) {
                    var38 = 0.0143277002;
                } else {
                    var38 = 0.137124136;
                }
            } else {
                if ((input[3]) >= (0.155000001)) {
                    var38 = 0.131092831;
                } else {
                    var38 = -0.00720517524;
                }
            }
        } else {
            if ((input[0]) >= (0.00129863084)) {
                if ((input[2]) >= (0.0107260719)) {
                    var38 = -0.0606969222;
                } else {
                    var38 = 0.0172826387;
                }
            } else {
                if ((input[2]) >= (0.00742574269)) {
                    var38 = 0.213017166;
                } else {
                    var38 = -0.109035321;
                }
            }
        }
        double var39;
        if ((input[1]) >= (0.0250108801)) {
            if ((input[1]) >= (0.0267113931)) {
                if ((input[3]) >= (0.194999993)) {
                    var39 = -0.0895825624;
                } else {
                    var39 = 0.00624369457;
                }
            } else {
                if ((input[3]) >= (0.0249999985)) {
                    var39 = 0.0126914391;
                } else {
                    var39 = -0.183393955;
                }
            }
        } else {
            if ((input[1]) >= (0.0151313711)) {
                if ((input[0]) >= (0.0116817746)) {
                    var39 = 0.0571299642;
                } else {
                    var39 = 0.225476533;
                }
            } else {
                if ((input[1]) >= (0.0124072442)) {
                    var39 = -0.0861297101;
                } else {
                    var39 = 0.00833454728;
                }
            }
        }
        double var40;
        if ((input[4]) >= (0.129008651)) {
            if ((input[1]) >= (0.00476584258)) {
                var40 = -0.148909226;
            } else {
                if ((input[6]) >= (0.0221352093)) {
                    var40 = -0.803908408;
                } else {
                    var40 = -0.213339746;
                }
            }
        } else {
            if ((input[1]) >= (0.0028921091)) {
                if ((input[1]) >= (0.00743397512)) {
                    var40 = 0.0076946714;
                } else {
                    var40 = -0.0215783324;
                }
            } else {
                if ((input[6]) >= (0.00615310855)) {
                    var40 = 0.358613223;
                } else {
                    var40 = -0.238315552;
                }
            }
        }
        double var41;
        if ((input[6]) >= (0.0590538606)) {
            if ((input[1]) >= (0.00498899166)) {
                if ((input[1]) >= (0.00746873021)) {
                    var41 = -0.0123048648;
                } else {
                    var41 = -0.13022469;
                }
            } else {
                if ((input[4]) >= (0.0310001466)) {
                    var41 = -0.381254345;
                } else {
                    var41 = 0.304676026;
                }
            }
        } else {
            if ((input[6]) >= (0.044030685)) {
                if ((input[1]) >= (0.00714710914)) {
                    var41 = 0.16955924;
                } else {
                    var41 = -0.102771401;
                }
            } else {
                if ((input[2]) >= (0.200495049)) {
                    var41 = 0.274540603;
                } else {
                    var41 = -0.0178941339;
                }
            }
        }
        double var42;
        if ((input[4]) >= (0.0113779474)) {
            if ((input[4]) >= (0.1108215)) {
                if ((input[0]) >= (0.0654239431)) {
                    var42 = -0.0277246367;
                } else {
                    var42 = -0.389874309;
                }
            } else {
                if ((input[0]) >= (0.00136591471)) {
                    var42 = -0.047112409;
                } else {
                    var42 = 0.12559475;
                }
            }
        } else {
            if ((input[0]) >= (0.348007083)) {
                if ((input[6]) >= (0.132092059)) {
                    var42 = 0.0481880195;
                } else {
                    var42 = 0.301779538;
                }
            } else {
                if ((input[6]) >= (0.0686431229)) {
                    var42 = -0.0151155954;
                } else {
                    var42 = 0.0144175868;
                }
            }
        }
        double var43;
        if ((input[1]) >= (0.00376153458)) {
            if ((input[7]) >= (0.00490090577)) {
                if ((input[5]) >= (5.84305553e-06)) {
                    var43 = -0.0154922837;
                } else {
                    var43 = 0.0525541343;
                }
            } else {
                if ((input[0]) >= (0.0159124006)) {
                    var43 = 0.0630096644;
                } else {
                    var43 = -0.0443526879;
                }
            }
        } else {
            if ((input[5]) >= (2.609898e-05)) {
                if ((input[1]) >= (0.00322862528)) {
                    var43 = -0.0873836875;
                } else {
                    var43 = 0.151391685;
                }
            } else {
                if ((input[5]) >= (6.6221296e-06)) {
                    var43 = 0.122353241;
                } else {
                    var43 = -0.0611895211;
                }
            }
        }
        double var44;
        if ((input[2]) >= (0.623762369)) {
            if ((input[3]) >= (0.0649999976)) {
                var44 = 0.00991988927;
            } else {
                if ((input[6]) >= (0.0226146709)) {
                    var44 = -0.408851564;
                } else {
                    var44 = -0.0459301546;
                }
            }
        } else {
            if ((input[1]) >= (0.0248103514)) {
                if ((input[6]) >= (0.0504235253)) {
                    var44 = -0.0395321511;
                } else {
                    var44 = 0.112819783;
                }
            } else {
                if ((input[6]) >= (0.044030685)) {
                    var44 = 0.0376603305;
                } else {
                    var44 = -0.00985727273;
                }
            }
        }
        double var45;
        if ((input[6]) >= (0.00519418251)) {
            if ((input[6]) >= (0.0103084547)) {
                if ((input[1]) >= (0.00376594812)) {
                    var45 = -0.00221976871;
                } else {
                    var45 = 0.0431157947;
                }
            } else {
                if ((input[7]) >= (0.0582826287)) {
                    var45 = -0.181304768;
                } else {
                    var45 = 0.0452291891;
                }
            }
        } else {
            if ((input[7]) >= (0.00608455762)) {
                if ((input[7]) >= (0.0875608921)) {
                    var45 = -0.101934753;
                } else {
                    var45 = 0.300902992;
                }
            } else {
                var45 = -0.188712955;
            }
        }
        double var46;
        if ((input[2]) >= (0.00577557739)) {
            if ((input[3]) >= (0.0350000001)) {
                if ((input[0]) >= (0.00960018858)) {
                    var46 = 0.00166539242;
                } else {
                    var46 = 0.186517507;
                }
            } else {
                if ((input[1]) >= (0.0247540809)) {
                    var46 = -0.0613261051;
                } else {
                    var46 = -0.00094041822;
                }
            }
        } else {
            if ((input[3]) >= (0.0350000001)) {
                if ((input[3]) >= (0.0549999997)) {
                    var46 = 0.0469600148;
                } else {
                    var46 = -0.472203672;
                }
            } else {
                if ((input[3]) >= (0.00499999989)) {
                    var46 = 0.314773798;
                } else {
                    var46 = -0.0209848173;
                }
            }
        }
        double var47;
        if ((input[2]) >= (0.164191425)) {
            if ((input[6]) >= (0.0358798131)) {
                if ((input[7]) >= (0.0443135798)) {
                    var47 = -0.290693998;
                } else {
                    var47 = 0.0393329076;
                }
            } else {
                if ((input[2]) >= (0.672442198)) {
                    var47 = -0.342079431;
                } else {
                    var47 = 0.297444522;
                }
            }
        } else {
            if ((input[6]) >= (0.151750028)) {
                if ((input[2]) >= (0.0767326728)) {
                    var47 = 0.0719797835;
                } else {
                    var47 = -0.178703994;
                }
            } else {
                if ((input[3]) >= (0.275000006)) {
                    var47 = 0.160336554;
                } else {
                    var47 = -0.00466819759;
                }
            }
        }
        double var48;
        if ((input[1]) >= (0.153185517)) {
            if ((input[3]) >= (0.370000005)) {
                if ((input[1]) >= (0.21037674)) {
                    var48 = -0.391442001;
                } else {
                    var48 = 0.0717141479;
                }
            } else {
                if ((input[0]) >= (0.112318665)) {
                    var48 = 0.204044193;
                } else {
                    var48 = 0.350764036;
                }
            }
        } else {
            if ((input[0]) >= (0.400966108)) {
                if ((input[1]) >= (0.0323827937)) {
                    var48 = -0.0199534073;
                } else {
                    var48 = 0.284180164;
                }
            } else {
                if ((input[5]) >= (8.18027729e-06)) {
                    var48 = -0.0107490551;
                } else {
                    var48 = 0.0121323736;
                }
            }
        }
        double var49;
        if ((input[4]) >= (0.000863962516)) {
            if ((input[2]) >= (0.0288778879)) {
                if ((input[6]) >= (0.0827073678)) {
                    var49 = 0.0378545597;
                } else {
                    var49 = -0.00827668235;
                }
            } else {
                if ((input[5]) >= (0.00171045715)) {
                    var49 = 0.272318572;
                } else {
                    var49 = -0.0408065245;
                }
            }
        } else {
            if ((input[2]) >= (0.0173267331)) {
                if ((input[3]) >= (0.0249999985)) {
                    var49 = 0.0483254977;
                } else {
                    var49 = -0.016466992;
                }
            } else {
                if ((input[5]) >= (6.6221296e-06)) {
                    var49 = 0.12864764;
                } else {
                    var49 = -0.0615682118;
                }
            }
        }
        double var50;
        if ((input[0]) >= (0.163878918)) {
            if ((input[6]) >= (0.044030685)) {
                if ((input[2]) >= (0.0354785472)) {
                    var50 = 0.08387696;
                } else {
                    var50 = -0.0428835824;
                }
            } else {
                if ((input[5]) >= (4.05118517e-05)) {
                    var50 = -0.0359941572;
                } else {
                    var50 = 0.357907534;
                }
            }
        } else {
            if ((input[6]) >= (0.00519418251)) {
                if ((input[6]) >= (0.0357199945)) {
                    var50 = 0.00502254115;
                } else {
                    var50 = -0.0173475593;
                }
            } else {
                if ((input[5]) >= (0.00725551695)) {
                    var50 = 0.0587399416;
                } else {
                    var50 = 0.425875306;
                }
            }
        }
        double var51;
        if ((input[5]) >= (0.0017026664)) {
            if ((input[5]) >= (0.0341000706)) {
                if ((input[4]) >= (0.000746815058)) {
                    var51 = -0.244500279;
                } else {
                    var51 = 0.163398966;
                }
            } else {
                if ((input[7]) >= (0.0556512028)) {
                    var51 = -0.198611662;
                } else {
                    var51 = 0.16133447;
                }
            }
        } else {
            if ((input[5]) >= (0.000391484704)) {
                if ((input[7]) >= (0.00801166054)) {
                    var51 = -0.116463698;
                } else {
                    var51 = -0.273776919;
                }
            } else {
                if ((input[4]) >= (0.0308976434)) {
                    var51 = -0.094062604;
                } else {
                    var51 = 0.00520801591;
                }
            }
        }
        double var52;
        if ((input[2]) >= (0.507425785)) {
            if ((input[1]) >= (0.0262587499)) {
                if ((input[3]) >= (0.0850000009)) {
                    var52 = 0.190927804;
                } else {
                    var52 = -0.346389472;
                }
            } else {
                if ((input[1]) >= (0.0251372121)) {
                    var52 = 0.313295186;
                } else {
                    var52 = -0.11216148;
                }
            }
        } else {
            if ((input[2]) >= (0.205445543)) {
                if ((input[6]) >= (0.139284)) {
                    var52 = 0.210503727;
                } else {
                    var52 = 0.0148078157;
                }
            } else {
                if ((input[6]) >= (0.105721593)) {
                    var52 = -0.0530886799;
                } else {
                    var52 = 0.00389786065;
                }
            }
        }
        double var53;
        if ((input[5]) >= (0.00327483797)) {
            if ((input[6]) >= (0.155106276)) {
                if ((input[6]) >= (0.360795915)) {
                    var53 = 0.245194793;
                } else {
                    var53 = -0.384727061;
                }
            } else {
                if ((input[5]) >= (0.00873614661)) {
                    var53 = 0.0556456484;
                } else {
                    var53 = 0.328335464;
                }
            }
        } else {
            if ((input[5]) >= (0.000391484704)) {
                if ((input[4]) >= (0.0163274277)) {
                    var53 = 0.0584558249;
                } else {
                    var53 = -0.122557223;
                }
            } else {
                if ((input[2]) >= (0.532178164)) {
                    var53 = -0.19112426;
                } else {
                    var53 = 0.000786202028;
                }
            }
        }
        double var54;
        if ((input[2]) >= (0.0684818476)) {
            if ((input[7]) >= (0.109727472)) {
                if ((input[2]) >= (0.111386135)) {
                    var54 = -0.21861133;
                } else {
                    var54 = -0.380144089;
                }
            } else {
                if ((input[7]) >= (0.0153092165)) {
                    var54 = -0.0326578245;
                } else {
                    var54 = 0.0192046277;
                }
            }
        } else {
            if ((input[4]) >= (0.000483233278)) {
                if ((input[2]) >= (0.0618811883)) {
                    var54 = 0.0959967449;
                } else {
                    var54 = -0.00318346848;
                }
            } else {
                if ((input[3]) >= (0.075000003)) {
                    var54 = -0.0545393042;
                } else {
                    var54 = 0.121327683;
                }
            }
        }
        double var55;
        if ((input[3]) >= (0.774999976)) {
            if ((input[2]) >= (0.018976897)) {
                if ((input[5]) >= (7.90760168e-05)) {
                    var55 = 0.137461185;
                } else {
                    var55 = 0.366561025;
                }
            } else {
                var55 = -0.326819718;
            }
        } else {
            if ((input[1]) >= (0.00743563008)) {
                if ((input[3]) >= (0.0149999997)) {
                    var55 = 0.0410400033;
                } else {
                    var55 = -0.0144604677;
                }
            } else {
                if ((input[1]) >= (0.0068321079)) {
                    var55 = -0.231719986;
                } else {
                    var55 = -0.00401766784;
                }
            }
        }
        double var56;
        if ((input[6]) >= (0.0646476001)) {
            if ((input[1]) >= (0.00498899166)) {
                if ((input[6]) >= (0.0812689811)) {
                    var56 = -0.00403724937;
                } else {
                    var56 = -0.0893196985;
                }
            } else {
                if ((input[4]) >= (0.0273978636)) {
                    var56 = -0.222533643;
                } else {
                    var56 = 0.272980303;
                }
            }
        } else {
            if ((input[6]) >= (0.044030685)) {
                if ((input[1]) >= (0.00716034882)) {
                    var56 = 0.116899811;
                } else {
                    var56 = -0.066380918;
                }
            } else {
                if ((input[1]) >= (0.0146737639)) {
                    var56 = 0.0930217281;
                } else {
                    var56 = -0.0257641133;
                }
            }
        }
        double var57;
        if ((input[1]) >= (0.0120674185)) {
            if ((input[1]) >= (0.0133729354)) {
                if ((input[6]) >= (0.0545788705)) {
                    var57 = -0.0203499142;
                } else {
                    var57 = 0.052616518;
                }
            } else {
                if ((input[6]) >= (0.0448297895)) {
                    var57 = -0.0437402911;
                } else {
                    var57 = -0.232947052;
                }
            }
        } else {
            if ((input[6]) >= (0.0384369493)) {
                if ((input[1]) >= (0.0112117846)) {
                    var57 = 0.251084;
                } else {
                    var57 = 0.00836857036;
                }
            } else {
                if ((input[1]) >= (0.00760885328)) {
                    var57 = -0.134021476;
                } else {
                    var57 = 0.0113994665;
                }
            }
        }
        double var58;
        if ((input[1]) >= (0.0129263625)) {
            if ((input[1]) >= (0.0139654242)) {
                if ((input[6]) >= (0.047227107)) {
                    var58 = -0.0173387136;
                } else {
                    var58 = 0.0485057421;
                }
            } else {
                if ((input[6]) >= (0.0469074622)) {
                    var58 = -0.0352491066;
                } else {
                    var58 = -0.229475707;
                }
            }
        } else {
            if ((input[6]) >= (0.0360396355)) {
                if ((input[0]) >= (0.00785266049)) {
                    var58 = 0.0098819565;
                } else {
                    var58 = 0.201573253;
                }
            } else {
                if ((input[1]) >= (0.0112548135)) {
                    var58 = -0.25798595;
                } else {
                    var58 = -0.00381749938;
                }
            }
        }
        double var59;
        if ((input[6]) >= (0.0119066648)) {
            if ((input[7]) >= (0.141421944)) {
                if ((input[0]) >= (0.00651254691)) {
                    var59 = -0.0699967742;
                } else {
                    var59 = 0.191373795;
                }
            } else {
                if ((input[6]) >= (0.0178200416)) {
                    var59 = 0.00256181904;
                } else {
                    var59 = -0.0312812924;
                }
            }
        } else {
            if ((input[0]) >= (0.0150009478)) {
                if ((input[7]) >= (0.118668437)) {
                    var59 = -0.199347183;
                } else {
                    var59 = 0.249124885;
                }
            } else {
                if ((input[3]) >= (0.0149999997)) {
                    var59 = 0.140247479;
                } else {
                    var59 = -0.0925483555;
                }
            }
        }
        double var60;
        if ((input[7]) >= (0.0227045957)) {
            if ((input[0]) >= (0.0791357011)) {
                if ((input[2]) >= (0.00742574269)) {
                    var60 = 0.189832911;
                } else {
                    var60 = -0.121961638;
                }
            } else {
                if ((input[0]) >= (0.00275324564)) {
                    var60 = 0.00222816807;
                } else {
                    var60 = 0.0558888689;
                }
            }
        } else {
            if ((input[2]) >= (0.126237631)) {
                if ((input[0]) >= (0.0268756375)) {
                    var60 = 0.0688069463;
                } else {
                    var60 = -0.025184283;
                }
            } else {
                if ((input[5]) >= (5.84305553e-06)) {
                    var60 = -0.0334467739;
                } else {
                    var60 = 0.0625997856;
                }
            }
        }
        double var61;
        if ((input[2]) >= (0.117986798)) {
            if ((input[6]) >= (0.0366789177)) {
                if ((input[6]) >= (0.0881412774)) {
                    var61 = 0.0604334511;
                } else {
                    var61 = -0.0737738311;
                }
            } else {
                if ((input[5]) >= (0.00868083257)) {
                    var61 = -0.0972647145;
                } else {
                    var61 = 0.211734161;
                }
            }
        } else {
            if ((input[6]) >= (0.0975707173)) {
                if ((input[1]) >= (0.00633395324)) {
                    var61 = -0.0733668134;
                } else {
                    var61 = 0.191218302;
                }
            } else {
                if ((input[6]) >= (0.0384369493)) {
                    var61 = 0.0299853794;
                } else {
                    var61 = -0.0170783419;
                }
            }
        }
        double var62;
        if ((input[0]) >= (0.447852731)) {
            if ((input[6]) >= (0.495924592)) {
                var62 = -0.185160786;
            } else {
                if ((input[4]) >= (0.00169863808)) {
                    var62 = 0.295621544;
                } else {
                    var62 = 0.0356598422;
                }
            }
        } else {
            if ((input[4]) >= (0.162673891)) {
                var62 = -0.359818637;
            } else {
                if ((input[6]) >= (0.109237656)) {
                    var62 = -0.0234631188;
                } else {
                    var62 = 0.00272646965;
                }
            }
        }
        double var63;
        if ((input[3]) >= (0.0949999988)) {
            if ((input[7]) >= (0.0113767534)) {
                if ((input[2]) >= (0.0123762377)) {
                    var63 = 0.144706845;
                } else {
                    var63 = -0.0880914554;
                }
            } else {
                if ((input[6]) >= (0.0536199436)) {
                    var63 = -0.0276535209;
                } else {
                    var63 = 0.193867221;
                }
            }
        } else {
            if ((input[6]) >= (0.177800864)) {
                if ((input[2]) >= (0.0651815236)) {
                    var63 = 0.239076585;
                } else {
                    var63 = -0.14277178;
                }
            } else {
                if ((input[6]) >= (0.106041238)) {
                    var63 = -0.0556429029;
                } else {
                    var63 = 0.000652628019;
                }
            }
        }
        double var64;
        if ((input[4]) >= (0.000278225227)) {
            if ((input[1]) >= (0.00372457318)) {
                if ((input[6]) >= (0.0301262587)) {
                    var64 = 0.00413512113;
                } else {
                    var64 = -0.0261458904;
                }
            } else {
                if ((input[6]) >= (0.0163816512)) {
                    var64 = 0.125164255;
                } else {
                    var64 = -0.0108641014;
                }
            }
        } else {
            if ((input[6]) >= (0.116909057)) {
                if ((input[6]) >= (0.136407226)) {
                    var64 = -0.0895097628;
                } else {
                    var64 = 0.200491086;
                }
            } else {
                if ((input[3]) >= (0.145000011)) {
                    var64 = 0.159742057;
                } else {
                    var64 = -0.11812371;
                }
            }
        }
        double var65;
        if ((input[1]) >= (0.352221638)) {
            if ((input[4]) >= (0.00680919597)) {
                var65 = 0.117309444;
            } else {
                var65 = 0.356435984;
            }
        } else {
            if ((input[7]) >= (0.000224991687)) {
                if ((input[4]) >= (0.0823839456)) {
                    var65 = -0.221377775;
                } else {
                    var65 = 0.000416797178;
                }
            } else {
                if ((input[5]) >= (1.32442592e-05)) {
                    var65 = -0.106432095;
                } else {
                    var65 = -0.50525552;
                }
            }
        }
        double var66;
        if ((input[7]) >= (0.00169232883)) {
            if ((input[1]) >= (0.00432092417)) {
                if ((input[2]) >= (0.0107260719)) {
                    var66 = -0.0132771721;
                } else {
                    var66 = 0.0919465572;
                }
            } else {
                if ((input[2]) >= (0.0354785472)) {
                    var66 = 0.109252833;
                } else {
                    var66 = -0.00506092608;
                }
            }
        } else {
            if ((input[0]) >= (0.0105890427)) {
                if ((input[3]) >= (0.344999999)) {
                    var66 = -0.0871253833;
                } else {
                    var66 = 0.107638173;
                }
            } else {
                if ((input[3]) >= (0.0350000001)) {
                    var66 = -0.454666167;
                } else {
                    var66 = -0.0486040898;
                }
            }
        }
        double var67;
        if ((input[7]) >= (0.00871598162)) {
            if ((input[7]) >= (0.0112398025)) {
                if ((input[6]) >= (0.0940546542)) {
                    var67 = 0.0659810603;
                } else {
                    var67 = -0.0148319602;
                }
            } else {
                if ((input[1]) >= (0.0090451166)) {
                    var67 = -0.00265303557;
                } else {
                    var67 = -0.171133459;
                }
            }
        } else {
            if ((input[6]) >= (0.109237656)) {
                if ((input[2]) >= (0.286303639)) {
                    var67 = 0.18145746;
                } else {
                    var67 = -0.0510893054;
                }
            } else {
                if ((input[2]) >= (0.0173267331)) {
                    var67 = 0.059266232;
                } else {
                    var67 = -0.0389668532;
                }
            }
        }
        double var68;
        if ((input[3]) >= (0.774999976)) {
            if ((input[2]) >= (0.0198019817)) {
                var68 = 0.319647253;
            } else {
                var68 = -0.209598675;
            }
        } else {
            if ((input[4]) >= (0.0198125653)) {
                if ((input[1]) >= (0.00486100465)) {
                    var68 = -0.00360669219;
                } else {
                    var68 = -0.143354714;
                }
            } else {
                if ((input[1]) >= (0.00321428198)) {
                    var68 = 0.00119882612;
                } else {
                    var68 = 0.19366695;
                }
            }
        }
        double var69;
        if ((input[0]) >= (0.179728568)) {
            if ((input[1]) >= (0.00621589646)) {
                if ((input[1]) >= (0.00758182164)) {
                    var69 = 0.0657769218;
                } else {
                    var69 = -0.329712421;
                }
            } else {
                if ((input[6]) >= (0.10220553)) {
                    var69 = 0.505545139;
                } else {
                    var69 = 0.159610927;
                }
            }
        } else {
            if ((input[7]) >= (0.000244556169)) {
                if ((input[1]) >= (0.0247474611)) {
                    var69 = -0.0249276664;
                } else {
                    var69 = 0.00324941194;
                }
            } else {
                if ((input[6]) >= (0.100127861)) {
                    var69 = -0.70154202;
                } else {
                    var69 = 0.0427398048;
                }
            }
        }
        double var70;
        if ((input[5]) >= (0.0365042947)) {
            if ((input[5]) >= (0.11841926)) {
                if ((input[3]) >= (0.314999998)) {
                    var70 = 0.297420025;
                } else {
                    var70 = -0.02702857;
                }
            } else {
                if ((input[3]) >= (0.345000029)) {
                    var70 = -0.693958879;
                } else {
                    var70 = -0.182065427;
                }
            }
        } else {
            if ((input[5]) >= (0.0233157389)) {
                if ((input[6]) >= (0.0220552981)) {
                    var70 = 0.257644951;
                } else {
                    var70 = -0.0484183393;
                }
            } else {
                if ((input[7]) >= (0.0227241591)) {
                    var70 = 0.0148254205;
                } else {
                    var70 = -0.00348279998;
                }
            }
        }
        double var71;
        if ((input[2]) >= (0.674092412)) {
            if ((input[5]) >= (0.032716047)) {
                var71 = -0.48827976;
            } else {
                if ((input[2]) >= (0.699669957)) {
                    var71 = -0.260955334;
                } else {
                    var71 = 0.118515693;
                }
            }
        } else {
            if ((input[2]) >= (0.205445543)) {
                if ((input[3]) >= (0.50999999)) {
                    var71 = -0.63335824;
                } else {
                    var71 = 0.0456358418;
                }
            } else {
                if ((input[1]) >= (0.153185517)) {
                    var71 = 0.142825246;
                } else {
                    var71 = -0.00255750818;
                }
            }
        }
        double var72;
        if ((input[2]) >= (0.00247524772)) {
            if ((input[7]) >= (0.000890184485)) {
                if ((input[6]) >= (0.0103084547)) {
                    var72 = -0.000877913437;
                } else {
                    var72 = -0.0671932623;
                }
            } else {
                if ((input[3]) >= (0.36500001)) {
                    var72 = -0.130134791;
                } else {
                    var72 = 0.108494706;
                }
            }
        } else {
            if ((input[3]) >= (0.0450000018)) {
                if ((input[3]) >= (0.155000001)) {
                    var72 = 0.23228088;
                } else {
                    var72 = -0.344266713;
                }
            } else {
                var72 = 0.357049704;
            }
        }
        double var73;
        if ((input[7]) >= (0.0227241591)) {
            if ((input[6]) >= (0.0448297895)) {
                if ((input[0]) >= (0.013774829)) {
                    var73 = 0.0347756483;
                } else {
                    var73 = 0.287949979;
                }
            } else {
                if ((input[7]) >= (0.0690920129)) {
                    var73 = 0.0224915631;
                } else {
                    var73 = -0.0356122926;
                }
            }
        } else {
            if ((input[6]) >= (0.047227107)) {
                if ((input[6]) >= (0.077912733)) {
                    var73 = -0.00119556487;
                } else {
                    var73 = -0.0759022012;
                }
            } else {
                if ((input[0]) >= (0.0114165172)) {
                    var73 = 0.1112298;
                } else {
                    var73 = -0.0676091015;
                }
            }
        }
        double var74;
        if ((input[2]) >= (0.0684818476)) {
            if ((input[0]) >= (0.0268756375)) {
                if ((input[7]) >= (0.0490188412)) {
                    var74 = -0.158214018;
                } else {
                    var74 = 0.0340207331;
                }
            } else {
                if ((input[6]) >= (0.1194662)) {
                    var74 = 0.131902799;
                } else {
                    var74 = -0.0589135326;
                }
            }
        } else {
            if ((input[6]) >= (0.227105647)) {
                if ((input[0]) >= (0.191430762)) {
                    var74 = -0.0378224924;
                } else {
                    var74 = -0.253262997;
                }
            } else {
                if ((input[6]) >= (0.0341217816)) {
                    var74 = 0.0355193987;
                } else {
                    var74 = -0.00990012474;
                }
            }
        }
        double var75;
        if ((input[6]) >= (0.0734377503)) {
            if ((input[6]) >= (0.0793511271)) {
                if ((input[2]) >= (0.0453795381)) {
                    var75 = 0.0113562047;
                } else {
                    var75 = -0.054842297;
                }
            } else {
                if ((input[2]) >= (0.0750825107)) {
                    var75 = -0.228220642;
                } else {
                    var75 = 0.139581367;
                }
            }
        } else {
            if ((input[2]) >= (0.19884488)) {
                if ((input[2]) >= (0.357260734)) {
                    var75 = -0.00360353617;
                } else {
                    var75 = 0.217643574;
                }
            } else {
                if ((input[3]) >= (0.145000011)) {
                    var75 = 0.21518445;
                } else {
                    var75 = -0.0029948419;
                }
            }
        }
        double var76;
        if ((input[6]) >= (0.0980501771)) {
            if ((input[0]) >= (0.0200187452)) {
                if ((input[0]) >= (0.0909226984)) {
                    var76 = 0.0115150176;
                } else {
                    var76 = -0.055629991;
                }
            } else {
                if ((input[6]) >= (0.1194662)) {
                    var76 = 0.136713594;
                } else {
                    var76 = -0.0204644706;
                }
            }
        } else {
            if ((input[3]) >= (0.194999993)) {
                if ((input[0]) >= (0.0380245373)) {
                    var76 = -0.00725204172;
                } else {
                    var76 = 0.263132513;
                }
            } else {
                if ((input[2]) >= (0.360561073)) {
                    var76 = -0.111716501;
                } else {
                    var76 = 0.00410790555;
                }
            }
        }
        double var77;
        if ((input[5]) >= (1.94768518e-06)) {
            if ((input[1]) >= (0.00432092417)) {
                if ((input[1]) >= (0.00552272843)) {
                    var77 = 0.00356718036;
                } else {
                    var77 = -0.0753976256;
                }
            } else {
                if ((input[6]) >= (0.0310851857)) {
                    var77 = 0.176174328;
                } else {
                    var77 = -0.00730335759;
                }
            }
        } else {
            if ((input[6]) >= (0.0718395412)) {
                if ((input[2]) >= (0.169966996)) {
                    var77 = 0.15906401;
                } else {
                    var77 = -0.0466081314;
                }
            } else {
                if ((input[2]) >= (0.0255775582)) {
                    var77 = -0.505721986;
                } else {
                    var77 = -0.220148191;
                }
            }
        }
        double var78;
        if ((input[0]) >= (0.000591221848)) {
            if ((input[0]) >= (0.000756312045)) {
                if ((input[5]) >= (0.0331834927)) {
                    var78 = -0.139488265;
                } else {
                    var78 = 0.000327803369;
                }
            } else {
                if ((input[2]) >= (0.0239273924)) {
                    var78 = -0.185360879;
                } else {
                    var78 = 0.22061573;
                }
            }
        } else {
            if ((input[2]) >= (0.0107260719)) {
                var78 = 0.0807305276;
            } else {
                var78 = -0.298702896;
            }
        }
        double var79;
        if ((input[1]) >= (0.0250108801)) {
            if ((input[1]) >= (0.0266603641)) {
                if ((input[6]) >= (0.152229503)) {
                    var79 = -0.063835077;
                } else {
                    var79 = 0.0174712911;
                }
            } else {
                if ((input[6]) >= (0.164216071)) {
                    var79 = 0.23910217;
                } else {
                    var79 = -0.115400486;
                }
            }
        } else {
            if ((input[2]) >= (0.129537955)) {
                if ((input[3]) >= (0.324999988)) {
                    var79 = -0.433068246;
                } else {
                    var79 = 0.0621560961;
                }
            } else {
                if ((input[1]) >= (0.0119626019)) {
                    var79 = -0.0295350477;
                } else {
                    var79 = 0.00318215345;
                }
            }
        }
        double var80;
        if ((input[0]) >= (0.610252619)) {
            if ((input[2]) >= (0.102310225)) {
                var80 = -0.0629181117;
            } else {
                var80 = 0.297186762;
            }
        } else {
            if ((input[2]) >= (0.0684818476)) {
                if ((input[6]) >= (0.0839859396)) {
                    var80 = 0.0209473632;
                } else {
                    var80 = -0.0323823206;
                }
            } else {
                if ((input[0]) >= (0.0265788455)) {
                    var80 = -0.0270921793;
                } else {
                    var80 = 0.0208698846;
                }
            }
        }
        double var81;
        if ((input[1]) >= (0.00733219273)) {
            if ((input[7]) >= (0.0907303393)) {
                if ((input[3]) >= (0.00499999989)) {
                    var81 = 0.0007466877;
                } else {
                    var81 = -0.261375159;
                }
            } else {
                if ((input[1]) >= (0.00769877527)) {
                    var81 = 0.00446457602;
                } else {
                    var81 = 0.153766081;
                }
            }
        } else {
            if ((input[1]) >= (0.00694437139)) {
                if ((input[7]) >= (0.0118658654)) {
                    var81 = 0.312330425;
                } else {
                    var81 = -0.421712399;
                }
            } else {
                if ((input[4]) >= (0.000483233278)) {
                    var81 = -0.0132097257;
                } else {
                    var81 = 0.0997486115;
                }
            }
        }
        double var82;
        if ((input[0]) >= (0.00760460366)) {
            if ((input[1]) >= (0.00390110631)) {
                if ((input[1]) >= (0.00550976396)) {
                    var82 = 0.00786153786;
                } else {
                    var82 = -0.046685297;
                }
            } else {
                if ((input[7]) >= (0.0659323484)) {
                    var82 = -0.0597362779;
                } else {
                    var82 = 0.144065171;
                }
            }
        } else {
            if ((input[7]) >= (0.0869543925)) {
                if ((input[1]) >= (0.0036456848)) {
                    var82 = 0.138729274;
                } else {
                    var82 = -0.022371985;
                }
            } else {
                if ((input[0]) >= (0.000875703117)) {
                    var82 = -0.0505336747;
                } else {
                    var82 = 0.105672047;
                }
            }
        }
        double var83;
        if ((input[7]) >= (0.00875511114)) {
            if ((input[0]) >= (0.0284191202)) {
                if ((input[7]) >= (0.0163265709)) {
                    var83 = -0.0674926937;
                } else {
                    var83 = -0.000280360051;
                }
            } else {
                if ((input[3]) >= (0.0149999997)) {
                    var83 = 0.0534315221;
                } else {
                    var83 = -0.0100750355;
                }
            }
        } else {
            if ((input[0]) >= (0.0157817118)) {
                if ((input[1]) >= (0.0050720172)) {
                    var83 = 0.0274007712;
                } else {
                    var83 = 0.220225647;
                }
            } else {
                if ((input[7]) >= (0.00830512866)) {
                    var83 = 0.148033693;
                } else {
                    var83 = -0.0594617687;
                }
            }
        }
        double var84;
        if ((input[2]) >= (0.461221129)) {
            if ((input[6]) >= (0.0493846908)) {
                if ((input[6]) >= (0.107399717)) {
                    var84 = 0.00393440714;
                } else {
                    var84 = -0.212259322;
                }
            } else {
                if ((input[2]) >= (0.674917459)) {
                    var84 = -0.158166006;
                } else {
                    var84 = 0.292075902;
                }
            }
        } else {
            if ((input[2]) >= (0.2830033)) {
                if ((input[6]) >= (0.056017261)) {
                    var84 = -0.00722752092;
                } else {
                    var84 = 0.330616415;
                }
            } else {
                if ((input[6]) >= (0.11099568)) {
                    var84 = -0.0261733569;
                } else {
                    var84 = 0.00276582828;
                }
            }
        }
        double var85;
        if ((input[2]) >= (0.0288778879)) {
            if ((input[1]) >= (0.0130355917)) {
                if ((input[1]) >= (0.015328316)) {
                    var85 = 0.00236835936;
                } else {
                    var85 = -0.0703248978;
                }
            } else {
                if ((input[1]) >= (0.0112137143)) {
                    var85 = 0.0821844712;
                } else {
                    var85 = 0.00845562946;
                }
            }
        } else {
            if ((input[1]) >= (0.0035734165)) {
                if ((input[1]) >= (0.00645835418)) {
                    var85 = 0.00402184203;
                } else {
                    var85 = -0.0464851148;
                }
            } else {
                if ((input[2]) >= (0.00907590799)) {
                    var85 = 0.136479616;
                } else {
                    var85 = -0.057426583;
                }
            }
        }
        double var86;
        if ((input[6]) >= (0.00359597243)) {
            if ((input[6]) >= (0.0119066648)) {
                if ((input[2]) >= (0.00577557739)) {
                    var86 = -0.000624477107;
                } else {
                    var86 = 0.0696879402;
                }
            } else {
                if ((input[2]) >= (0.00907590799)) {
                    var86 = 0.0059261024;
                } else {
                    var86 = -0.141500771;
                }
            }
        } else {
            if ((input[4]) >= (0.00692634378)) {
                var86 = 0.429457843;
            } else {
                if ((input[4]) >= (0.000966466556)) {
                    var86 = 0.0244650822;
                } else {
                    var86 = 0.280436009;
                }
            }
        }
        double var87;
        if ((input[7]) >= (0.0127462689)) {
            if ((input[7]) >= (0.0220785327)) {
                if ((input[6]) >= (0.0478663892)) {
                    var87 = 0.128311485;
                } else {
                    var87 = -0.0125787305;
                }
            } else {
                if ((input[6]) >= (0.0290075131)) {
                    var87 = -0.0419086069;
                } else {
                    var87 = 0.0588201843;
                }
            }
        } else {
            if ((input[6]) >= (0.0974109024)) {
                if ((input[1]) >= (0.00924868044)) {
                    var87 = 0.0131901354;
                } else {
                    var87 = -0.179593161;
                }
            } else {
                if ((input[0]) >= (0.0256822333)) {
                    var87 = 0.0805075616;
                } else {
                    var87 = -0.000779367576;
                }
            }
        }
        double var88;
        if ((input[4]) >= (0.000248938333)) {
            if ((input[3]) >= (0.675000012)) {
                if ((input[6]) >= (0.257871181)) {
                    var88 = -0.138905019;
                } else {
                    var88 = 0.200885594;
                }
            } else {
                if ((input[4]) >= (0.0058134431)) {
                    var88 = -0.0174588356;
                } else {
                    var88 = 0.00755483704;
                }
            }
        } else {
            if ((input[3]) >= (0.0149999997)) {
                if ((input[7]) >= (0.0175591335)) {
                    var88 = 0.11799407;
                } else {
                    var88 = -0.0417264774;
                }
            } else {
                if ((input[4]) >= (0.000190364619)) {
                    var88 = -0.211415768;
                } else {
                    var88 = -0.00831920654;
                }
            }
        }
        double var89;
        if ((input[0]) >= (0.276068568)) {
            if ((input[3]) >= (0.0350000001)) {
                if ((input[3]) >= (0.075000003)) {
                    var89 = 0.0345917605;
                } else {
                    var89 = -0.330978125;
                }
            } else {
                if ((input[7]) >= (0.00896053854)) {
                    var89 = 0.00730187865;
                } else {
                    var89 = 0.206806466;
                }
            }
        } else {
            if ((input[7]) >= (0.000244556169)) {
                if ((input[4]) >= (0.162673891)) {
                    var89 = -0.314237922;
                } else {
                    var89 = -0.00224390626;
                }
            } else {
                if ((input[0]) >= (0.0842196047)) {
                    var89 = 0.0279421322;
                } else {
                    var89 = -0.338139057;
                }
            }
        }
        double var90;
        if ((input[1]) >= (0.0247607008)) {
            if ((input[7]) >= (0.0276348479)) {
                if ((input[2]) >= (0.0833333284)) {
                    var90 = -0.220408216;
                } else {
                    var90 = 0.105860449;
                }
            } else {
                if ((input[2]) >= (0.00742574269)) {
                    var90 = -0.0139879892;
                } else {
                    var90 = 0.198531494;
                }
            }
        } else {
            if ((input[1]) >= (0.0244970061)) {
                if ((input[0]) >= (0.0256754868)) {
                    var90 = 0.321098208;
                } else {
                    var90 = -0.10018497;
                }
            } else {
                if ((input[7]) >= (0.0227241591)) {
                    var90 = 0.0164732337;
                } else {
                    var90 = -0.0131714698;
                }
            }
        }
        double var91;
        if ((input[1]) >= (0.0260882862)) {
            if ((input[1]) >= (0.0266407784)) {
                if ((input[0]) >= (0.0369754806)) {
                    var91 = -0.028787503;
                } else {
                    var91 = 0.0377026834;
                }
            } else {
                if ((input[6]) >= (0.214080229)) {
                    var91 = 0.264619201;
                } else {
                    var91 = -0.11204017;
                }
            }
        } else {
            if ((input[1]) >= (0.0255746841)) {
                if ((input[7]) >= (0.0182341076)) {
                    var91 = 0.0101277074;
                } else {
                    var91 = 0.371394664;
                }
            } else {
                if ((input[1]) >= (0.025194034)) {
                    var91 = -0.129887074;
                } else {
                    var91 = 0.00440298766;
                }
            }
        }
        double var92;
        if ((input[6]) >= (0.183394596)) {
            if ((input[1]) >= (0.0649272278)) {
                if ((input[1]) >= (0.352221638)) {
                    var92 = 0.186253756;
                } else {
                    var92 = -0.174494952;
                }
            } else {
                if ((input[1]) >= (0.00691016857)) {
                    var92 = 0.0916455165;
                } else {
                    var92 = 0.266654998;
                }
            }
        } else {
            if ((input[1]) >= (0.0910430923)) {
                if ((input[6]) >= (0.173166052)) {
                    var92 = -0.15228945;
                } else {
                    var92 = 0.17224443;
                }
            } else {
                if ((input[1]) >= (0.026373772)) {
                    var92 = -0.0322544575;
                } else {
                    var92 = -0.00177137123;
                }
            }
        }
        double var93;
        if ((input[5]) >= (0.000343182124)) {
            if ((input[3]) >= (0.0549999997)) {
                if ((input[7]) >= (0.0110245924)) {
                    var93 = 0.0544228293;
                } else {
                    var93 = -0.304927558;
                }
            } else {
                if ((input[5]) >= (0.0017026664)) {
                    var93 = 0.0615047999;
                } else {
                    var93 = -0.109350078;
                }
            }
        } else {
            if ((input[7]) >= (0.0178330354)) {
                if ((input[0]) >= (0.102944441)) {
                    var93 = -0.154954299;
                } else {
                    var93 = -0.00156681763;
                }
            } else {
                if ((input[3]) >= (0.0149999997)) {
                    var93 = -0.0116788214;
                } else {
                    var93 = 0.029113004;
                }
            }
        }
        double var94;
        if ((input[0]) >= (0.0512440614)) {
            if ((input[1]) >= (0.00390220946)) {
                if ((input[7]) >= (0.0185960531)) {
                    var94 = -0.0341112576;
                } else {
                    var94 = 0.0352830812;
                }
            } else {
                if ((input[4]) >= (0.0291990042)) {
                    var94 = -0.162926704;
                } else {
                    var94 = 0.306330532;
                }
            }
        } else {
            if ((input[0]) >= (0.0505632982)) {
                if ((input[4]) >= (0.00287011266)) {
                    var94 = -0.00208574859;
                } else {
                    var94 = -0.351864249;
                }
            } else {
                if ((input[1]) >= (0.0246920176)) {
                    var94 = -0.0261404123;
                } else {
                    var94 = 0.00405920576;
                }
            }
        }
        double var95;
        if ((input[6]) >= (0.0227744915)) {
            if ((input[0]) >= (0.00420583691)) {
                if ((input[1]) >= (0.00504139997)) {
                    var95 = -0.00678636692;
                } else {
                    var95 = 0.0551886931;
                }
            } else {
                if ((input[6]) >= (0.0283682272)) {
                    var95 = 0.247484252;
                } else {
                    var95 = 0.0866710171;
                }
            }
        } else {
            if ((input[5]) >= (6.6221296e-06)) {
                if ((input[5]) >= (1.90873143e-05)) {
                    var95 = -0.0520399548;
                } else {
                    var95 = 0.0584078655;
                }
            } else {
                if ((input[2]) >= (0.00412541255)) {
                    var95 = -0.132915273;
                } else {
                    var95 = 0.309184462;
                }
            }
        }
        double var96;
        if ((input[0]) >= (0.00739617553)) {
            if ((input[6]) >= (0.0149432635)) {
                if ((input[1]) >= (0.00726351049)) {
                    var96 = 0.0108078765;
                } else {
                    var96 = -0.0254898351;
                }
            } else {
                if ((input[1]) >= (0.0186932012)) {
                    var96 = -0.133241951;
                } else {
                    var96 = 0.120615289;
                }
            }
        } else {
            if ((input[6]) >= (0.0429119393)) {
                if ((input[1]) >= (0.00744831841)) {
                    var96 = 0.216869533;
                } else {
                    var96 = 0.0747213736;
                }
            } else {
                if ((input[1]) >= (0.00745300762)) {
                    var96 = -0.130549282;
                } else {
                    var96 = -0.0195107795;
                }
            }
        }
        double var97;
        if ((input[6]) >= (0.0103084547)) {
            if ((input[2]) >= (0.0107260719)) {
                if ((input[6]) >= (0.0127057694)) {
                    var97 = 0.00212313747;
                } else {
                    var97 = -0.114872433;
                }
            } else {
                if ((input[3]) >= (0.0350000001)) {
                    var97 = -0.113727979;
                } else {
                    var97 = 0.0606925413;
                }
            }
        } else {
            if ((input[2]) >= (0.0107260719)) {
                if ((input[2]) >= (0.0239273924)) {
                    var97 = -0.0904976353;
                } else {
                    var97 = 0.267429054;
                }
            } else {
                if ((input[6]) >= (0.0101486333)) {
                    var97 = 0.166197345;
                } else {
                    var97 = -0.25402832;
                }
            }
        }
        double var98;
        if ((input[2]) >= (0.0288778879)) {
            if ((input[0]) >= (0.000828992226)) {
                if ((input[1]) >= (0.00502264313)) {
                    var98 = 0.000921515108;
                } else {
                    var98 = 0.0625699535;
                }
            } else {
                if ((input[1]) >= (0.00333757931)) {
                    var98 = -0.326389015;
                } else {
                    var98 = 0.0654808134;
                }
            }
        } else {
            if ((input[1]) >= (0.0607033968)) {
                if ((input[1]) >= (0.071179539)) {
                    var98 = -0.057085339;
                } else {
                    var98 = -0.438610405;
                }
            } else {
                if ((input[1]) >= (0.00348846009)) {
                    var98 = -0.015953755;
                } else {
                    var98 = 0.0632977933;
                }
            }
        }
        double var99;
        if ((input[3]) >= (0.0649999976)) {
            if ((input[6]) >= (0.0262905546)) {
                if ((input[6]) >= (0.06496723)) {
                    var99 = 0.0284401141;
                } else {
                    var99 = -0.10096579;
                }
            } else {
                if ((input[6]) >= (0.00839060266)) {
                    var99 = 0.381788522;
                } else {
                    var99 = -0.0948283151;
                }
            }
        } else {
            if ((input[5]) >= (0.00327483797)) {
                if ((input[5]) >= (0.0100504449)) {
                    var99 = 0.00777241169;
                } else {
                    var99 = 0.299843013;
                }
            } else {
                if ((input[4]) >= (0.00423195213)) {
                    var99 = -0.0229015499;
                } else {
                    var99 = 0.000646690722;
                }
            }
        }
        double var100;
        if ((input[7]) >= (0.147741288)) {
            if ((input[3]) >= (0.0249999985)) {
                if ((input[6]) >= (0.0132651422)) {
                    var100 = 0.221174747;
                } else {
                    var100 = 1.35489714;
                }
            } else {
                if ((input[2]) >= (0.0239273924)) {
                    var100 = -0.183755249;
                } else {
                    var100 = 0.0904253572;
                }
            }
        } else {
            if ((input[6]) >= (0.0165414736)) {
                if ((input[2]) >= (0.0107260719)) {
                    var100 = -0.00231487141;
                } else {
                    var100 = 0.0649202317;
                }
            } else {
                if ((input[2]) >= (0.0437293723)) {
                    var100 = 0.167139694;
                } else {
                    var100 = -0.0675452426;
                }
            }
        }
        double var101;
        if ((input[1]) >= (0.00544687454)) {
            if ((input[2]) >= (0.0503300354)) {
                if ((input[1]) >= (0.00671543041)) {
                    var101 = -0.0180333257;
                } else {
                    var101 = 0.126860246;
                }
            } else {
                if ((input[0]) >= (0.0407968387)) {
                    var101 = -0.0191211198;
                } else {
                    var101 = 0.0415015891;
                }
            }
        } else {
            if ((input[3]) >= (0.00499999989)) {
                if ((input[2]) >= (0.0123762377)) {
                    var101 = -0.182882786;
                } else {
                    var101 = -0.00418827496;
                }
            } else {
                if ((input[2]) >= (0.00742574269)) {
                    var101 = 0.0276658088;
                } else {
                    var101 = -0.148945048;
                }
            }
        }
        double var102;
        if ((input[2]) >= (0.116336629)) {
            if ((input[7]) >= (0.0424842983)) {
                if ((input[1]) >= (0.0112732947)) {
                    var102 = -0.184116781;
                } else {
                    var102 = 0.0619733296;
                }
            } else {
                if ((input[6]) >= (0.0366789177)) {
                    var102 = 0.0180811696;
                } else {
                    var102 = 0.143357798;
                }
            }
        } else {
            if ((input[2]) >= (0.0965346545)) {
                if ((input[6]) >= (0.0804698765)) {
                    var102 = 0.0654875189;
                } else {
                    var102 = -0.133165464;
                }
            } else {
                if ((input[6]) >= (0.0363592766)) {
                    var102 = 0.0148467245;
                } else {
                    var102 = -0.0155541897;
                }
            }
        }
        double var103;
        if ((input[1]) >= (0.00279391231)) {
            if ((input[0]) >= (0.00765367551)) {
                if ((input[7]) >= (0.0922857225)) {
                    var103 = -0.0731746331;
                } else {
                    var103 = 0.00386089017;
                }
            } else {
                if ((input[7]) >= (0.0689550638)) {
                    var103 = 0.0351837762;
                } else {
                    var103 = -0.0534230694;
                }
            }
        } else {
            if ((input[7]) >= (0.182781279)) {
                var103 = -0.242115706;
            } else {
                if ((input[4]) >= (0.0582808629)) {
                    var103 = -0.0670340285;
                } else {
                    var103 = 0.330790877;
                }
            }
        }
        double var104;
        if ((input[5]) >= (0.000427322113)) {
            if ((input[0]) >= (0.0100731999)) {
                if ((input[0]) >= (0.0174847208)) {
                    var104 = -0.066496335;
