#include <math.h>
#include <string.h>
void score(double * input, double * output) {
    double var0;
    if ((input[1]) >= (0.029710028)) {
        if ((input[0]) >= (0.0035714286)) {
            if ((input[4]) >= (0.0027623628)) {
                if ((input[0]) >= (0.11071429)) {
                    if ((input[0]) >= (0.13214287)) {
                        if ((input[0]) >= (0.24285714)) {
                            var0 = 0.0;
                        } else {
                            if ((input[0]) >= (0.13928571)) {
                                var0 = 0.45671645;
                            } else {
                                var0 = 0.17142859;
                            }
                        }
                    } else {
                        if ((input[1]) >= (0.08081128)) {
                            if ((input[1]) >= (0.12739661)) {
                                var0 = 0.34285718;
                            } else {
                                var0 = -0.4758621;
                            }
                        } else {
                            var0 = 0.44000003;
                        }
                    }
                } else {
                    if ((input[2]) >= (0.092455626)) {
                        if ((input[2]) >= (0.5724852)) {
                            var0 = -0.20000002;
                        } else {
                            if ((input[0]) >= (0.025)) {
                                var0 = 0.5008895;
                            } else {
                                var0 = 0.3821053;
                            }
                        }
                    } else {
                        if ((input[0]) >= (0.08214286)) {
                            if ((input[1]) >= (0.115512595)) {
                                var0 = 0.15;
                            } else {
                                var0 = 0.5027027;
                            }
                        } else {
                            var0 = 0.5609121;
                        }
                    }
                }
            } else {
                if ((input[4]) >= (0.0023699407)) {
                    if ((input[4]) >= (0.002501433)) {
                        if ((input[4]) >= (0.0026041614)) {
                            if ((input[2]) >= (0.23298815)) {
                                var0 = -0.16363637;
                            } else {
                                var0 = 0.2955224;
                            }
                        } else {
                            if ((input[1]) >= (0.057518616)) {
                                var0 = -0.042857148;
                            } else {
                                var0 = 0.28421053;
                            }
                        }
                    } else {
                        if ((input[4]) >= (0.0024192506)) {
                            if ((input[0]) >= (0.075)) {
                                var0 = -0.17094973;
                            } else {
                                var0 = -0.31139243;
                            }
                        } else {
                            if ((input[1]) >= (0.12961495)) {
                                var0 = 0.17419355;
                            } else {
                                var0 = -0.13333334;
                            }
                        }
                    }
                } else {
                    if ((input[2]) >= (0.019970413)) {
                        if ((input[0]) >= (0.2)) {
                            if ((input[1]) >= (0.1223261)) {
                                var0 = -0.2830189;
                            } else {
                                var0 = 0.3818182;
                            }
                        } else {
                            if ((input[0]) >= (0.09642857)) {
                                var0 = 0.20625001;
                            } else {
                                var0 = 0.4015504;
                            }
                        }
                    } else {
                        if ((input[4]) >= (0.001032419)) {
                            if ((input[4]) >= (0.0013149218)) {
                                var0 = 0.11186441;
                            } else {
                                var0 = -0.4909091;
                            }
                        } else {
                            if ((input[1]) >= (0.12612899)) {
                                var0 = 0.41538465;
                            } else {
                                var0 = -0.05454546;
                            }
                        }
                    }
                }
            }
        } else {
            if ((input[2]) >= (0.11168639)) {
                if ((input[2]) >= (0.15458581)) {
                    if ((input[4]) >= (0.0029657646)) {
                        if ((input[1]) >= (0.06559975)) {
                            if ((input[1]) >= (0.08445571)) {
                                var0 = 0.33405405;
                            } else {
                                var0 = -0.20816328;
                            }
                        } else {
                            if ((input[1]) >= (0.03890033)) {
                                var0 = 0.48736465;
                            } else {
                                var0 = 0.18350516;
                            }
                        }
                    } else {
                        if ((input[4]) >= (0.0023750775)) {
                            if ((input[1]) >= (0.10370781)) {
                                var0 = 0.16666669;
                            } else {
                                var0 = -0.39813086;
                            }
                        } else {
                            if ((input[2]) >= (0.47559172)) {
                                var0 = -0.33333337;
                            } else {
                                var0 = 0.1859155;
                            }
                        }
                    }
                } else {
                    if ((input[1]) >= (0.084376484)) {
                        if ((input[4]) >= (0.014083017)) {
                            if ((input[2]) >= (0.14423077)) {
                                var0 = 0.04615385;
                            } else {
                                var0 = 0.52380955;
                            }
                        } else {
                            if ((input[4]) >= (0.0073532886)) {
                                var0 = -0.20000002;
                            } else {
                                var0 = 0.120000005;
                            }
                        }
                    } else {
                        if ((input[4]) >= (0.0067626014)) {
                            if ((input[1]) >= (0.072650924)) {
                                var0 = -0.55205643;
                            } else {
                                var0 = -0.3284269;
                            }
                        } else {
                            if ((input[4]) >= (0.0028250269)) {
                                var0 = 0.21081083;
                            } else {
                                var0 = -0.1670103;
                            }
                        }
                    }
                }
            } else {
                if ((input[4]) >= (0.0082141515)) {
                    if ((input[1]) >= (0.040009506)) {
                        if ((input[2]) >= (0.036242604)) {
                            var0 = 0.53761065;
                        } else {
                            if ((input[1]) >= (0.0533196)) {
                                var0 = 0.27272728;
                            } else {
                                var0 = -0.120000005;
                            }
                        }
                    } else {
                        if ((input[2]) >= (0.085059166)) {
                            if ((input[1]) >= (0.030819204)) {
                                var0 = 0.105000004;
                            } else {
                                var0 = -0.36;
                            }
                        } else {
                            if ((input[4]) >= (0.07693319)) {
                                var0 = 0.1826087;
                            } else {
                                var0 = 0.5172414;
                            }
                        }
                    }
                } else {
                    if ((input[2]) >= (0.053994082)) {
                        if ((input[4]) >= (0.0068838205)) {
                            if ((input[1]) >= (0.04270322)) {
                                var0 = 0.026938776;
                            } else {
                                var0 = -0.31636363;
                            }
                        } else {
                            if ((input[4]) >= (0.0027315444)) {
                                var0 = 0.38685316;
                            } else {
                                var0 = 0.07688243;
                            }
                        }
                    } else {
                        if ((input[4]) >= (0.0053747427)) {
                            if ((input[1]) >= (0.059103154)) {
                                var0 = 0.0;
                            } else {
                                var0 = 0.31267607;
                            }
                        } else {
                            if ((input[4]) >= (0.0023514498)) {
                                var0 = -0.39428574;
                            } else {
                                var0 = -0.16397515;
                            }
                        }
                    }
                }
            }
        }
    } else {
        if ((input[2]) >= (0.082100585)) {
            if ((input[1]) >= (0.01750911)) {
                if ((input[2]) >= (0.18860947)) {
                    if ((input[0]) >= (0.010714286)) {
                        if ((input[1]) >= (0.02147045)) {
                            var0 = 0.5;
                        } else {
                            if ((input[0]) >= (0.017857144)) {
                                var0 = -0.20000002;
                            } else {
                                var0 = 0.34285718;
                            }
                        }
                    } else {
                        if ((input[1]) >= (0.02242117)) {
                            if ((input[2]) >= (0.26701182)) {
                                var0 = -0.21355933;
                            } else {
                                var0 = 0.030769233;
                            }
                        } else {
                            if ((input[1]) >= (0.020044368)) {
                                var0 = 0.3189189;
                            } else {
                                var0 = -0.10588236;
                            }
                        }
                    }
                } else {
                    if ((input[2]) >= (0.09541421)) {
                        if ((input[1]) >= (0.02242117)) {
                            if ((input[0]) >= (0.010714286)) {
                                var0 = 0.45000002;
                            } else {
                                var0 = -0.47361493;
                            }
                        } else {
                            if ((input[1]) >= (0.020678181)) {
                                var0 = 0.04576271;
                            } else {
                                var0 = -0.36674476;
                            }
                        }
                    } else {
                        if ((input[4]) >= (0.014513448)) {
                            if ((input[1]) >= (0.02701632)) {
                                var0 = -0.3157895;
                            } else {
                                var0 = 0.24624278;
                            }
                        } else {
                            if ((input[4]) >= (0.004680299)) {
                                var0 = -0.32000002;
                            } else {
                                var0 = 0.22500001;
                            }
                        }
                    }
                }
            } else {
                if ((input[1]) >= (0.010537157)) {
                    var0 = -0.57049185;
                } else {
                    if ((input[1]) >= (0.0066550467)) {
                        if ((input[1]) >= (0.009111076)) {
                            if ((input[2]) >= (0.35059172)) {
                                var0 = -0.15;
                            } else {
                                var0 = 0.06666667;
                            }
                        } else {
                            var0 = 0.20000002;
                        }
                    } else {
                        if ((input[1]) >= (0.0025352559)) {
                            var0 = -0.40000004;
                        } else {
                            var0 = 0.0;
                        }
                    }
                }
            }
        } else {
            if ((input[4]) >= (0.010046824)) {
                if ((input[1]) >= (0.017984472)) {
                    if ((input[4]) >= (0.012469156)) {
                        if ((input[1]) >= (0.019093648)) {
                            var0 = 0.4886598;
                        } else {
                            if ((input[4]) >= (0.018964663)) {
                                var0 = 0.32903227;
                            } else {
                                var0 = -0.094736844;
                            }
                        }
                    } else {
                        if ((input[4]) >= (0.011906205)) {
                            if ((input[0]) >= (0.007142857)) {
                                var0 = 0.3818182;
                            } else {
                                var0 = -0.033962265;
                            }
                        } else {
                            if ((input[1]) >= (0.020361274)) {
                                var0 = 0.44788733;
                            } else {
                                var0 = 0.120000005;
                            }
                        }
                    }
                } else {
                    if ((input[1]) >= (0.017826017)) {
                        var0 = 0.0;
                    } else {
                        if ((input[4]) >= (0.01690907)) {
                            if ((input[1]) >= (0.016716845)) {
                                var0 = 0.04615385;
                            } else {
                                var0 = -0.42857146;
                            }
                        } else {
                            var0 = -0.48000002;
                        }
                    }
                }
            } else {
                if ((input[4]) >= (0.0040341383)) {
                    if ((input[4]) >= (0.005111758)) {
                        if ((input[1]) >= (0.021153543)) {
                            if ((input[0]) >= (0.0035714286)) {
                                var0 = 0.504;
                            } else {
                                var0 = -0.07692309;
                            }
                        } else {
                            if ((input[4]) >= (0.006221223)) {
                                var0 = -0.4118919;
                            } else {
                                var0 = 0.042857148;
                            }
                        }
                    } else {
                        if ((input[0]) >= (0.017857144)) {
                            var0 = 0.3;
                        } else {
                            if ((input[2]) >= (0.0806213)) {
                                var0 = 0.0;
                            } else {
                                var0 = -0.5325;
                            }
                        }
                    }
                } else {
                    if ((input[1]) >= (0.0192521)) {
                        if ((input[4]) >= (0.0034249602)) {
                            if ((input[4]) >= (0.003668426)) {
                                var0 = 0.3;
                            } else {
                                var0 = -0.13846155;
                            }
                        } else {
                            if ((input[1]) >= (0.021311995)) {
                                var0 = 0.41176474;
                            } else {
                                var0 = 0.13333334;
                            }
                        }
                    } else {
                        var0 = -0.27272728;
                    }
                }
            }
        }
    }
    double var1;
    if ((input[0]) >= (0.010714286)) {
        if ((input[4]) >= (0.0029236462)) {
            if ((input[2]) >= (0.07618344)) {
                if ((input[3]) >= (0.045008183)) {
                    if ((input[3]) >= (0.23649755)) {
                        if ((input[3]) >= (0.2675941)) {
                            if ((input[0]) >= (0.10357143)) {
                                var1 = -0.14217332;
                            } else {
                                var1 = 0.2754896;
                            }
                        } else {
                            var1 = -0.48656067;
                        }
                    } else {
                        if ((input[0]) >= (0.025)) {
                            if ((input[3]) >= (0.19067103)) {
                                var1 = 0.17114179;
                            } else {
                                var1 = 0.47321197;
                            }
                        } else {
                            if ((input[3]) >= (0.1366612)) {
                                var1 = 0.44893068;
                            } else {
                                var1 = 0.05248106;
                            }
                        }
                    }
                } else {
                    if ((input[0]) >= (0.05357143)) {
                        if ((input[4]) >= (0.0038399822)) {
                            var1 = 0.4208056;
                        } else {
                            var1 = -0.24401213;
                        }
                    } else {
                        if ((input[0]) >= (0.03214286)) {
                            if ((input[2]) >= (0.15310651)) {
                                var1 = 0.08359575;
                            } else {
                                var1 = -0.43557134;
                            }
                        } else {
                            if ((input[3]) >= (0.032733224)) {
                                var1 = -0.28690907;
                            } else {
                                var1 = 0.3051009;
                            }
                        }
                    }
                }
            } else {
                if ((input[4]) >= (0.0034629696)) {
                    var1 = 0.45032364;
                } else {
                    if ((input[3]) >= (0.17266776)) {
                        if ((input[0]) >= (0.05357143)) {
                            var1 = 0.25170067;
                        } else {
                            var1 = -0.16460764;
                        }
                    } else {
                        var1 = 0.340029;
                    }
                }
            }
        } else {
            if ((input[4]) >= (0.0023473408)) {
                if ((input[3]) >= (0.17430443)) {
                    if ((input[4]) >= (0.0025569063)) {
                        if ((input[3]) >= (0.31669396)) {
                            if ((input[3]) >= (0.46317512)) {
                                var1 = -0.2082447;
                            } else {
                                var1 = 0.39001763;
                            }
                        } else {
                            if ((input[4]) >= (0.002756199)) {
                                var1 = 0.009281006;
                            } else {
                                var1 = -0.40895206;
                            }
                        }
                    } else {
                        if ((input[3]) >= (0.33142388)) {
                            if ((input[3]) >= (0.37234044)) {
                                var1 = -0.27030852;
                            } else {
                                var1 = 0.0014053625;
                            }
                        } else {
                            if ((input[3]) >= (0.18248773)) {
                                var1 = -0.4423435;
                            } else {
                                var1 = -0.020570854;
                            }
                        }
                    }
                } else {
                    if ((input[3]) >= (0.046644844)) {
                        if ((input[2]) >= (0.017011834)) {
                            if ((input[0]) >= (0.24285714)) {
                                var1 = -0.19223319;
                            } else {
                                var1 = 0.36279038;
                            }
                        } else {
                            if ((input[0]) >= (0.07857143)) {
                                var1 = -0.33205986;
                            } else {
                                var1 = 0.2750975;
                            }
                        }
                    } else {
                        if ((input[0]) >= (0.17500001)) {
                            var1 = 0.22358303;
                        } else {
                            if ((input[3]) >= (0.034369886)) {
                                var1 = -0.029878164;
                            } else {
                                var1 = -0.32066825;
                            }
                        }
                    }
                }
            } else {
                if ((input[2]) >= (0.019970413)) {
                    if ((input[0]) >= (0.29285717)) {
                        if ((input[0]) >= (0.34642857)) {
                            var1 = -0.41354883;
                        } else {
                            var1 = -0.04229421;
                        }
                    } else {
                        if ((input[3]) >= (0.04173486)) {
                            if ((input[3]) >= (0.17103109)) {
                                var1 = 0.20316702;
                            } else {
                                var1 = 0.3891232;
                            }
                        } else {
                            if ((input[4]) >= (0.0009718093)) {
                                var1 = -0.15257753;
                            } else {
                                var1 = 0.26385447;
                            }
                        }
                    }
                } else {
                    if ((input[4]) >= (0.001032419)) {
                        if ((input[4]) >= (0.0013149218)) {
                            if ((input[3]) >= (0.040098198)) {
                                var1 = 0.17067418;
                            } else {
                                var1 = -0.10990537;
                            }
                        } else {
                            if ((input[4]) >= (0.0011916477)) {
                                var1 = -0.43262684;
                            } else {
                                var1 = -0.022026183;
                            }
                        }
                    } else {
                        if ((input[0]) >= (0.08928572)) {
                            var1 = 0.35908034;
                        } else {
                            if ((input[3]) >= (0.09328969)) {
                                var1 = 0.1443433;
                            } else {
                                var1 = -0.10547397;
                            }
                        }
                    }
                }
            }
        }
    } else {
        if ((input[3]) >= (0.1366612)) {
            if ((input[2]) >= (0.107248515)) {
                if ((input[2]) >= (0.1693787)) {
                    if ((input[2]) >= (0.18565089)) {
                        if ((input[3]) >= (0.21194762)) {
                            if ((input[3]) >= (0.7062193)) {
                                var1 = -0.24641564;
                            } else {
                                var1 = 0.30883667;
                            }
                        } else {
                            if ((input[3]) >= (0.17430443)) {
                                var1 = -0.0042069107;
                            } else {
                                var1 = 0.19461162;
                            }
                        }
                    } else {
                        if ((input[4]) >= (0.081805594)) {
                            if ((input[3]) >= (0.2626841)) {
                                var1 = 0.092586994;
                            } else {
                                var1 = 0.3694077;
                            }
                        } else {
                            if ((input[2]) >= (0.170858)) {
                                var1 = -0.09622494;
                            } else {
                                var1 = 0.1908994;
                            }
                        }
                    }
                } else {
                    if ((input[4]) >= (0.006964976)) {
                        if ((input[3]) >= (0.52454996)) {
                            var1 = 0.51413435;
                        } else {
                            if ((input[2]) >= (0.11908284)) {
                                var1 = -0.35567695;
                            } else {
                                var1 = -0.21524246;
                            }
                        }
                    } else {
                        if ((input[3]) >= (0.66530275)) {
                            var1 = -0.43831486;
                        } else {
                            if ((input[3]) >= (0.2299509)) {
                                var1 = 0.22138058;
                            } else {
                                var1 = -0.076624714;
                            }
                        }
                    }
                }
            } else {
                if ((input[4]) >= (0.008701083)) {
                    if ((input[3]) >= (0.16775778)) {
                        if ((input[2]) >= (0.092455626)) {
                            if ((input[3]) >= (0.3502455)) {
                                var1 = 0.42296606;
                            } else {
                                var1 = 0.1812631;
                            }
                        } else {
                            var1 = 0.47527012;
                        }
                    } else {
                        if ((input[2]) >= (0.07766272)) {
                            if ((input[2]) >= (0.104289934)) {
                                var1 = -0.26856261;
                            } else {
                                var1 = 0.080099195;
                            }
                        } else {
                            var1 = 0.44735807;
                        }
                    }
                } else {
                    if ((input[3]) >= (0.64566284)) {
                        if ((input[4]) >= (0.001341631)) {
                            var1 = -0.54117006;
                        } else {
                            var1 = -0.05334584;
                        }
                    } else {
                        if ((input[2]) >= (0.05251479)) {
                            if ((input[3]) >= (0.200491)) {
                                var1 = 0.2722337;
                            } else {
                                var1 = -0.013758247;
                            }
                        } else {
                            if ((input[4]) >= (0.0053202966)) {
                                var1 = 0.41437918;
                            } else {
                                var1 = -0.20610404;
                            }
                        }
                    }
                }
            }
        } else {
            if ((input[2]) >= (0.08801775)) {
                if ((input[2]) >= (0.20044379)) {
                    if ((input[3]) >= (0.031914894)) {
                        if ((input[3]) >= (0.07283142)) {
                            if ((input[3]) >= (0.10883798)) {
                                var1 = -0.17998284;
                            } else {
                                var1 = 0.015780428;
                            }
                        } else {
                            if ((input[4]) >= (0.0024582872)) {
                                var1 = -0.21326326;
                            } else {
                                var1 = -0.46684077;
                            }
                        }
                    } else {
                        if ((input[3]) >= (0.017184943)) {
                            if ((input[2]) >= (0.37130177)) {
                                var1 = -0.26795352;
                            } else {
                                var1 = 0.2293526;
                            }
                        } else {
                            if ((input[2]) >= (0.44230768)) {
                                var1 = -0.04446574;
                            } else {
                                var1 = -0.37720993;
                            }
                        }
                    }
                } else {
                    if ((input[4]) >= (0.009455109)) {
                        if ((input[3]) >= (0.030278232)) {
                            if ((input[3]) >= (0.1202946)) {
                                var1 = -0.21234882;
                            } else {
                                var1 = -0.38620597;
                            }
                        } else {
                            if ((input[3]) >= (0.02864157)) {
                                var1 = 0.078967676;
                            } else {
                                var1 = -0.24387147;
                            }
                        }
                    } else {
                        if ((input[3]) >= (0.103927985)) {
                            if ((input[3]) >= (0.123567924)) {
                                var1 = -0.04272557;
                            } else {
                                var1 = -0.32624;
                            }
                        } else {
                            if ((input[3]) >= (0.08265139)) {
                                var1 = 0.03830902;
                            } else {
                                var1 = -0.17993307;
                            }
                        }
                    }
                }
            } else {
                if ((input[4]) >= (0.009936905)) {
                    if ((input[2]) >= (0.08357988)) {
                        if ((input[3]) >= (0.07446809)) {
                            if ((input[2]) >= (0.086538464)) {
                                var1 = -0.18299215;
                            } else {
                                var1 = 0.10975916;
                            }
                        } else {
                            if ((input[3]) >= (0.030278232)) {
                                var1 = -0.41947234;
                            } else {
                                var1 = -0.045908652;
                            }
                        }
                    } else {
                        if ((input[3]) >= (0.066284776)) {
                            if ((input[4]) >= (0.02427674)) {
                                var1 = 0.031816516;
                            } else {
                                var1 = 0.3342418;
                            }
                        } else {
                            if ((input[4]) >= (0.01732923)) {
                                var1 = 0.29471642;
                            } else {
                                var1 = -0.04159708;
                            }
                        }
                    }
                } else {
                    if ((input[3]) >= (0.08101473)) {
                        if ((input[3]) >= (0.10883798)) {
                            if ((input[3]) >= (0.11211129)) {
                                var1 = -0.13667509;
                            } else {
                                var1 = -0.45089102;
                            }
                        } else {
                            if ((input[2]) >= (0.034763314)) {
                                var1 = -0.054750875;
                            } else {
                                var1 = 0.2144345;
                            }
                        }
                    } else {
                        if ((input[2]) >= (0.043639053)) {
                            if ((input[4]) >= (0.00902365)) {
                                var1 = -0.35992777;
                            } else {
                                var1 = -0.19248582;
                            }
                        } else {
                            if ((input[2]) >= (0.014053254)) {
                                var1 = -0.41847995;
                            } else {
                                var1 = -0.15962157;
                            }
                        }
                    }
                }
            }
        }
    }
    double var2;
    if ((input[1]) >= (0.018935192)) {
        if ((input[0]) >= (0.0035714286)) {
            if ((input[4]) >= (0.0029164553)) {
                if ((input[1]) >= (0.021153543)) {
                    if ((input[1]) >= (0.035572812)) {
                        if ((input[2]) >= (0.07914201)) {
                            if ((input[0]) >= (0.10357143)) {
                                var2 = 0.039481536;
                            } else {
                                var2 = 0.2804841;
                            }
                        } else {
                            if ((input[4]) >= (0.10458353)) {
                                var2 = 0.045876972;
                            } else {
                                var2 = 0.3753492;
                            }
                        }
                    } else {
                        var2 = 0.43820813;
                    }
                } else {
                    if ((input[4]) >= (0.009994432)) {
                        if ((input[1]) >= (0.0192521)) {
                            if ((input[0]) >= (0.02857143)) {
                                var2 = -0.0089083025;
                            } else {
                                var2 = 0.45900345;
                            }
                        } else {
                            if ((input[0]) >= (0.010714286)) {
                                var2 = 0.27056685;
                            } else {
                                var2 = -0.33926973;
                            }
                        }
                    } else {
                        if ((input[2]) >= (0.07026628)) {
                            if ((input[2]) >= (0.104289934)) {
                                var2 = 0.06355924;
                            } else {
                                var2 = -0.4107336;
                            }
                        } else {
                            var2 = 0.04837557;
                        }
                    }
                }
            } else {
                if ((input[4]) >= (0.0023925412)) {
                    if ((input[4]) >= (0.0025569063)) {
                        if ((input[1]) >= (0.13809222)) {
                            if ((input[0]) >= (0.125)) {
                                var2 = 0.09945659;
                            } else {
                                var2 = 0.4146328;
                            }
                        } else {
                            if ((input[0]) >= (0.03214286)) {
                                var2 = -0.016904444;
                            } else {
                                var2 = 0.28154084;
                            }
                        }
                    } else {
                        if ((input[1]) >= (0.16011725)) {
                            if ((input[0]) >= (0.21428572)) {
                                var2 = -0.33578885;
                            } else {
                                var2 = 0.2517356;
                            }
                        } else {
                            if ((input[1]) >= (0.119394705)) {
                                var2 = -0.24590673;
                            } else {
                                var2 = -0.08267339;
                            }
                        }
                    }
                } else {
                    if ((input[2]) >= (0.019970413)) {
                        if ((input[0]) >= (0.03214286)) {
                            if ((input[4]) >= (0.0011844567)) {
                                var2 = 0.08891208;
                            } else {
                                var2 = 0.27273193;
                            }
                        } else {
                            if ((input[1]) >= (0.021787357)) {
                                var2 = 0.3597439;
                            } else {
                                var2 = -0.016544562;
                            }
                        }
                    } else {
                        if ((input[4]) >= (0.0014916144)) {
                            if ((input[1]) >= (0.084931076)) {
                                var2 = 0.15246503;
                            } else {
                                var2 = -0.19355908;
                            }
                        } else {
                            if ((input[4]) >= (0.0011916477)) {
                                var2 = -0.37298286;
                            } else {
                                var2 = 0.12717214;
                            }
                        }
                    }
                }
            }
        } else {
            if ((input[2]) >= (0.104289934)) {
                if ((input[2]) >= (0.1678994)) {
                    if ((input[4]) >= (0.007748793)) {
                        if ((input[1]) >= (0.027650135)) {
                            if ((input[1]) >= (0.039375693)) {
                                var2 = 0.25812626;
                            } else {
                                var2 = 0.14273435;
                            }
                        } else {
                            if ((input[1]) >= (0.02242117)) {
                                var2 = -0.113793984;
                            } else {
                                var2 = 0.17417322;
                            }
                        }
                    } else {
                        if ((input[1]) >= (0.09966725)) {
                            if ((input[1]) >= (0.13516083)) {
                                var2 = 0.010846612;
                            } else {
                                var2 = 0.22818314;
                            }
                        } else {
                            if ((input[1]) >= (0.060291555)) {
                                var2 = -0.19542034;
                            } else {
                                var2 = 0.014851373;
                            }
                        }
                    }
                } else {
                    if ((input[1]) >= (0.038583428)) {
                        if ((input[1]) >= (0.061796863)) {
                            if ((input[1]) >= (0.08231659)) {
                                var2 = 0.104007676;
                            } else {
                                var2 = -0.3446488;
                            }
                        } else {
                            if ((input[2]) >= (0.11168639)) {
                                var2 = 0.40064934;
                            } else {
                                var2 = 0.08936063;
                            }
                        }
                    } else {
                        if ((input[1]) >= (0.021787357)) {
                            if ((input[4]) >= (0.016524868)) {
                                var2 = -0.33757836;
                            } else {
                                var2 = -0.16733783;
                            }
                        } else {
                            if ((input[1]) >= (0.020678181)) {
                                var2 = 0.21772267;
                            } else {
                                var2 = -0.17479762;
                            }
                        }
                    }
                }
            } else {
                if ((input[4]) >= (0.0077775563)) {
                    if ((input[1]) >= (0.033671368)) {
                        if ((input[2]) >= (0.048076924)) {
                            if ((input[1]) >= (0.034622088)) {
                                var2 = 0.3796316;
                            } else {
                                var2 = 0.23169772;
                            }
                        } else {
                            if ((input[4]) >= (0.00965132)) {
                                var2 = 0.31473807;
                            } else {
                                var2 = -0.122675605;
                            }
                        }
                    } else {
                        if ((input[2]) >= (0.09097633)) {
                            if ((input[1]) >= (0.024639517)) {
                                var2 = -0.3081854;
                            } else {
                                var2 = 0.26332995;
                            }
                        } else {
                            if ((input[1]) >= (0.020044368)) {
                                var2 = 0.24399722;
                            } else {
                                var2 = -0.083205946;
                            }
                        }
                    }
                } else {
                    if ((input[2]) >= (0.0658284)) {
                        if ((input[1]) >= (0.034938995)) {
                            if ((input[4]) >= (0.006831429)) {
                                var2 = -0.035378657;
                            } else {
                                var2 = 0.22477366;
                            }
                        } else {
                            if ((input[4]) >= (0.0046227714)) {
                                var2 = -0.29959828;
                            } else {
                                var2 = 0.18058075;
                            }
                        }
                    } else {
                        if ((input[4]) >= (0.0053418693)) {
                            if ((input[1]) >= (0.029868484)) {
                                var2 = 0.35588807;
                            } else {
                                var2 = -0.1307815;
                            }
                        } else {
                            if ((input[4]) >= (0.0022610489)) {
                                var2 = -0.25174758;
                            } else {
                                var2 = -0.024681164;
                            }
                        }
                    }
                }
            }
        }
    } else {
        if ((input[1]) >= (0.01750911)) {
            if ((input[4]) >= (0.060724728)) {
                if ((input[2]) >= (0.12943786)) {
                    if ((input[2]) >= (0.14423077)) {
                        var2 = -0.29336601;
                    } else {
                        var2 = 0.018028857;
                    }
                } else {
                    var2 = -0.45567274;
                }
            } else {
                if ((input[4]) >= (0.012448611)) {
                    if ((input[2]) >= (0.086538464)) {
                        if ((input[2]) >= (0.28846154)) {
                            var2 = 0.13308384;
                        } else {
                            if ((input[4]) >= (0.020791173)) {
                                var2 = -0.2872307;
                            } else {
                                var2 = -0.094250955;
                            }
                        }
                    } else {
                        if ((input[4]) >= (0.01729944)) {
                            var2 = 0.322183;
                        } else {
                            if ((input[4]) >= (0.015736941)) {
                                var2 = -0.09769639;
                            } else {
                                var2 = 0.13204679;
                            }
                        }
                    }
                } else {
                    if ((input[4]) >= (0.0018367812)) {
                        if ((input[1]) >= (0.018776739)) {
                            if ((input[4]) >= (0.009857804)) {
                                var2 = 0.071966365;
                            } else {
                                var2 = -0.18627812;
                            }
                        } else {
                            if ((input[2]) >= (0.25)) {
                                var2 = 0.008040357;
                            } else {
                                var2 = -0.3321593;
                            }
                        }
                    } else {
                        if ((input[2]) >= (0.12795858)) {
                            var2 = -0.07204824;
                        } else {
                            var2 = 0.2768042;
                        }
                    }
                }
            }
        } else {
            if ((input[1]) >= (0.010537157)) {
                if ((input[1]) >= (0.014656948)) {
                    if ((input[2]) >= (0.26701182)) {
                        if ((input[4]) >= (0.015646541)) {
                            var2 = -0.39390275;
                        } else {
                            if ((input[2]) >= (0.34763312)) {
                                var2 = -0.21918392;
                            } else {
                                var2 = 0.15642585;
                            }
                        }
                    } else {
                        if ((input[1]) >= (0.015449216)) {
                            if ((input[1]) >= (0.016241483)) {
                                var2 = -0.36482978;
                            } else {
                                var2 = -0.4300837;
                            }
                        } else {
                            if ((input[2]) >= (0.09689349)) {
                                var2 = -0.29924577;
                            } else {
                                var2 = -0.41276538;
                            }
                        }
                    }
                } else {
                    var2 = -0.42503703;
                }
            } else {
                if ((input[2]) >= (0.43713015)) {
                    if ((input[2]) >= (0.44304734)) {
                        var2 = 0.08064971;
                    } else {
                        if ((input[4]) >= (0.01834213)) {
                            var2 = -0.082212694;
                        } else {
                            var2 = -0.3594253;
                        }
                    }
                } else {
                    var2 = 0.07124266;
                }
            }
        }
    }
    double var3;
    if ((input[1]) >= (0.018301379)) {
        if ((input[0]) >= (0.0035714286)) {
            if ((input[3]) >= (0.18248773)) {
                if ((input[3]) >= (0.29541737)) {
                    if ((input[1]) >= (0.08580257)) {
                        if ((input[0]) >= (0.09642857)) {
                            if ((input[1]) >= (0.18832198)) {
                                var3 = 0.2411975;
                            } else {
                                var3 = -0.08863141;
                            }
                        } else {
                            if ((input[3]) >= (0.47135842)) {
                                var3 = -0.096269324;
                            } else {
                                var3 = 0.26807585;
                            }
                        }
                    } else {
                        if ((input[1]) >= (0.0396926)) {
                            if ((input[3]) >= (0.41325694)) {
                                var3 = 0.029355774;
                            } else {
                                var3 = -0.62712103;
                            }
                        } else {
                            var3 = 0.3727873;
                        }
                    }
                } else {
                    if ((input[1]) >= (0.04405007)) {
                        if ((input[1]) >= (0.17738868)) {
                            if ((input[1]) >= (0.33544606)) {
                                var3 = -0.4072316;
                            } else {
                                var3 = 0.35078114;
                            }
                        } else {
                            if ((input[3]) >= (0.23649755)) {
                                var3 = -0.6471276;
                            } else {
                                var3 = -0.30825084;
                            }
                        }
                    } else {
                        if ((input[4]) >= (0.002719217)) {
                            if ((input[3]) >= (0.2839607)) {
                                var3 = 0.049953274;
                            } else {
                                var3 = 0.38827863;
                            }
                        } else {
                            var3 = 0.015956208;
                        }
                    }
                }
            } else {
                if ((input[1]) >= (0.021153543)) {
                    if ((input[4]) >= (0.0029082368)) {
                        if ((input[3]) >= (0.002454992)) {
                            if ((input[0]) >= (0.025)) {
                                var3 = 0.3657925;
                            } else {
                                var3 = 0.2650431;
                            }
                        } else {
                            if ((input[0]) >= (0.05357143)) {
                                var3 = 0.32052985;
                            } else {
                                var3 = -0.6275309;
                            }
                        }
                    } else {
                        if ((input[3]) >= (0.046644844)) {
                            if ((input[1]) >= (0.18467754)) {
                                var3 = -0.16488507;
                            } else {
                                var3 = 0.25471017;
                            }
                        } else {
                            if ((input[3]) >= (0.0057283146)) {
                                var3 = -0.17831849;
                            } else {
                                var3 = 0.21861973;
                            }
                        }
                    }
                } else {
                    if ((input[3]) >= (0.0883797)) {
                        var3 = 0.4464566;
                    } else {
                        if ((input[3]) >= (0.025368249)) {
                            var3 = -0.42329827;
                        } else {
                            if ((input[0]) >= (0.010714286)) {
                                var3 = 0.0867558;
                            } else {
                                var3 = 0.51382643;
                            }
                        }
                    }
                }
            }
        } else {
            if ((input[1]) >= (0.03890033)) {
                if ((input[1]) >= (0.051259704)) {
                    if ((input[1]) >= (0.0870702)) {
                        if ((input[4]) >= (0.008708274)) {
                            if ((input[3]) >= (0.084288046)) {
                                var3 = 0.33059853;
                            } else {
                                var3 = -0.11259599;
                            }
                        } else {
                            if ((input[4]) >= (0.006783147)) {
                                var3 = -0.34530818;
                            } else {
                                var3 = 0.061457943;
                            }
                        }
                    } else {
                        if ((input[3]) >= (0.30851063)) {
                            if ((input[1]) >= (0.08136587)) {
                                var3 = -0.1683898;
                            } else {
                                var3 = -0.36548942;
                            }
                        } else {
                            if ((input[4]) >= (0.0033376412)) {
                                var3 = 0.3530301;
                            } else {
                                var3 = -0.24605715;
                            }
                        }
                    }
                } else {
                    if ((input[3]) >= (0.05155483)) {
                        if ((input[3]) >= (0.15302783)) {
                            if ((input[3]) >= (0.2806874)) {
                                var3 = 0.40660128;
                            } else {
                                var3 = 0.11633028;
                            }
                        } else {
                            if ((input[4]) >= (0.0024962965)) {
                                var3 = 0.4154081;
                            } else {
                                var3 = 0.08739735;
                            }
                        }
                    } else {
                        if ((input[4]) >= (0.005692173)) {
                            if ((input[3]) >= (0.013093289)) {
                                var3 = -0.07551432;
                            } else {
                                var3 = 0.24863893;
                            }
                        } else {
                            var3 = -0.42895743;
                        }
                    }
                }
            } else {
                if ((input[3]) >= (0.27086744)) {
                    if ((input[1]) >= (0.026224054)) {
                        if ((input[3]) >= (0.28723407)) {
                            if ((input[1]) >= (0.037315797)) {
                                var3 = 0.19475351;
                            } else {
                                var3 = 0.5081043;
                            }
                        } else {
                            if ((input[1]) >= (0.033592142)) {
                                var3 = -0.30812177;
                            } else {
                                var3 = 0.3249792;
                            }
                        }
                    } else {
                        if ((input[3]) >= (0.33142388)) {
                            if ((input[1]) >= (0.021708129)) {
                                var3 = -0.33743823;
                            } else {
                                var3 = 0.3549776;
                            }
                        } else {
                            var3 = 0.50273305;
                        }
                    }
                } else {
                    if ((input[3]) >= (0.045008183)) {
                        if ((input[4]) >= (0.0046042805)) {
                            if ((input[3]) >= (0.21194762)) {
                                var3 = -0.009894958;
                            } else {
                                var3 = -0.23299405;
                            }
                        } else {
                            if ((input[1]) >= (0.029868484)) {
                                var3 = 0.24208808;
                            } else {
                                var3 = -0.110113285;
                            }
                        }
                    } else {
                        if ((input[1]) >= (0.020836633)) {
                            if ((input[3]) >= (0.022094926)) {
                                var3 = 0.42470816;
                            } else {
                                var3 = -0.048680075;
                            }
                        } else {
                            if ((input[1]) >= (0.019885913)) {
                                var3 = 0.058535606;
                            } else {
                                var3 = -0.20517439;
                            }
                        }
                    }
                }
            }
        }
    } else {
        if ((input[3]) >= (0.17184943)) {
            if ((input[1]) >= (0.016003802)) {
                if ((input[4]) >= (0.00531516)) {
                    if ((input[3]) >= (0.19230768)) {
                        var3 = 0.69335043;
                    } else {
                        var3 = 0.2682705;
                    }
                } else {
                    var3 = 0.10058099;
                }
            } else {
                if ((input[1]) >= (0.011725558)) {
                    var3 = -0.4008857;
                } else {
                    var3 = 0.19192226;
                }
            }
        } else {
            if ((input[4]) >= (0.0015316783)) {
                if ((input[3]) >= (0.0106382985)) {
                    if ((input[1]) >= (0.010616384)) {
                        if ((input[3]) >= (0.03846154)) {
                            var3 = -0.39122263;
                        } else {
                            if ((input[3]) >= (0.03682488)) {
                                var3 = -0.05121929;
                            } else {
                                var3 = -0.3640079;
                            }
                        }
                    } else {
                        if ((input[1]) >= (0.008160355)) {
                            var3 = 0.118058845;
                        } else {
                            var3 = -0.3132649;
                        }
                    }
                } else {
                    if ((input[1]) >= (0.014815401)) {
                        if ((input[1]) >= (0.015766121)) {
                            if ((input[1]) >= (0.01750911)) {
                                var3 = 0.071480975;
                            } else {
                                var3 = -0.2827255;
                            }
                        } else {
                            var3 = 0.32753178;
                        }
                    } else {
                        if ((input[3]) >= (0.009001637)) {
                            var3 = -0.055955026;
                        } else {
                            var3 = -0.34409875;
                        }
                    }
                }
            } else {
                if ((input[4]) >= (0.00093071803)) {
                    if ((input[3]) >= (0.042553194)) {
                        var3 = -0.091866046;
                    } else {
                        var3 = 0.22402196;
                    }
                } else {
                    var3 = -0.25557;
                }
            }
        }
    }
    double var4;
    if ((input[0]) >= (0.0035714286)) {
        if ((input[4]) >= (0.0030726022)) {
            if ((input[2]) >= (0.07618344)) {
                if ((input[0]) >= (0.025)) {
                    if ((input[3]) >= (0.37234044)) {
                        if ((input[0]) >= (0.06071429)) {
                            if ((input[0]) >= (0.08928572)) {
                                var4 = -0.08793361;
                            } else {
                                var4 = -0.6323234;
                            }
                        } else {
                            if ((input[3]) >= (0.3846154)) {
                                var4 = 0.26352486;
                            } else {
                                var4 = -0.13339327;
                            }
                        }
                    } else {
                        if ((input[3]) >= (0.03764321)) {
                            if ((input[3]) >= (0.19803602)) {
                                var4 = 0.16354997;
                            } else {
                                var4 = 0.34632573;
                            }
                        } else {
                            if ((input[0]) >= (0.05357143)) {
                                var4 = 0.121996135;
                            } else {
                                var4 = -0.22201669;
                            }
                        }
                    }
                } else {
                    if ((input[3]) >= (0.1366612)) {
                        if ((input[3]) >= (0.27741408)) {
                            if ((input[3]) >= (0.32487726)) {
                                var4 = 0.19903535;
                            } else {
                                var4 = -0.6047687;
                            }
                        } else {
                            if ((input[4]) >= (0.0077190013)) {
                                var4 = 0.378179;
                            } else {
                                var4 = 0.1892085;
                            }
                        }
                    } else {
                        if ((input[3]) >= (0.07446809)) {
                            if ((input[4]) >= (0.016675878)) {
                                var4 = -0.31467134;
                            } else {
                                var4 = 0.03880885;
                            }
                        } else {
                            if ((input[4]) >= (0.008771965)) {
                                var4 = 0.3343165;
                            } else {
                                var4 = 0.018528303;
                            }
                        }
                    }
                }
            } else {
                if ((input[4]) >= (0.0034629696)) {
                    if ((input[3]) >= (0.002454992)) {
                        var4 = 0.3276014;
                    } else {
                        if ((input[0]) >= (0.05357143)) {
                            var4 = 0.2778696;
                        } else {
                            var4 = -0.25957963;
                        }
                    }
                } else {
                    if ((input[4]) >= (0.0032883314)) {
                        if ((input[2]) >= (0.061390534)) {
                            var4 = 0.13506502;
                        } else {
                            var4 = -0.13151354;
                        }
                    } else {
                        var4 = 0.2686212;
                    }
                }
            }
        } else {
            if ((input[4]) >= (0.0011361744)) {
                if ((input[4]) >= (0.001320058)) {
                    if ((input[4]) >= (0.0022959765)) {
                        if ((input[3]) >= (0.17430443)) {
                            if ((input[4]) >= (0.0025507426)) {
                                var4 = 0.044680223;
                            } else {
                                var4 = -0.18298036;
                            }
                        } else {
                            if ((input[3]) >= (0.046644844)) {
                                var4 = 0.15775804;
                            } else {
                                var4 = -0.12647156;
                            }
                        }
                    } else {
                        if ((input[2]) >= (0.056952663)) {
                            if ((input[3]) >= (0.5662848)) {
                                var4 = -0.11180792;
                            } else {
                                var4 = 0.24482177;
                            }
                        } else {
                            if ((input[3]) >= (0.16775778)) {
                                var4 = -0.07298916;
                            } else {
                                var4 = 0.22468795;
                            }
                        }
                    }
                } else {
                    if ((input[4]) >= (0.0011988387)) {
                        if ((input[0]) >= (0.03214286)) {
                            if ((input[2]) >= (0.107248515)) {
                                var4 = -0.608748;
                            } else {
                                var4 = -0.34370613;
                            }
                        } else {
                            var4 = 0.1484415;
                        }
                    } else {
                        if ((input[2]) >= (0.1183432)) {
                            var4 = -0.32488343;
                        } else {
                            if ((input[2]) >= (0.00887574)) {
                                var4 = 0.24776573;
                            } else {
                                var4 = -0.2653594;
                            }
                        }
                    }
                }
            } else {
                if ((input[3]) >= (0.29459903)) {
                    if ((input[2]) >= (0.024408285)) {
                        var4 = 0.32619268;
                    } else {
                        var4 = -0.010772016;
                    }
                } else {
                    if ((input[3]) >= (0.23567921)) {
                        var4 = -0.3445121;
                    } else {
                        if ((input[0]) >= (0.26785713)) {
                            var4 = -0.28346047;
                        } else {
                            if ((input[2]) >= (0.10133136)) {
                                var4 = 0.048968073;
                            } else {
                                var4 = 0.25032043;
                            }
                        }
                    }
                }
            }
        }
    } else {
        if ((input[3]) >= (0.1366612)) {
            if ((input[2]) >= (0.104289934)) {
                if ((input[2]) >= (0.13979289)) {
                    if ((input[2]) >= (0.18860947)) {
                        if ((input[4]) >= (0.0037762907)) {
                            if ((input[3]) >= (0.21194762)) {
                                var4 = 0.22406676;
                            } else {
                                var4 = 0.10957983;
                            }
                        } else {
                            if ((input[4]) >= (0.0023504226)) {
                                var4 = -0.20205936;
                            } else {
                                var4 = 0.2063337;
                            }
                        }
                    } else {
                        if ((input[3]) >= (0.67266774)) {
                            if ((input[4]) >= (0.003122939)) {
                                var4 = -0.04665582;
                            } else {
                                var4 = -0.3370856;
                            }
                        } else {
                            if ((input[4]) >= (0.01738162)) {
                                var4 = -0.053023417;
                            } else {
                                var4 = 0.070426755;
                            }
                        }
                    }
                } else {
                    if ((input[4]) >= (0.0067492463)) {
                        if ((input[3]) >= (0.5008183)) {
                            if ((input[4]) >= (0.007993286)) {
                                var4 = 0.38327816;
                            } else {
                                var4 = -0.06677614;
                            }
                        } else {
                            if ((input[2]) >= (0.11908284)) {
                                var4 = -0.24831282;
                            } else {
                                var4 = -0.11386346;
                            }
                        }
                    } else {
                        if ((input[3]) >= (0.7135843)) {
                            var4 = -0.3945578;
                        } else {
                            if ((input[3]) >= (0.43535188)) {
                                var4 = 0.25405058;
                            } else {
                                var4 = 0.026874704;
                            }
                        }
                    }
                }
            } else {
                if ((input[4]) >= (0.00817717)) {
                    if ((input[2]) >= (0.09393491)) {
                        if ((input[3]) >= (0.16775778)) {
                            if ((input[4]) >= (0.04547061)) {
                                var4 = 0.3760099;
                            } else {
                                var4 = 0.13979319;
                            }
                        } else {
                            if ((input[3]) >= (0.15957448)) {
                                var4 = -0.3596661;
                            } else {
                                var4 = 0.04099694;
                            }
                        }
                    } else {
                        if ((input[3]) >= (0.1415712)) {
                            if ((input[2]) >= (0.07618344)) {
                                var4 = 0.28677887;
                            } else {
                                var4 = 0.3778982;
                            }
                        } else {
                            if ((input[2]) >= (0.07988165)) {
                                var4 = -0.2177088;
                            } else {
                                var4 = 0.21911336;
                            }
                        }
                    }
                } else {
                    if ((input[4]) >= (0.0021870846)) {
                        if ((input[4]) >= (0.0025897794)) {
                            if ((input[4]) >= (0.0068468386)) {
                                var4 = -0.0698097;
                            } else {
                                var4 = 0.17628896;
                            }
                        } else {
                            if ((input[4]) >= (0.0023699407)) {
                                var4 = -0.36310813;
                            } else {
                                var4 = -0.126587;
                            }
                        }
                    } else {
                        if ((input[2]) >= (0.024408285)) {
                            if ((input[3]) >= (0.596563)) {
                                var4 = -0.14464869;
                            } else {
                                var4 = 0.29794952;
                            }
                        } else {
                            var4 = -0.35573295;
                        }
                    }
                }
            }
        } else {
            if ((input[3]) >= (0.030278232)) {
                if ((input[4]) >= (0.014610013)) {
                    if ((input[2]) >= (0.085059166)) {
                        if ((input[3]) >= (0.1202946)) {
                            if ((input[3]) >= (0.1333879)) {
                                var4 = -0.36826172;
                            } else {
                                var4 = -0.03262296;
                            }
                        } else {
                            if ((input[2]) >= (0.15606509)) {
                                var4 = -0.13616227;
                            } else {
                                var4 = -0.2540188;
                            }
                        }
                    } else {
                        if ((input[3]) >= (0.094108015)) {
                            if ((input[4]) >= (0.08252674)) {
                                var4 = -0.046636403;
                            } else {
                                var4 = 0.18626842;
                            }
                        } else {
                            if ((input[3]) >= (0.09247136)) {
                                var4 = -0.5275971;
                            } else {
                                var4 = 0.06941744;
                            }
                        }
                    }
                } else {
                    if ((input[3]) >= (0.0695581)) {
                        if ((input[3]) >= (0.10883798)) {
                            if ((input[3]) >= (0.113747954)) {
                                var4 = -0.08331573;
                            } else {
                                var4 = -0.35238183;
                            }
                        } else {
                            if ((input[4]) >= (0.011025824)) {
                                var4 = 0.24999946;
                            } else {
                                var4 = 0.006784922;
                            }
                        }
                    } else {
                        if ((input[3]) >= (0.05810147)) {
                            if ((input[2]) >= (0.055473372)) {
                                var4 = -0.22339419;
                            } else {
                                var4 = -0.43050966;
                            }
                        } else {
                            if ((input[3]) >= (0.04337152)) {
                                var4 = -0.050926734;
                            } else {
                                var4 = -0.22090732;
                            }
                        }
                    }
                }
            } else {
                if ((input[3]) >= (0.022094926)) {
                    if ((input[4]) >= (0.03410989)) {
                        if ((input[2]) >= (0.09097633)) {
                            if ((input[3]) >= (0.02864157)) {
                                var4 = 0.028242178;
                            } else {
                                var4 = -0.15576522;
                            }
                        } else {
                            if ((input[4]) >= (0.04221823)) {
                                var4 = 0.21375816;
                            } else {
                                var4 = -0.041685004;
                            }
                        }
                    } else {
                        if ((input[2]) >= (0.059911244)) {
                            if ((input[3]) >= (0.02700491)) {
                                var4 = 0.25110266;
                            } else {
                                var4 = 0.08767068;
                            }
                        } else {
                            if ((input[4]) >= (0.002257967)) {
                                var4 = -0.19484583;
                            } else {
                                var4 = 0.28951705;
                            }
                        }
                    }
                } else {
                    if ((input[4]) >= (0.013535475)) {
                        if ((input[2]) >= (0.082100585)) {
                            if ((input[2]) >= (0.24408284)) {
                                var4 = 0.22631392;
                            } else {
                                var4 = -0.1319327;
                            }
                        } else {
                            if ((input[3]) >= (0.020458266)) {
                                var4 = -0.026461324;
                            } else {
                                var4 = 0.29699406;
                            }
                        }
                    } else {
                        if ((input[4]) >= (0.0024428777)) {
                            if ((input[2]) >= (0.18047337)) {
                                var4 = -0.083582476;
                            } else {
                                var4 = -0.31202877;
                            }
                        } else {
                            var4 = 0.1118161;
                        }
                    }
                }
            }
        }
    }
    double var5;
    if ((input[1]) >= (0.018142924)) {
        if ((input[1]) >= (0.036681984)) {
            if ((input[4]) >= (0.0027623628)) {
                if ((input[3]) >= (0.15302783)) {
                    if ((input[1]) >= (0.08944699)) {
                        if ((input[4]) >= (0.010412537)) {
                            if ((input[2]) >= (0.1627219)) {
                                var5 = 0.12400803;
                            } else {
                                var5 = 0.33873805;
                            }
                        } else {
                            if ((input[4]) >= (0.006481126)) {
                                var5 = -0.1513125;
                            } else {
                                var5 = 0.19546904;
                            }
                        }
                    } else {
                        if ((input[1]) >= (0.07288861)) {
                            if ((input[1]) >= (0.08120741)) {
                                var5 = -0.045263205;
                            } else {
                                var5 = -0.27366906;
                            }
                        } else {
                            if ((input[1]) >= (0.04064332)) {
                                var5 = 0.15412177;
                            } else {
                                var5 = -0.054955974;
                            }
                        }
                    }
                } else {
                    if ((input[3]) >= (0.04173486)) {
                        if ((input[1]) >= (0.038266517)) {
                            if ((input[3]) >= (0.11047463)) {
                                var5 = 0.36546126;
                            } else {
                                var5 = 0.2775772;
                            }
                        } else {
                            if ((input[3]) >= (0.11456628)) {
                                var5 = -0.244888;
                            } else {
                                var5 = 0.27707762;
                            }
                        }
                    } else {
                        if ((input[1]) >= (0.047139913)) {
                            if ((input[4]) >= (0.03388697)) {
                                var5 = -0.45871377;
                            } else {
                                var5 = -0.04869135;
                            }
                        } else {
                            if ((input[3]) >= (0.013093289)) {
                                var5 = 0.116404764;
                            } else {
                                var5 = 0.322523;
                            }
                        }
                    }
                }
            } else {
                if ((input[4]) >= (0.00237405)) {
                    if ((input[1]) >= (0.096102044)) {
                        if ((input[3]) >= (0.48527002)) {
                            if ((input[2]) >= (0.07470414)) {
                                var5 = -0.3619675;
                            } else {
                                var5 = 0.014394193;
                            }
                        } else {
                            if ((input[3]) >= (0.10065466)) {
                                var5 = -0.010724884;
                            } else {
                                var5 = 0.21536337;
                            }
                        }
                    } else {
                        if ((input[4]) >= (0.0024932148)) {
                            if ((input[1]) >= (0.05870702)) {
                                var5 = -0.19516404;
                            } else {
                                var5 = 0.032069962;
                            }
                        } else {
                            if ((input[3]) >= (0.16448444)) {
                                var5 = -0.3744113;
                            } else {
                                var5 = -0.24614708;
                            }
                        }
                    }
                } else {
                    if ((input[2]) >= (0.021449704)) {
                        if ((input[3]) >= (0.059738133)) {
                            if ((input[3]) >= (0.71031094)) {
                                var5 = -0.33075035;
                            } else {
                                var5 = 0.13927853;
                            }
                        } else {
                            if ((input[1]) >= (0.08714943)) {
                                var5 = -0.23441215;
                            } else {
                                var5 = 0.007111621;
                            }
                        }
                    } else {
                        if ((input[4]) >= (0.0017689806)) {
                            if ((input[4]) >= (0.0022877583)) {
                                var5 = -0.17963824;
                            } else {
                                var5 = 0.3094321;
                            }
                        } else {
                            if ((input[4]) >= (0.0011690476)) {
                                var5 = -0.34260675;
                            } else {
                                var5 = 0.08184505;
                            }
                        }
                    }
                }
            }
        } else {
            if ((input[3]) >= (0.048281506)) {
                if ((input[3]) >= (0.27086744)) {
                    if ((input[1]) >= (0.026224054)) {
                        if ((input[2]) >= (0.4193787)) {
                            var5 = -0.05539426;
                        } else {
                            if ((input[3]) >= (0.28150573)) {
                                var5 = 0.42527142;
                            } else {
                                var5 = 0.09314094;
                            }
                        }
                    } else {
                        if ((input[3]) >= (0.33142388)) {
                            if ((input[1]) >= (0.021708129)) {
                                var5 = -0.26152936;
                            } else {
                                var5 = 0.26448995;
                            }
                        } else {
                            var5 = 0.4331018;
                        }
                    }
                } else {
                    if ((input[2]) >= (0.092455626)) {
                        if ((input[2]) >= (0.20931953)) {
                            if ((input[1]) >= (0.032403737)) {
                                var5 = 0.21388285;
                            } else {
                                var5 = -0.079405546;
                            }
                        } else {
                            if ((input[1]) >= (0.021945808)) {
                                var5 = -0.2546273;
                            } else {
                                var5 = -0.05889162;
                            }
                        }
                    } else {
                        if ((input[3]) >= (0.15302783)) {
                            if ((input[3]) >= (0.24959083)) {
                                var5 = 0.034816656;
                            } else {
                                var5 = 0.35641497;
                            }
                        } else {
                            if ((input[1]) >= (0.03335446)) {
                                var5 = 0.11993944;
                            } else {
                                var5 = -0.122141905;
                            }
                        }
                    }
                }
            } else {
                if ((input[1]) >= (0.020836633)) {
                    if ((input[2]) >= (0.086538464)) {
                        if ((input[3]) >= (0.020458266)) {
                            if ((input[2]) >= (0.19452663)) {
                                var5 = 0.27403823;
                            } else {
                                var5 = 0.5581857;
                            }
                        } else {
                            if ((input[1]) >= (0.025114879)) {
                                var5 = 0.3946312;
                            } else {
                                var5 = -0.120411456;
                            }
                        }
                    } else {
                        if ((input[4]) >= (0.014732259)) {
                            if ((input[2]) >= (0.08357988)) {
                                var5 = -0.043994274;
                            } else {
                                var5 = 0.3124093;
                            }
                        } else {
                            if ((input[2]) >= (0.053994082)) {
                                var5 = -0.14357296;
                            } else {
                                var5 = 0.22065082;
                            }
                        }
                    }
                } else {
                    if ((input[3]) >= (0.046644844)) {
                        var5 = 0.42516398;
                    } else {
                        if ((input[3]) >= (0.033551555)) {
                            if ((input[1]) >= (0.019885913)) {
                                var5 = 0.33924595;
                            } else {
                                var5 = -0.33767772;
                            }
                        } else {
                            if ((input[3]) >= (0.030278232)) {
                                var5 = 0.45749566;
                            } else {
                                var5 = -0.025699126;
                            }
                        }
                    }
                }
            }
        }
    } else {
        if ((input[3]) >= (0.21276596)) {
            if ((input[1]) >= (0.016003802)) {
                var5 = 0.44550833;
            } else {
                if ((input[2]) >= (0.32322484)) {
                    var5 = 0.022902483;
                } else {
                    var5 = -0.35742074;
                }
            }
        } else {
            if ((input[3]) >= (0.0106382985)) {
                if ((input[4]) >= (0.002606216)) {
                    if ((input[1]) >= (0.01750911)) {
                        if ((input[3]) >= (0.032733224)) {
                            if ((input[3]) >= (0.16612111)) {
                                var5 = 0.22161753;
                            } else {
                                var5 = -0.38244018;
                            }
                        } else {
                            if ((input[3]) >= (0.02864157)) {
                                var5 = 0.5829358;
                            } else {
                                var5 = -0.35497293;
                            }
                        }
                    } else {
                        if ((input[2]) >= (0.43343195)) {
                            if ((input[2]) >= (0.44008875)) {
                                var5 = -0.31180894;
                            } else {
                                var5 = 0.051115114;
                            }
                        } else {
                            if ((input[1]) >= (0.010537157)) {
                                var5 = -0.3361215;
                            } else {
                                var5 = -0.024931377;
                            }
                        }
                    }
                } else {
                    if ((input[3]) >= (0.103927985)) {
                        var5 = 0.12043146;
                    } else {
                        if ((input[3]) >= (0.030278232)) {
                            var5 = -0.23111275;
                        } else {
                            var5 = 0.027739577;
                        }
                    }
                }
            } else {
                if ((input[4]) >= (0.1119399)) {
                    if ((input[2]) >= (0.15458581)) {
                        var5 = -0.073313944;
                    } else {
                        var5 = 0.23951073;
                    }
                } else {
                    if ((input[2]) >= (0.10576923)) {
                        var5 = -0.30221593;
                    } else {
                        if ((input[1]) >= (0.014815401)) {
                            var5 = 0.21183695;
                        } else {
                            var5 = -0.1858455;
                        }
                    }
                }
            }
        }
    }
    double var6;
    if ((input[1]) >= (0.018142924)) {
        if ((input[0]) >= (0.0035714286)) {
            if ((input[4]) >= (0.003075684)) {
                if ((input[2]) >= (0.07618344)) {
                    if ((input[2]) >= (0.13683432)) {
                        if ((input[1]) >= (0.021153543)) {
                            if ((input[0]) >= (0.09642857)) {
                                var6 = 0.04787239;
                            } else {
                                var6 = 0.24178173;
                            }
                        } else {
                            if ((input[0]) >= (0.010714286)) {
                                var6 = 0.06628066;
                            } else {
                                var6 = -0.079750344;
                            }
                        }
                    } else {
                        if ((input[2]) >= (0.110207096)) {
                            if ((input[0]) >= (0.017857144)) {
                                var6 = 0.04192252;
                            } else {
                                var6 = -0.24712972;
                            }
                        } else {
                            if ((input[0]) >= (0.11071429)) {
                                var6 = -0.088136606;
                            } else {
                                var6 = 0.13660239;
                            }
                        }
                    }
                } else {
                    if ((input[1]) >= (0.021153543)) {
                        if ((input[4]) >= (0.10458353)) {
                            var6 = 0.011099729;
                        } else {
                            if ((input[4]) >= (0.0037834817)) {
                                var6 = 0.30818126;
                            } else {
                                var6 = 0.16621031;
                            }
                        }
                    } else {
                        if ((input[4]) >= (0.0076070274)) {
                            var6 = 0.2898709;
                        } else {
                            if ((input[4]) >= (0.006940321)) {
                                var6 = -0.32541147;
                            } else {
                                var6 = -0.00046295673;
                            }
                        }
                    }
                }
            } else {
                if ((input[0]) >= (0.29285717)) {
                    var6 = -0.3217396;
                } else {
                    if ((input[4]) >= (0.0009070905)) {
                        if ((input[4]) >= (0.0012995125)) {
                            if ((input[1]) >= (0.13571543)) {
                                var6 = 0.16720837;
                            } else {
                                var6 = 0.018432567;
                            }
                        } else {
                            if ((input[4]) >= (0.0011947297)) {
                                var6 = -0.3017525;
                            } else {
                                var6 = 0.04750327;
                            }
                        }
                    } else {
                        if ((input[4]) >= (0.0007653255)) {
                            var6 = 0.3151589;
                        } else {
                            if ((input[1]) >= (0.13967675)) {
                                var6 = 0.21991323;
                            } else {
                                var6 = 0.060189825;
                            }
                        }
                    }
                }
            }
        } else {
            if ((input[4]) >= (0.0011947297)) {
                if ((input[4]) >= (0.0012532847)) {
                    if ((input[1]) >= (0.11234353)) {
                        if ((input[4]) >= (0.0012984852)) {
                            if ((input[4]) >= (0.0020083375)) {
                                var6 = 0.1694121;
                            } else {
                                var6 = 0.36265367;
                            }
                        } else {
                            var6 = -0.24747775;
                        }
                    } else {
                        if ((input[4]) >= (0.002602107)) {
                            if ((input[1]) >= (0.03890033)) {
                                var6 = 0.06901646;
                            } else {
                                var6 = -0.045454346;
                            }
                        } else {
                            if ((input[4]) >= (0.0021840027)) {
                                var6 = -0.22622418;
                            } else {
                                var6 = 0.13074152;
                            }
                        }
                    }
                } else {
                    if ((input[1]) >= (0.046109967)) {
                        if ((input[4]) >= (0.001247121)) {
                            var6 = -0.1455433;
                        } else {
                            var6 = -0.49359626;
                        }
                    } else {
                        var6 = -0.0021054673;
                    }
                }
            } else {
                if ((input[2]) >= (0.025887575)) {
                    if ((input[1]) >= (0.10909523)) {
                        if ((input[1]) >= (0.1880843)) {
                            if ((input[2]) >= (0.13979289)) {
                                var6 = -0.11406938;
                            } else {
                                var6 = 0.22681257;
                            }
                        } else {
                            var6 = 0.34224164;
                        }
                    } else {
                        if ((input[1]) >= (0.07589923)) {
                            if ((input[2]) >= (0.089497045)) {
                                var6 = 0.08184885;
                            } else {
                                var6 = -0.20599663;
                            }
                        } else {
                            if ((input[2]) >= (0.13091716)) {
                                var6 = -0.030771334;
                            } else {
                                var6 = 0.29120842;
                            }
                        }
                    }
                } else {
                    if ((input[4]) >= (0.00092558155)) {
                        if ((input[4]) >= (0.0010694012)) {
                            var6 = 0.006026818;
                        } else {
                            var6 = -0.3150291;
                        }
                    } else {
                        var6 = 0.0315037;
                    }
                }
            }
        }
    } else {
        if ((input[1]) >= (0.010537157)) {
            if ((input[1]) >= (0.016399935)) {
                if ((input[4]) >= (0.013536502)) {
                    if ((input[4]) >= (0.028872803)) {
                        if ((input[1]) >= (0.016875297)) {
                            var6 = -0.30019683;
                        } else {
                            if ((input[2]) >= (0.12204142)) {
                                var6 = -0.19668767;
                            } else {
                                var6 = 0.030114936;
                            }
                        }
                    } else {
                        if ((input[2]) >= (0.12130178)) {
                            if ((input[4]) >= (0.016127309)) {
                                var6 = -0.23056017;
                            } else {
                                var6 = -0.025352323;
                            }
                        } else {
                            if ((input[4]) >= (0.017274784)) {
                                var6 = 0.13570999;
                            } else {
                                var6 = -0.12879542;
                            }
                        }
                    }
                } else {
                    if ((input[2]) >= (0.092455626)) {
                        if ((input[2]) >= (0.09689349)) {
                            var6 = -0.22900553;
                        } else {
                            var6 = -0.002041073;
                        }
                    } else {
                        if ((input[2]) >= (0.07618344)) {
                            if ((input[1]) >= (0.016875297)) {
                                var6 = -0.33505517;
                            } else {
                                var6 = -0.10705384;
                            }
                        } else {
                            var6 = -0.059848953;
                        }
                    }
                }
            } else {
                if ((input[2]) >= (0.3054734)) {
                    if ((input[4]) >= (0.015434921)) {
                        var6 = -0.24025463;
                    } else {
                        if ((input[1]) >= (0.014656948)) {
                            var6 = 0.23762403;
                        } else {
                            var6 = -0.20543033;
                        }
                    }
                } else {
                    var6 = -0.30748862;
                }
            }
        } else {
            if ((input[4]) >= (0.010781331)) {
                if ((input[1]) >= (0.0068927268)) {
                    var6 = 0.026549699;
                } else {
                    var6 = -0.16442478;
                }
            } else {
                if ((input[1]) >= (0.0064173667)) {
                    var6 = -0.009035535;
                } else {
