#include <math.h>
#include <string.h>
void score(double * input, double * output) {
    double var0;
    if ((input[1]) >= (0.01477759)) {
        if ((input[3]) >= (0.061491936)) {
            if ((input[0]) >= (0.0021834061)) {
                if ((input[0]) >= (0.041484714)) {
                    if ((input[3]) >= (0.13407259)) {
                        var0 = 0.5849057;
                    } else {
                        if ((input[3]) >= (0.13205644)) {
                            var0 = 0.120000005;
                        } else {
                            var0 = 0.47234046;
                        }
                    }
                } else {
                    if ((input[2]) >= (0.004172366)) {
                        var0 = 0.5628866;
                    } else {
                        if ((input[4]) >= (0.037639406)) {
                            if ((input[2]) >= (0.0014151619)) {
                                var0 = 0.35294122;
                            } else {
                                var0 = 0.5551402;
                            }
                        } else {
                            if ((input[2]) >= (0.0034762104)) {
                                var0 = -0.081818186;
                            } else {
                                var0 = 0.2524138;
                            }
                        }
                    }
                }
            } else {
                if ((input[2]) >= (0.0034274643)) {
                    if ((input[2]) >= (0.0037504076)) {
                        if ((input[4]) >= (0.05436803)) {
                            if ((input[4]) >= (0.11105948)) {
                                var0 = 0.42531648;
                            } else {
                                var0 = -0.19245283;
                            }
                        } else {
                            if ((input[2]) >= (0.0039758584)) {
                                var0 = 0.48537317;
                            } else {
                                var0 = 0.0;
                            }
                        }
                    } else {
                        if ((input[1]) >= (0.021494675)) {
                            if ((input[3]) >= (0.18447581)) {
                                var0 = -0.20930232;
                            } else {
                                var0 = -0.51910114;
                            }
                        } else {
                            var0 = 0.41538465;
                        }
                    }
                } else {
                    if ((input[4]) >= (0.008364312)) {
                        if ((input[3]) >= (0.60786295)) {
                            if ((input[2]) >= (0.001463908)) {
                                var0 = 0.02857143;
                            } else {
                                var0 = 0.36;
                            }
                        } else {
                            if ((input[2]) >= (0.000109678855)) {
                                var0 = 0.49142858;
                            } else {
                                var0 = 0.06666667;
                            }
                        }
                    } else {
                        if ((input[1]) >= (0.13130659)) {
                            var0 = -0.3;
                        } else {
                            var0 = 0.20000002;
                        }
                    }
                }
            }
        } else {
            if ((input[2]) >= (0.010935895)) {
                if ((input[3]) >= (0.02923387)) {
                    if ((input[2]) >= (0.018354451)) {
                        if ((input[3]) >= (0.05342742)) {
                            if ((input[2]) >= (0.036984622)) {
                                var0 = 0.15;
                            } else {
                                var0 = -0.3;
                            }
                        } else {
                            if ((input[1]) >= (0.016419545)) {
                                var0 = 0.41694915;
                            } else {
                                var0 = 0.040000003;
                            }
                        }
                    } else {
                        if ((input[2]) >= (0.013120333)) {
                            if ((input[2]) >= (0.014774656)) {
                                var0 = -0.0967742;
                            } else {
                                var0 = -0.44000003;
                            }
                        } else {
                            if ((input[3]) >= (0.04637097)) {
                                var0 = 0.0;
                            } else {
                                var0 = 0.25714287;
                            }
                        }
                    }
                } else {
                    if ((input[2]) >= (0.011814849)) {
                        if ((input[2]) >= (0.13450436)) {
                            if ((input[1]) >= (0.031694695)) {
                                var0 = 0.0;
                            } else {
                                var0 = 0.33333337;
                            }
                        } else {
                            var0 = 0.56341463;
                        }
                    } else {
                        if ((input[1]) >= (0.01686735)) {
                            var0 = 0.41538465;
                        } else {
                            var0 = -0.36;
                        }
                    }
                }
            } else {
                if ((input[0]) >= (0.058951966)) {
                    if ((input[0]) >= (0.072052404)) {
                        var0 = 0.52131146;
                    } else {
                        if ((input[3]) >= (0.032258064)) {
                            var0 = -0.16363637;
                        } else {
                            var0 = 0.40000004;
                        }
                    }
                } else {
                    if ((input[1]) >= (0.05672206)) {
                        if ((input[4]) >= (0.0060408926)) {
                            if ((input[2]) >= (0.0009840631)) {
                                var0 = -0.5497908;
                            } else {
                                var0 = -0.20000002;
                            }
                        } else {
                            if ((input[1]) >= (0.13344611)) {
                                var0 = -0.06666667;
                            } else {
                                var0 = 0.20000002;
                            }
                        }
                    } else {
                        if ((input[2]) >= (0.0033467284)) {
                            if ((input[0]) >= (0.019650655)) {
                                var0 = 0.11538462;
                            } else {
                                var0 = -0.28716907;
                            }
                        } else {
                            if ((input[1]) >= (0.03333665)) {
                                var0 = -0.03783784;
                            } else {
                                var0 = 0.38613862;
                            }
                        }
                    }
                }
            }
        }
    } else {
        if ((input[4]) >= (0.046933085)) {
            if ((input[4]) >= (0.1775093)) {
                if ((input[1]) >= (0.0095034335)) {
                    if ((input[3]) >= (0.7137097)) {
                        if ((input[1]) >= (0.012488805)) {
                            var0 = -0.06666667;
                        } else {
                            var0 = 0.06666667;
                        }
                    } else {
                        if ((input[3]) >= (0.00907258)) {
                            if ((input[4]) >= (0.18262082)) {
                                var0 = 0.43157896;
                            } else {
                                var0 = 0.120000005;
                            }
                        } else {
                            if ((input[3]) >= (0.0050403224)) {
                                var0 = -0.20000002;
                            } else {
                                var0 = 0.32727274;
                            }
                        }
                    }
                } else {
                    if ((input[3]) >= (0.024193548)) {
                        if ((input[1]) >= (0.004428301)) {
                            var0 = 0.40000004;
                        } else {
                            if ((input[2]) >= (0.008195448)) {
                                var0 = -0.16666669;
                            } else {
                                var0 = 0.33333337;
                            }
                        }
                    } else {
                        var0 = -0.51111114;
                    }
                }
            } else {
                if ((input[0]) >= (0.0021834061)) {
                    if ((input[3]) >= (0.0030241935)) {
                        var0 = 0.5489362;
                    } else {
                        if ((input[2]) >= (0.019236453)) {
                            var0 = 0.0;
                        } else {
                            var0 = -0.40000004;
                        }
                    }
                } else {
                    if ((input[2]) >= (0.006937187)) {
                        if ((input[4]) >= (0.053438663)) {
                            if ((input[3]) >= (0.2389113)) {
                                var0 = 0.120000005;
                            } else {
                                var0 = -0.54593027;
                            }
                        } else {
                            if ((input[2]) >= (0.015147869)) {
                                var0 = 0.13246754;
                            } else {
                                var0 = -0.4512397;
                            }
                        }
                    } else {
                        if ((input[1]) >= (0.009105384)) {
                            if ((input[4]) >= (0.061802976)) {
                                var0 = -0.058064517;
                            } else {
                                var0 = 0.45000002;
                            }
                        } else {
                            if ((input[3]) >= (0.026209677)) {
                                var0 = 0.13846155;
                            } else {
                                var0 = -0.52500004;
                            }
                        }
                    }
                }
            }
        } else {
            if ((input[4]) >= (0.04414498)) {
                if ((input[1]) >= (0.0134839285)) {
                    if ((input[2]) >= (0.0068442654)) {
                        if ((input[2]) >= (0.010969409)) {
                            if ((input[1]) >= (0.013881978)) {
                                var0 = 0.06666667;
                            } else {
                                var0 = -0.27272728;
                            }
                        } else {
                            var0 = -0.44000003;
                        }
                    } else {
                        var0 = 0.15;
                    }
                } else {
                    if ((input[3]) >= (0.038306452)) {
                        if ((input[1]) >= (0.012787342)) {
                            var0 = -0.15;
                        } else {
                            var0 = 0.15;
                        }
                    } else {
                        if ((input[1]) >= (0.013085879)) {
                            if ((input[2]) >= (0.015754148)) {
                                var0 = 0.36;
                            } else {
                                var0 = -0.05454546;
                            }
                        } else {
                            if ((input[3]) >= (0.027217742)) {
                                var0 = 0.06666667;
                            } else {
                                var0 = 0.5294118;
                            }
                        }
                    }
                }
            } else {
                if ((input[1]) >= (0.012389293)) {
                    var0 = 0.48705885;
                } else {
                    var0 = 0.06666667;
                }
            }
        }
    }
    double var1;
    if ((input[1]) >= (0.015076127)) {
        if ((input[3]) >= (0.059475806)) {
            if ((input[0]) >= (0.0021834061)) {
                if ((input[2]) >= (0.0040428843)) {
                    var1 = 0.44954;
                } else {
                    if ((input[2]) >= (0.003398521)) {
                        if ((input[3]) >= (0.09879032)) {
                            if ((input[2]) >= (0.0036742417)) {
                                var1 = 0.19779195;
                            } else {
                                var1 = -0.17683415;
                            }
                        } else {
                            if ((input[3]) >= (0.06350806)) {
                                var1 = 0.42013934;
                            } else {
                                var1 = -0.031623174;
                            }
                        }
                    } else {
                        if ((input[0]) >= (0.041484714)) {
                            if ((input[3]) >= (0.08770161)) {
                                var1 = 0.44681013;
                            } else {
                                var1 = 0.2773901;
                            }
                        } else {
                            if ((input[3]) >= (0.375)) {
                                var1 = 0.40220168;
                            } else {
                                var1 = 0.23047169;
                            }
                        }
                    }
                }
            } else {
                if ((input[2]) >= (0.010481947)) {
                    if ((input[3]) >= (0.11592742)) {
                        if ((input[6]) >= (0.024259694)) {
                            if ((input[2]) >= (0.032291286)) {
                                var1 = -0.38526914;
                            } else {
                                var1 = -0.0789547;
                            }
                        } else {
                            if ((input[2]) >= (0.01708553)) {
                                var1 = 0.19088884;
                            } else {
                                var1 = -0.18135309;
                            }
                        }
                    } else {
                        if ((input[2]) >= (0.011258839)) {
                            if ((input[1]) >= (0.017364912)) {
                                var1 = 0.42204356;
                            } else {
                                var1 = -0.07906382;
                            }
                        } else {
                            if ((input[1]) >= (0.029306399)) {
                                var1 = 0.12635572;
                            } else {
                                var1 = -0.3562279;
                            }
                        }
                    }
                } else {
                    if ((input[2]) >= (0.004176936)) {
                        if ((input[6]) >= (0.010629636)) {
                            if ((input[2]) >= (0.009531397)) {
                                var1 = 0.18528377;
                            } else {
                                var1 = 0.4462587;
                            }
                        } else {
                            if ((input[1]) >= (0.02209175)) {
                                var1 = 0.14617415;
                            } else {
                                var1 = -0.2252659;
                            }
                        }
                    } else {
                        if ((input[2]) >= (0.0034564072)) {
                            if ((input[2]) >= (0.003686428)) {
                                var1 = 0.060601484;
                            } else {
                                var1 = -0.30803883;
                            }
                        } else {
                            if ((input[1]) >= (0.08388895)) {
                                var1 = 0.19187161;
                            } else {
                                var1 = 0.3652837;
                            }
                        }
                    }
                }
            }
        } else {
            if ((input[2]) >= (0.007881644)) {
                if ((input[1]) >= (0.0164693)) {
                    if ((input[3]) >= (0.035282258)) {
                        if ((input[1]) >= (0.024878096)) {
                            if ((input[6]) >= (0.050524697)) {
                                var1 = -0.36032578;
                            } else {
                                var1 = 0.14107649;
                            }
                        } else {
                            if ((input[3]) >= (0.043346774)) {
                                var1 = 0.31265876;
                            } else {
                                var1 = 0.012516071;
                            }
                        }
                    } else {
                        if ((input[1]) >= (0.02552493)) {
                            if ((input[6]) >= (0.003392437)) {
                                var1 = 0.49946633;
                            } else {
                                var1 = 0.17453702;
                            }
                        } else {
                            if ((input[3]) >= (0.019153226)) {
                                var1 = 0.10870398;
                            } else {
                                var1 = 0.4109352;
                            }
                        }
                    }
                } else {
                    if ((input[2]) >= (0.011665565)) {
                        if ((input[3]) >= (0.02923387)) {
                            if ((input[3]) >= (0.043346774)) {
                                var1 = 0.32475024;
                            } else {
                                var1 = -0.20993009;
                            }
                        } else {
                            var1 = 0.40576687;
                        }
                    } else {
                        if ((input[6]) >= (0.07253785)) {
                            var1 = 0.11042398;
                        } else {
                            var1 = -0.39266118;
                        }
                    }
                }
            } else {
                if ((input[2]) >= (0.0014517215)) {
                    if ((input[6]) >= (0.016992342)) {
                        if ((input[2]) >= (0.006956991)) {
                            if ((input[3]) >= (0.043346774)) {
                                var1 = 0.2209452;
                            } else {
                                var1 = -0.40481207;
                            }
                        } else {
                            if ((input[1]) >= (0.026918102)) {
                                var1 = -0.15928169;
                            } else {
                                var1 = 0.30069447;
                            }
                        }
                    } else {
                        if ((input[1]) >= (0.040203005)) {
                            if ((input[0]) >= (0.069869)) {
                                var1 = 0.1542465;
                            } else {
                                var1 = -0.45578817;
                            }
                        } else {
                            if ((input[2]) >= (0.0033771947)) {
                                var1 = -0.38295075;
                            } else {
                                var1 = 0.08535983;
                            }
                        }
                    }
                } else {
                    if ((input[1]) >= (0.055627428)) {
                        if ((input[2]) >= (0.00040520245)) {
                            if ((input[0]) >= (0.05458515)) {
                                var1 = 0.16056108;
                            } else {
                                var1 = -0.22401558;
                            }
                        } else {
                            var1 = 0.32840213;
                        }
                    } else {
                        if ((input[6]) >= (0.002397322)) {
                            if ((input[2]) >= (0.0010236693)) {
                                var1 = 0.22099671;
                            } else {
                                var1 = 0.44782692;
                            }
                        } else {
                            var1 = 0.04657367;
                        }
                    }
                }
            }
        }
    } else {
        if ((input[2]) >= (0.009883283)) {
            if ((input[1]) >= (0.009403921)) {
                if ((input[3]) >= (0.043346774)) {
                    if ((input[3]) >= (0.15020162)) {
                        if ((input[6]) >= (0.044222303)) {
                            if ((input[1]) >= (0.010797095)) {
                                var1 = -0.350635;
                            } else {
                                var1 = -0.010512207;
                            }
                        } else {
                            if ((input[3]) >= (0.79435486)) {
                                var1 = -0.0040011597;
                            } else {
                                var1 = 0.3063713;
                            }
                        }
                    } else {
                        if ((input[1]) >= (0.010946363)) {
                            if ((input[6]) >= (0.026868101)) {
                                var1 = -0.45318756;
                            } else {
                                var1 = -0.27220675;
                            }
                        } else {
                            if ((input[3]) >= (0.05141129)) {
                                var1 = 0.40794438;
                            } else {
                                var1 = -0.19685274;
                            }
                        }
                    }
                } else {
                    if ((input[2]) >= (0.018947022)) {
                        if ((input[1]) >= (0.010996119)) {
                            if ((input[3]) >= (0.027217742)) {
                                var1 = -0.07405112;
                            } else {
                                var1 = 0.48889527;
                            }
                        } else {
                            if ((input[0]) >= (0.019650655)) {
                                var1 = 0.34967715;
                            } else {
                                var1 = -0.2196251;
                            }
                        }
                    } else {
                        if ((input[3]) >= (0.019153226)) {
                            if ((input[2]) >= (0.017623259)) {
                                var1 = -0.22503942;
                            } else {
                                var1 = 0.15296154;
                            }
                        } else {
                            if ((input[2]) >= (0.015476905)) {
                                var1 = -0.1964087;
                            } else {
                                var1 = -0.40007243;
                            }
                        }
                    }
                }
            } else {
                if ((input[3]) >= (0.039314516)) {
                    if ((input[6]) >= (0.025752367)) {
                        if ((input[1]) >= (0.00014926858)) {
                            if ((input[3]) >= (0.19455644)) {
                                var1 = -0.027048247;
                            } else {
                                var1 = -0.30486503;
                            }
                        } else {
                            var1 = 0.27105495;
                        }
                    } else {
                        if ((input[6]) >= (0.017489899)) {
                            var1 = 0.31207028;
                        } else {
                            var1 = 0.0033270216;
                        }
                    }
                } else {
                    if ((input[0]) >= (0.02183406)) {
                        var1 = 0.2542005;
                    } else {
                        if ((input[1]) >= (0.005721962)) {
                            var1 = -0.4684327;
                        } else {
                            if ((input[2]) >= (0.0812964)) {
                                var1 = -0.27584693;
                            } else {
                                var1 = 0.01024207;
                            }
                        }
                    }
                }
            }
        } else {
            if ((input[1]) >= (0.009204896)) {
                if ((input[2]) >= (0.006809229)) {
                    if ((input[6]) >= (0.05094687)) {
                        if ((input[3]) >= (0.021169353)) {
                            if ((input[3]) >= (0.09677419)) {
                                var1 = 0.3218423;
                            } else {
                                var1 = -0.18022896;
                            }
                        } else {
                            if ((input[6]) >= (0.054278992)) {
                                var1 = 0.40806207;
                            } else {
                                var1 = 0.02036149;
                            }
                        }
                    } else {
                        if ((input[1]) >= (0.013284904)) {
                            var1 = -0.38067192;
                        } else {
                            if ((input[3]) >= (0.18145162)) {
                                var1 = 0.18483707;
                            } else {
                                var1 = -0.06838431;
                            }
                        }
                    }
                } else {
                    if ((input[6]) >= (0.005774682)) {
                        if ((input[3]) >= (0.038306452)) {
                            if ((input[3]) >= (0.09173387)) {
                                var1 = 0.31163314;
                            } else {
                                var1 = 0.07399159;
                            }
                        } else {
                            var1 = 0.43118015;
                        }
                    } else {
                        if ((input[1]) >= (0.01228978)) {
                            if ((input[6]) >= (0.0036035222)) {
                                var1 = 0.06756356;
                            } else {
                                var1 = 0.32582176;
                            }
                        } else {
                            var1 = -0.17523855;
                        }
                    }
                }
            } else {
                if ((input[3]) >= (0.026209677)) {
                    if ((input[6]) >= (0.019148424)) {
                        var1 = 0.3812462;
                    } else {
                        if ((input[2]) >= (0.0022849762)) {
                            var1 = -0.3094175;
                        } else {
                            var1 = 0.3404473;
                        }
                    }
                } else {
                    if ((input[1]) >= (0.008906359)) {
                        var1 = -0.05240928;
                    } else {
                        var1 = -0.4191446;
                    }
                }
            }
        }
    }
    double var2;
    if ((input[0]) >= (0.0021834061)) {
        if ((input[3]) >= (0.059475806)) {
            if ((input[0]) >= (0.04585153)) {
                if ((input[3]) >= (0.13407259)) {
                    var2 = 0.40085372;
                } else {
                    if ((input[3]) >= (0.119959675)) {
                        if ((input[2]) >= (0.0023794216)) {
                            var2 = -0.2018898;
                        } else {
                            var2 = 0.28246424;
                        }
                    } else {
                        if ((input[6]) >= (0.004779567)) {
                            var2 = 0.37180972;
                        } else {
                            if ((input[6]) >= (0.0031964297)) {
                                var2 = -0.24337563;
                            } else {
                                var2 = 0.31736726;
                            }
                        }
                    }
                }
            } else {
                if ((input[2]) >= (0.004172366)) {
                    if ((input[6]) >= (0.012227851)) {
                        var2 = 0.3966883;
                    } else {
                        if ((input[0]) >= (0.019650655)) {
                            if ((input[6]) >= (0.009860684)) {
                                var2 = 0.108463824;
                            } else {
                                var2 = 0.33680725;
                            }
                        } else {
                            if ((input[5]) >= (0.033579152)) {
                                var2 = -0.17411375;
                            } else {
                                var2 = 0.1839414;
                            }
                        }
                    }
                } else {
                    if ((input[5]) >= (0.0042670253)) {
                        if ((input[5]) >= (0.00963738)) {
                            if ((input[5]) >= (0.010284994)) {
                                var2 = 0.23646468;
                            } else {
                                var2 = -0.45373148;
                            }
                        } else {
                            if ((input[3]) >= (0.06955645)) {
                                var2 = 0.44400218;
                            } else {
                                var2 = -0.043983676;
                            }
                        }
                    } else {
                        if ((input[5]) >= (0.0028427294)) {
                            if ((input[3]) >= (0.082661286)) {
                                var2 = -0.40789422;
                            } else {
                                var2 = -0.08009809;
                            }
                        } else {
                            var2 = 0.4135002;
                        }
                    }
                }
            }
        } else {
            if ((input[3]) >= (0.019153226)) {
                if ((input[5]) >= (0.0022055483)) {
                    if ((input[0]) >= (0.10043669)) {
                        var2 = 0.3602631;
                    } else {
                        if ((input[5]) >= (0.011310386)) {
                            if ((input[0]) >= (0.04585153)) {
                                var2 = 0.26376218;
                            } else {
                                var2 = -0.11574333;
                            }
                        } else {
                            if ((input[2]) >= (0.0006641664)) {
                                var2 = -0.42008334;
                            } else {
                                var2 = 0.076810144;
                            }
                        }
                    }
                } else {
                    var2 = 0.39481834;
                }
            } else {
                if ((input[3]) >= (0.0030241935)) {
                    if ((input[5]) >= (0.0024255947)) {
                        if ((input[5]) >= (0.013030392)) {
                            var2 = 0.38569638;
                        } else {
                            if ((input[2]) >= (0.0014334416)) {
                                var2 = -0.10730777;
                            } else {
                                var2 = 0.387365;
                            }
                        }
                    } else {
                        var2 = 0.4570199;
                    }
                } else {
                    if ((input[0]) >= (0.02838428)) {
                        if ((input[2]) >= (0.0019300431)) {
                            var2 = 0.38984466;
                        } else {
                            if ((input[2]) >= (0.0017822813)) {
                                var2 = -0.2154322;
                            } else {
                                var2 = 0.08285209;
                            }
                        }
                    } else {
                        if ((input[5]) >= (0.017079076)) {
                            var2 = 0.05326805;
                        } else {
                            var2 = -0.3422625;
                        }
                    }
                }
            }
        }
    } else {
        if ((input[3]) >= (0.013104838)) {
            if ((input[2]) >= (0.010160527)) {
                if ((input[5]) >= (0.02806093)) {
                    if ((input[2]) >= (0.011132404)) {
                        var2 = 0.39201546;
                    } else {
                        var2 = 0.0005019496;
                    }
                } else {
                    if ((input[6]) >= (0.17132562)) {
                        if ((input[2]) >= (0.028571341)) {
                            var2 = -0.40135568;
                        } else {
                            if ((input[5]) >= (0.0017847209)) {
                                var2 = -0.23291175;
                            } else {
                                var2 = 0.1832664;
                            }
                        }
                    } else {
                        if ((input[5]) >= (0.0019404911)) {
                            if ((input[6]) >= (0.05406791)) {
                                var2 = -0.2385862;
                            } else {
                                var2 = -0.047337383;
                            }
                        } else {
                            if ((input[3]) >= (0.061491936)) {
                                var2 = 0.4290636;
                            } else {
                                var2 = -0.011967055;
                            }
                        }
                    }
                }
            } else {
                if ((input[5]) >= (0.0022000738)) {
                    if ((input[3]) >= (0.089717746)) {
                        if ((input[2]) >= (0.004176936)) {
                            if ((input[6]) >= (0.06903987)) {
                                var2 = -0.054916624;
                            } else {
                                var2 = 0.32566252;
                            }
                        } else {
                            if ((input[2]) >= (0.0035097233)) {
                                var2 = -0.096958935;
                            } else {
                                var2 = 0.2645899;
                            }
                        }
                    } else {
                        if ((input[5]) >= (0.013361663)) {
                            if ((input[2]) >= (0.003966719)) {
                                var2 = 0.2572938;
                            } else {
                                var2 = -0.030065421;
                            }
                        } else {
                            if ((input[2]) >= (0.0015964366)) {
                                var2 = -0.28238925;
                            } else {
                                var2 = 0.18750511;
                            }
                        }
                    }
                } else {
                    if ((input[5]) >= (0.0011302639)) {
                        if ((input[6]) >= (0.011489054)) {
                            var2 = 0.45613173;
                        } else {
                            if ((input[2]) >= (0.001401452)) {
                                var2 = -0.05063272;
                            } else {
                                var2 = 0.36931098;
                            }
                        }
                    } else {
                        var2 = -0.08808074;
                    }
                }
            }
        } else {
            if ((input[5]) >= (0.0017123106)) {
                if ((input[5]) >= (0.013388416)) {
                    if ((input[5]) >= (0.016522028)) {
                        if ((input[6]) >= (0.028782945)) {
                            if ((input[6]) >= (0.051926903)) {
                                var2 = -0.037417654;
                            } else {
                                var2 = 0.27754515;
                            }
                        } else {
                            if ((input[5]) >= (0.053129684)) {
                                var2 = -0.0023852491;
                            } else {
                                var2 = -0.31726485;
                            }
                        }
                    } else {
                        if ((input[5]) >= (0.015069144)) {
                            if ((input[5]) >= (0.015335079)) {
                                var2 = 0.24515621;
                            } else {
                                var2 = -0.18302737;
                            }
                        } else {
                            var2 = 0.3562291;
                        }
                    }
                } else {
                    if ((input[5]) >= (0.0019369016)) {
                        if ((input[6]) >= (0.0043272423)) {
                            if ((input[2]) >= (0.012405897)) {
                                var2 = -0.3081507;
                            } else {
                                var2 = -0.4199055;
                            }
                        } else {
                            if ((input[3]) >= (0.0070564514)) {
                                var2 = -0.30693007;
                            } else {
                                var2 = 0.22139555;
                            }
                        }
                    } else {
                        if ((input[2]) >= (0.017144937)) {
                            var2 = -0.36377525;
                        } else {
                            if ((input[2]) >= (0.009167325)) {
                                var2 = -0.04724576;
                            } else {
                                var2 = 0.25883782;
                            }
                        }
                    }
                }
            } else {
                if ((input[2]) >= (0.032853387)) {
                    if ((input[6]) >= (0.032461856)) {
                        if ((input[2]) >= (0.045489304)) {
                            var2 = -0.36202255;
                        } else {
                            if ((input[6]) >= (0.16099752)) {
                                var2 = -0.024966592;
                            } else {
                                var2 = -0.28638735;
                            }
                        }
                    } else {
                        if ((input[5]) >= (0.0015227367)) {
                            var2 = -0.2004172;
                        } else {
                            var2 = 0.077247016;
                        }
                    }
                } else {
                    if ((input[2]) >= (0.009132288)) {
                        if ((input[6]) >= (0.06875339)) {
                            if ((input[2]) >= (0.030336866)) {
                                var2 = -0.08556237;
                            } else {
                                var2 = 0.1475868;
                            }
                        } else {
                            if ((input[2]) >= (0.031557046)) {
                                var2 = 0.038837902;
                            } else {
                                var2 = -0.27296752;
                            }
                        }
                    } else {
                        if ((input[6]) >= (0.016645558)) {
                            if ((input[3]) >= (0.0010080645)) {
                                var2 = 0.45663258;
                            } else {
                                var2 = 0.057349782;
                            }
                        } else {
                            if ((input[2]) >= (0.0013892655)) {
                                var2 = -0.0992975;
                            } else {
                                var2 = 0.27720526;
                            }
                        }
                    }
                }
            }
        }
    }
    double var3;
    if ((input[0]) >= (0.0152838435)) {
        if ((input[3]) >= (0.059475806)) {
            if ((input[0]) >= (0.050218344)) {
                if ((input[4]) >= (0.0116171)) {
                    var3 = 0.35521567;
                } else {
                    if ((input[0]) >= (0.08951965)) {
                        if ((input[0]) >= (0.10262009)) {
                            var3 = 0.24776833;
                        } else {
                            var3 = -0.5200291;
                        }
                    } else {
                        var3 = 0.3071104;
                    }
                }
            } else {
                if ((input[2]) >= (0.0040489775)) {
                    if ((input[2]) >= (0.099963136)) {
                        if ((input[2]) >= (0.18137531)) {
                            var3 = 0.22577538;
                        } else {
                            var3 = -0.08753762;
                        }
                    } else {
                        var3 = 0.34317088;
                    }
                } else {
                    if ((input[2]) >= (0.0013923121)) {
                        if ((input[4]) >= (0.038568772)) {
                            if ((input[6]) >= (0.0076141367)) {
                                var3 = 0.22748347;
                            } else {
                                var3 = -0.076845236;
                            }
                        } else {
                            if ((input[3]) >= (0.17439516)) {
                                var3 = -0.058504265;
                            } else {
                                var3 = 0.12848635;
                            }
                        }
                    } else {
                        if ((input[2]) >= (0.00023916084)) {
                            if ((input[4]) >= (0.024628252)) {
                                var3 = 0.34573638;
                            } else {
                                var3 = 0.15832816;
                            }
                        } else {
                            if ((input[2]) >= (0.0001843214)) {
                                var3 = -0.2730913;
                            } else {
                                var3 = 0.18547279;
                            }
                        }
                    }
                }
            }
        } else {
            if ((input[2]) >= (0.003684905)) {
                if ((input[0]) >= (0.02838428)) {
                    var3 = 0.38683984;
                } else {
                    if ((input[3]) >= (0.042338707)) {
                        var3 = 0.3135067;
                    } else {
                        if ((input[3]) >= (0.02016129)) {
                            var3 = -0.2240182;
                        } else {
                            var3 = 0.14390546;
                        }
                    }
                }
            } else {
                if ((input[2]) >= (0.0011988508)) {
                    if ((input[2]) >= (0.002111318)) {
                        if ((input[2]) >= (0.003514293)) {
                            if ((input[4]) >= (0.02648699)) {
                                var3 = -0.43437675;
                            } else {
                                var3 = 0.05183071;
                            }
                        } else {
                            if ((input[2]) >= (0.0032020132)) {
                                var3 = 0.12724453;
                            } else {
                                var3 = 0.4133031;
                            }
                        }
                    } else {
                        if ((input[2]) >= (0.0017716181)) {
                            if ((input[3]) >= (0.0070564514)) {
                                var3 = -0.4146759;
                            } else {
                                var3 = -0.10159007;
                            }
                        } else {
                            if ((input[0]) >= (0.06113537)) {
                                var3 = 0.22083987;
                            } else {
                                var3 = -0.16135159;
                            }
                        }
                    }
                } else {
                    if ((input[3]) >= (0.033266127)) {
                        if ((input[3]) >= (0.041330643)) {
                            var3 = 0.21205367;
                        } else {
                            var3 = -0.118297465;
                        }
                    } else {
                        var3 = 0.32034492;
                    }
                }
            }
        }
    } else {
        if ((input[3]) >= (0.015120967)) {
            if ((input[2]) >= (0.033206798)) {
                if ((input[4]) >= (0.047862455)) {
                    if ((input[4]) >= (0.09061338)) {
                        if ((input[6]) >= (0.03701526)) {
                            if ((input[3]) >= (0.061491936)) {
                                var3 = -0.32074744;
                            } else {
                                var3 = 0.13628449;
                            }
                        } else {
                            if ((input[3]) >= (0.75907254)) {
                                var3 = -0.09915632;
                            } else {
                                var3 = 0.26983482;
                            }
                        }
                    } else {
                        if ((input[6]) >= (0.01687172)) {
                            if ((input[4]) >= (0.051579926)) {
                                var3 = -0.34649417;
                            } else {
                                var3 = -0.07067146;
                            }
                        } else {
                            if ((input[4]) >= (0.078066915)) {
                                var3 = -0.25612321;
                            } else {
                                var3 = 0.25689745;
                            }
                        }
                    }
                } else {
                    if ((input[6]) >= (0.17002895)) {
                        var3 = 0.074472584;
                    } else {
                        if ((input[2]) >= (0.035121605)) {
                            if ((input[6]) >= (0.0143387)) {
                                var3 = 0.39030364;
                            } else {
                                var3 = 0.09758126;
                            }
                        } else {
                            var3 = 0.08108673;
                        }
                    }
                }
            } else {
                if ((input[4]) >= (0.13336432)) {
                    if ((input[4]) >= (0.29786247)) {
                        var3 = 0.3800527;
                    } else {
                        if ((input[4]) >= (0.23605949)) {
                            if ((input[3]) >= (0.5453629)) {
                                var3 = -0.15160073;
                            } else {
                                var3 = 0.07994896;
                            }
                        } else {
                            if ((input[6]) >= (0.0032868946)) {
                                var3 = 0.2469049;
                            } else {
                                var3 = -0.13098486;
                            }
                        }
                    }
                } else {
                    if ((input[2]) >= (0.0014669546)) {
                        if ((input[6]) >= (0.010192389)) {
                            if ((input[4]) >= (0.06552045)) {
                                var3 = -0.07755132;
                            } else {
                                var3 = 0.06159678;
                            }
                        } else {
                            if ((input[2]) >= (0.01753186)) {
                                var3 = 0.04571286;
                            } else {
                                var3 = -0.2796718;
                            }
                        }
                    } else {
                        if ((input[3]) >= (0.025201611)) {
                            if ((input[6]) >= (0.0009649599)) {
                                var3 = 0.27891308;
                            } else {
                                var3 = -0.09744551;
                            }
                        } else {
                            if ((input[4]) >= (0.051115245)) {
                                var3 = -0.20131028;
                            } else {
                                var3 = 0.055544578;
                            }
                        }
                    }
                }
            }
        } else {
            if ((input[4]) >= (0.051579926)) {
                if ((input[4]) >= (0.1714684)) {
                    if ((input[2]) >= (0.009836061)) {
                        if ((input[2]) >= (0.051939033)) {
                            if ((input[4]) >= (0.23513012)) {
                                var3 = -0.28374624;
                            } else {
                                var3 = -0.022138126;
                            }
                        } else {
                            if ((input[2]) >= (0.012165213)) {
                                var3 = 0.112934925;
                            } else {
                                var3 = -0.2478834;
                            }
                        }
                    } else {
                        if ((input[6]) >= (0.007599059)) {
                            var3 = 0.3455168;
                        } else {
                            var3 = 0.051837906;
                        }
                    }
                } else {
                    if ((input[4]) >= (0.08875465)) {
                        if ((input[4]) >= (0.107342005)) {
                            if ((input[3]) >= (0.00907258)) {
                                var3 = -0.11905003;
                            } else {
                                var3 = -0.2919462;
                            }
                        } else {
                            if ((input[2]) >= (0.03663426)) {
                                var3 = -0.28405818;
                            } else {
                                var3 = 0.016915193;
                            }
                        }
                    } else {
                        if ((input[4]) >= (0.053438663)) {
                            if ((input[2]) >= (0.005214316)) {
                                var3 = -0.3535625;
                            } else {
                                var3 = -0.18203221;
                            }
                        } else {
                            if ((input[2]) >= (0.01495593)) {
                                var3 = 0.25341266;
                            } else {
                                var3 = -0.27083507;
                            }
                        }
                    }
                }
            } else {
                if ((input[2]) >= (0.01526821)) {
                    var3 = 0.40892348;
                } else {
                    if ((input[0]) >= (0.0043668123)) {
                        if ((input[3]) >= (0.0050403224)) {
                            var3 = 0.34603173;
                        } else {
                            var3 = -0.13358033;
                        }
                    } else {
                        if ((input[4]) >= (0.021840148)) {
                            if ((input[2]) >= (0.0014227785)) {
                                var3 = -0.13510348;
                            } else {
                                var3 = 0.19541235;
                            }
                        } else {
                            if ((input[4]) >= (0.0060408926)) {
                                var3 = -0.31654188;
                            } else {
                                var3 = 0.013377899;
                            }
                        }
                    }
                }
            }
        }
    }
    double var4;
    if ((input[1]) >= (0.010598069)) {
        if ((input[5]) >= (0.0019090376)) {
            if ((input[5]) >= (0.0076456536)) {
                if ((input[2]) >= (0.0014151619)) {
                    if ((input[1]) >= (0.046621554)) {
                        if ((input[5]) >= (0.009156125)) {
                            if ((input[5]) >= (0.048054732)) {
                                var4 = 0.17207253;
                            } else {
                                var4 = -0.071649216;
                            }
                        } else {
                            var4 = 0.33967504;
                        }
                    } else {
                        if ((input[5]) >= (0.01361559)) {
                            if ((input[1]) >= (0.033933725)) {
                                var4 = 0.06620121;
                            } else {
                                var4 = 0.2660991;
                            }
                        } else {
                            if ((input[1]) >= (0.02552493)) {
                                var4 = 0.26799244;
                            } else {
                                var4 = -0.11008694;
                            }
                        }
                    }
                } else {
                    if ((input[3]) >= (0.025201611)) {
                        var4 = 0.3024395;
                    } else {
                        if ((input[5]) >= (0.01945199)) {
                            if ((input[5]) >= (0.04331518)) {
                                var4 = 0.14026552;
                            } else {
                                var4 = -0.23906456;
                            }
                        } else {
                            if ((input[5]) >= (0.012799036)) {
                                var4 = 0.29940364;
                            } else {
                                var4 = -0.13132383;
                            }
                        }
                    }
                }
            } else {
                if ((input[3]) >= (0.061491936)) {
                    if ((input[1]) >= (0.015474176)) {
                        if ((input[5]) >= (0.0049493723)) {
                            if ((input[3]) >= (0.20967743)) {
                                var4 = 0.32876903;
                            } else {
                                var4 = -0.10154171;
                            }
                        } else {
                            if ((input[3]) >= (0.11592742)) {
                                var4 = 0.0691485;
                            } else {
                                var4 = 0.27772957;
                            }
                        }
                    } else {
                        if ((input[5]) >= (0.0019996022)) {
                            if ((input[2]) >= (0.010291532)) {
                                var4 = -0.3472831;
                            } else {
                                var4 = -0.09158626;
                            }
                        } else {
                            var4 = 0.28029397;
                        }
                    }
                } else {
                    if ((input[2]) >= (0.021111656)) {
                        if ((input[3]) >= (0.03125)) {
                            if ((input[2]) >= (0.038929902)) {
                                var4 = 0.20083964;
                            } else {
                                var4 = -0.2554404;
                            }
                        } else {
                            if ((input[3]) >= (0.025201611)) {
                                var4 = 0.17391914;
                            } else {
                                var4 = 0.5615437;
                            }
                        }
                    } else {
                        if ((input[2]) >= (0.0014334416)) {
                            if ((input[4]) >= (0.082249075)) {
                                var4 = 0.13629214;
                            } else {
                                var4 = -0.24891393;
                            }
                        } else {
                            if ((input[5]) >= (0.0046769036)) {
                                var4 = -0.1916808;
                            } else {
                                var4 = 0.28550658;
                            }
                        }
                    }
                }
            }
        } else {
            if ((input[4]) >= (0.051579926)) {
                if ((input[5]) >= (0.0017019551)) {
                    if ((input[2]) >= (0.010903906)) {
                        var4 = -0.30320564;
                    } else {
                        var4 = -0.017929759;
                    }
                } else {
                    var4 = 0.3190133;
                }
            } else {
                if ((input[2]) >= (0.0098909)) {
                    if ((input[4]) >= (0.038568772)) {
                        if ((input[3]) >= (0.025201611)) {
                            if ((input[3]) >= (0.033266127)) {
                                var4 = 0.13920923;
                            } else {
                                var4 = -0.22243875;
                            }
                        } else {
                            if ((input[2]) >= (0.01177829)) {
                                var4 = 0.33975232;
                            } else {
                                var4 = -0.1905307;
                            }
                        }
                    } else {
                        if ((input[5]) >= (0.0016640197)) {
                            if ((input[1]) >= (0.019156136)) {
                                var4 = 0.31635484;
                            } else {
                                var4 = 0.10896251;
                            }
                        } else {
                            var4 = 0.39263198;
                        }
                    }
                } else {
                    var4 = 0.4269112;
                }
            }
        }
    } else {
        if ((input[3]) >= (0.041330643)) {
            if ((input[5]) >= (0.0030418066)) {
                if ((input[3]) >= (0.07560484)) {
                    if ((input[1]) >= (0.006120012)) {
                        if ((input[3]) >= (0.17943549)) {
                            var4 = 0.32458556;
                        } else {
                            if ((input[2]) >= (0.01269228)) {
                                var4 = -0.16423924;
                            } else {
                                var4 = 0.23641865;
                            }
                        }
                    } else {
                        if ((input[3]) >= (0.3155242)) {
                            var4 = 0.2037504;
                        } else {
                            if ((input[5]) >= (0.0053328844)) {
                                var4 = -0.2797442;
                            } else {
                                var4 = 0.03938081;
                            }
                        }
                    }
                } else {
                    var4 = 0.47534668;
                }
            } else {
                if ((input[3]) >= (0.09979838)) {
                    if ((input[5]) >= (0.0020865258)) {
                        var4 = -0.12878962;
                    } else {
                        var4 = 0.35127327;
                    }
                } else {
                    if ((input[1]) >= (0.004328789)) {
                        if ((input[1]) >= (0.007861478)) {
                            if ((input[2]) >= (0.018148802)) {
                                var4 = -0.19399913;
                            } else {
                                var4 = 0.10940439;
                            }
                        } else {
                            var4 = -0.32139382;
                        }
                    } else {
                        if ((input[2]) >= (0.08737597)) {
                            var4 = 0.35170496;
                        } else {
                            if ((input[3]) >= (0.05342742)) {
                                var4 = -0.3188978;
                            } else {
                                var4 = 0.059120793;
                            }
                        }
                    }
                }
            }
        } else {
            if ((input[1]) >= (0.0026868344)) {
                if ((input[4]) >= (0.0580855)) {
                    if ((input[2]) >= (0.005880005)) {
                        if ((input[1]) >= (0.01020002)) {
                            if ((input[2]) >= (0.017997995)) {
                                var4 = 0.066785336;
                            } else {
                                var4 = -0.27088165;
                            }
                        } else {
                            var4 = -0.35074326;
                        }
                    } else {
                        if ((input[1]) >= (0.008657578)) {
                            var4 = 0.09824895;
                        } else {
                            if ((input[3]) >= (0.017137095)) {
                                var4 = 0.00964458;
                            } else {
                                var4 = -0.30015868;
                            }
                        }
                    }
                } else {
                    if ((input[2]) >= (0.01528192)) {
                        if ((input[1]) >= (0.01020002)) {
                            var4 = -0.29756027;
                        } else {
                            if ((input[1]) >= (0.010000994)) {
                                var4 = 0.17546108;
                            } else {
                                var4 = -0.17393512;
                            }
                        }
                    } else {
                        var4 = 0.09821152;
                    }
                }
            } else {
                var4 = 0.29150638;
            }
        }
    }
    double var5;
    if ((input[1]) >= (0.010100508)) {
        if ((input[0]) >= (0.04585153)) {
            if ((input[3]) >= (0.17641129)) {
                var5 = 0.33603972;
            } else {
                if ((input[0]) >= (0.09825328)) {
                    var5 = 0.34533525;
                } else {
                    if ((input[0]) >= (0.08951965)) {
                        if ((input[4]) >= (0.02184015)) {
                            var5 = 0.072099656;
                        } else {
                            var5 = -0.3201139;
                        }
                    } else {
                        if ((input[0]) >= (0.050218344)) {
                            if ((input[4]) >= (0.029275093)) {
                                var5 = 0.32528746;
                            } else {
                                var5 = 0.14079276;
                            }
                        } else {
                            if ((input[6]) >= (0.026008684)) {
                                var5 = -0.11821262;
                            } else {
                                var5 = 0.09887574;
                            }
                        }
                    }
                }
            }
        } else {
            if ((input[4]) >= (0.08875465)) {
                if ((input[1]) >= (0.033535674)) {
                    if ((input[3]) >= (0.067540325)) {
                        if ((input[1]) >= (0.06896208)) {
                            if ((input[3]) >= (0.10080645)) {
                                var5 = 0.32100624;
                            } else {
                                var5 = 0.058207564;
                            }
                        } else {
                            if ((input[3]) >= (0.19657259)) {
                                var5 = -0.16673627;
                            } else {
                                var5 = 0.18043217;
                            }
                        }
                    } else {
                        if ((input[4]) >= (0.17518587)) {
                            if ((input[1]) >= (0.065628424)) {
                                var5 = -0.19222115;
                            } else {
                                var5 = 0.23396559;
                            }
                        } else {
                            if ((input[4]) >= (0.094330855)) {
                                var5 = -0.27687827;
                            } else {
                                var5 = 0.055379864;
                            }
                        }
                    }
                } else {
                    if ((input[1]) >= (0.01985272)) {
                        if ((input[6]) >= (0.0019148423)) {
                            if ((input[6]) >= (0.09485254)) {
                                var5 = -0.07918859;
                            } else {
                                var5 = 0.2769168;
                            }
                        } else {
                            if ((input[6]) >= (0.0010403474)) {
                                var5 = -0.39866257;
                            } else {
                                var5 = 0.2102307;
                            }
                        }
                    } else {
                        if ((input[3]) >= (0.05645161)) {
                            if ((input[3]) >= (0.14818549)) {
                                var5 = 0.14903766;
                            } else {
                                var5 = -0.1773406;
                            }
                        } else {
                            if ((input[6]) >= (0.077046014)) {
                                var5 = 0.38814715;
                            } else {
                                var5 = 0.08500049;
                            }
                        }
                    }
                }
            } else {
                if ((input[4]) >= (0.06923792)) {
                    if ((input[1]) >= (0.014479052)) {
                        if ((input[6]) >= (0.06290332)) {
                            if ((input[3]) >= (0.43548387)) {
                                var5 = 0.04517992;
                            } else {
                                var5 = -0.26014662;
                            }
                        } else {
                            if ((input[6]) >= (0.050705627)) {
                                var5 = 0.20496269;
                            } else {
                                var5 = -0.0369787;
                            }
                        }
                    } else {
                        if ((input[3]) >= (0.022177419)) {
                            if ((input[4]) >= (0.0757435)) {
                                var5 = -0.35396317;
                            } else {
                                var5 = -0.14457908;
                            }
                        } else {
                            if ((input[1]) >= (0.013284904)) {
                                var5 = 0.24031584;
                            } else {
                                var5 = -0.078449875;
                            }
                        }
                    }
                } else {
                    if ((input[3]) >= (0.06552419)) {
                        if ((input[4]) >= (0.05901487)) {
                            if ((input[0]) >= (0.0021834061)) {
                                var5 = 0.2759055;
                            } else {
                                var5 = -0.08047137;
                            }
                        } else {
                            if ((input[6]) >= (0.03333635)) {
                                var5 = 0.23426756;
                            } else {
                                var5 = 0.09054142;
                            }
                        }
                    } else {
                        if ((input[6]) >= (0.06925095)) {
                            if ((input[4]) >= (0.039498143)) {
                                var5 = 0.045487177;
                            } else {
                                var5 = 0.29963368;
                            }
                        } else {
                            if ((input[1]) >= (0.049009852)) {
                                var5 = -0.25080106;
                            } else {
                                var5 = -0.045749445;
                            }
                        }
                    }
                }
            }
        }
    } else {
        if ((input[3]) >= (0.033266127)) {
            if ((input[3]) >= (0.19959676)) {
                if ((input[1]) >= (0.0060204994)) {
                    var5 = 0.32187217;
                } else {
                    if ((input[6]) >= (0.037271574)) {
                        var5 = -0.18028635;
                    } else {
                        if ((input[3]) >= (0.3155242)) {
                            var5 = 0.22483252;
                        } else {
                            var5 = 0.010743203;
                        }
                    }
                }
            } else {
                if ((input[4]) >= (0.114776954)) {
                    if ((input[6]) >= (0.061305106)) {
                        if ((input[3]) >= (0.055443548)) {
                            if ((input[3]) >= (0.12701613)) {
                                var5 = -0.07516054;
                            } else {
                                var5 = 0.055279236;
                            }
                        } else {
                            var5 = 0.4393883;
                        }
                    } else {
                        if ((input[1]) >= (0.005075132)) {
                            if ((input[1]) >= (0.008906359)) {
                                var5 = -0.059956595;
                            } else {
                                var5 = 0.23189585;
                            }
                        } else {
                            if ((input[3]) >= (0.043346774)) {
                                var5 = -0.17768897;
                            } else {
                                var5 = 0.059049398;
                            }
                        }
                    }
                } else {
                    if ((input[1]) >= (0.009403921)) {
                        if ((input[6]) >= (0.13295338)) {
                            var5 = -0.19441546;
                        } else {
                            if ((input[1]) >= (0.009801971)) {
                                var5 = -0.09395811;
                            } else {
                                var5 = 0.20927571;
                            }
                        }
                    } else {
                        if ((input[6]) >= (0.02235993)) {
                            var5 = -0.2770671;
                        } else {
                            var5 = 0.022028062;
                        }
                    }
                }
            }
        } else {
            if ((input[0]) >= (0.015283843)) {
                var5 = 0.25208148;
            } else {
                if ((input[3]) >= (0.025201611)) {
                    if ((input[6]) >= (0.05792775)) {
                        if ((input[4]) >= (0.06877324)) {
                            var5 = -0.29326448;
                        } else {
                            var5 = -0.072036885;
                        }
                    } else {
                        if ((input[6]) >= (0.015152886)) {
                            var5 = 0.14158088;
                        } else {
                            var5 = -0.08779218;
                        }
                    }
                } else {
                    if ((input[4]) >= (0.0580855)) {
                        var5 = -0.34027985;
                    } else {
                        if ((input[3]) >= (0.0030241935)) {
                            var5 = -0.28946766;
                        } else {
                            var5 = 0.18692166;
                        }
                    }
                }
            }
        }
    }
    double var6;
    if ((input[1]) >= (0.009702458)) {
        if ((input[5]) >= (0.0018959448)) {
            if ((input[0]) >= (0.0152838435)) {
                if ((input[0]) >= (0.050218344)) {
                    if ((input[5]) >= (0.006230035)) {
                        var6 = 0.29675102;
                    } else {
                        if ((input[5]) >= (0.004871384)) {
                            if ((input[1]) >= (0.061896704)) {
                                var6 = -0.18673669;
                            } else {
                                var6 = 0.21222106;
                            }
                        } else {
                            if ((input[0]) >= (0.058951966)) {
                                var6 = 0.32434523;
                            } else {
                                var6 = -0.025256366;
                            }
                        }
                    }
                } else {
                    if ((input[6]) >= (0.03339666)) {
                        if ((input[5]) >= (0.0028660228)) {
                            var6 = 0.32859927;
                        } else {
                            if ((input[5]) >= (0.0021885822)) {
                                var6 = -0.043368276;
                            } else {
                                var6 = 0.21784791;
                            }
                        }
                    } else {
                        if ((input[5]) >= (0.019545447)) {
                            if ((input[3]) >= (0.38407257)) {
                                var6 = 0.27958855;
                            } else {
                                var6 = 0.06654156;
                            }
                        } else {
                            if ((input[5]) >= (0.0030071246)) {
                                var6 = -0.019920653;
                            } else {
                                var6 = 0.35505712;
                            }
                        }
                    }
                }
            } else {
                if ((input[5]) >= (0.0064916317)) {
                    if ((input[6]) >= (0.06796937)) {
                        if ((input[3]) >= (0.079637095)) {
                            if ((input[5]) >= (0.008268658)) {
                                var6 = -0.29397824;
                            } else {
                                var6 = -0.089140035;
                            }
                        } else {
                            if ((input[5]) >= (0.014027817)) {
                                var6 = 0.24951255;
                            } else {
                                var6 = -0.11637843;
                            }
                        }
                    } else {
                        if ((input[1]) >= (0.0465718)) {
                            if ((input[5]) >= (0.009469369)) {
                                var6 = -0.06961298;
                            } else {
                                var6 = 0.24145195;
                            }
                        } else {
                            if ((input[3]) >= (0.18649194)) {
                                var6 = 0.20593657;
                            } else {
                                var6 = 0.05456571;
                            }
                        }
                    }
                } else {
                    if ((input[3]) >= (0.061491936)) {
                        if ((input[1]) >= (0.015772715)) {
                            if ((input[5]) >= (0.0049512056)) {
                                var6 = -0.16983578;
                            } else {
                                var6 = 0.1618591;
                            }
                        } else {
                            if ((input[5]) >= (0.0020046378)) {
                                var6 = -0.2900346;
                            } else {
                                var6 = 0.17211553;
                            }
                        }
                    } else {
                        if ((input[6]) >= (0.09838068)) {
                            if ((input[3]) >= (0.035282258)) {
                                var6 = -0.24547027;
                            } else {
                                var6 = 0.22133328;
                            }
                        } else {
                            if ((input[5]) >= (0.0021957872)) {
                                var6 = -0.23273996;
                            } else {
                                var6 = -0.1093284;
                            }
                        }
                    }
                }
            }
        } else {
            if ((input[1]) >= (0.0112946555)) {
                if ((input[6]) >= (0.09299801)) {
                    if ((input[5]) >= (0.0017880264)) {
                        if ((input[1]) >= (0.012986367)) {
                            if ((input[1]) >= (0.015225396)) {
                                var6 = -0.03287398;
                            } else {
                                var6 = 0.23257415;
                            }
                        } else {
                            var6 = -0.35025957;
                        }
                    } else {
                        if ((input[1]) >= (0.012886854)) {
                            if ((input[6]) >= (0.1861468)) {
                                var6 = 0.092686765;
                            } else {
                                var6 = 0.32928133;
                            }
                        } else {
                            if ((input[1]) >= (0.012588317)) {
                                var6 = -0.13771906;
                            } else {
                                var6 = 0.23102419;
                            }
                        }
                    }
                } else {
                    if ((input[5]) >= (0.0013221102)) {
                        if ((input[1]) >= (0.014628321)) {
                            var6 = 0.3666211;
                        } else {
                            if ((input[5]) >= (0.0017216846)) {
                                var6 = 0.12626618;
                            } else {
                                var6 = 0.32023838;
                            }
                        }
                    } else {
                        var6 = 0.0148274535;
                    }
                }
            } else {
                if ((input[5]) >= (0.0017001475)) {
                    if ((input[3]) >= (0.0050403224)) {
                        if ((input[5]) >= (0.0018469568)) {
                            var6 = 0.011015918;
                        } else {
                            var6 = -0.23459926;
                        }
                    } else {
                        var6 = -0.01018276;
                    }
                } else {
                    if ((input[5]) >= (0.0015993048)) {
                        if ((input[5]) >= (0.0016727998)) {
                            var6 = 0.41753104;
                        } else {
                            if ((input[5]) >= (0.0016430765)) {
                                var6 = -0.02322199;
                            } else {
                                var6 = 0.19923593;
                            }
                        }
                    } else {
                        if ((input[3]) >= (0.021169353)) {
                            if ((input[5]) >= (0.0015158675)) {
                                var6 = -0.3110468;
                            } else {
                                var6 = 0.029888721;
                            }
                        } else {
                            if ((input[1]) >= (0.010647826)) {
                                var6 = 0.23225805;
                            } else {
                                var6 = -0.107161835;
                            }
                        }
                    }
                }
            }
        }
    } else {
        if ((input[3]) >= (0.059475806)) {
            if ((input[5]) >= (0.0020628194)) {
                if ((input[6]) >= (0.04781075)) {
                    if ((input[3]) >= (0.12701613)) {
                        var6 = -0.21759123;
                    } else {
                        var6 = -0.023864726;
                    }
                } else {
                    if ((input[1]) >= (0.004328789)) {
                        var6 = 0.23418452;
                    } else {
                        if ((input[3]) >= (0.12701613)) {
                            var6 = -0.073083915;
                        } else {
                            var6 = 0.21629657;
                        }
                    }
                }
            } else {
                var6 = 0.31785965;
            }
        } else {
            if ((input[1]) >= (0.0031346404)) {
                if ((input[0]) >= (0.015283843)) {
                    var6 = 0.21949735;
                } else {
                    if ((input[3]) >= (0.027217742)) {
                        if ((input[6]) >= (0.028948797)) {
                            if ((input[5]) >= (0.0043573314)) {
                                var6 = -0.056536958;
                            } else {
                                var6 = -0.27322587;
                            }
                        } else {
                            if ((input[3]) >= (0.035282258)) {
                                var6 = -0.23798022;
                            } else {
                                var6 = 0.13345346;
                            }
                        }
                    } else {
                        if ((input[1]) >= (0.009403921)) {
                            if ((input[6]) >= (0.05966166)) {
                                var6 = -0.22813852;
                            } else {
                                var6 = 0.084301755;
                            }
                        } else {
                            var6 = -0.32884893;
                        }
                    }
                }
            } else {
                if ((input[1]) >= (0.0011443924)) {
                    var6 = 0.28864905;
                } else {
                    if ((input[3]) >= (0.045362905)) {
                        var6 = -0.1912308;
                    } else {
                        var6 = 0.13563839;
                    }
                }
            }
        }
    }
    double var7;
    if ((input[1]) >= (0.010598069)) {
        if ((input[5]) >= (0.0019389676)) {
            if ((input[0]) >= (0.019650655)) {
                if ((input[4]) >= (0.03578067)) {
                    if ((input[4]) >= (0.08317844)) {
                        if ((input[0]) >= (0.050218344)) {
                            if ((input[4]) >= (0.08689591)) {
                                var7 = 0.28446397;
                            } else {
                                var7 = 0.031926386;
                            }
                        } else {
                            if ((input[4]) >= (0.19934943)) {
                                var7 = 0.24926092;
                            } else {
                                var7 = 0.014741391;
                            }
                        }
                    } else {
                        if ((input[0]) >= (0.024017468)) {
                            if ((input[6]) >= (0.0012815874)) {
                                var7 = 0.2939553;
                            } else {
                                var7 = 0.051554535;
                            }
                        } else {
                            if ((input[4]) >= (0.043215614)) {
                                var7 = 0.17577249;
                            } else {
                                var7 = -0.026015168;
                            }
                        }
                    }
                } else {
                    if ((input[1]) >= (0.11299632)) {
                        var7 = 0.30517864;
                    } else {
                        if ((input[5]) >= (0.0030071246)) {
                            if ((input[1]) >= (0.04144691)) {
                                var7 = 0.047857586;
                            } else {
                                var7 = -0.25482246;
                            }
                        } else {
                            var7 = 0.34089953;
                        }
                    }
                }
            } else {
                if ((input[4]) >= (0.08689591)) {
                    if ((input[5]) >= (0.01361559)) {
                        if ((input[5]) >= (0.020637775)) {
                            if ((input[5]) >= (0.035864264)) {
                                var7 = 0.12926888;
                            } else {
                                var7 = -0.022931945;
                            }
                        } else {
                            if ((input[4]) >= (0.09990706)) {
                                var7 = 0.24547063;
                            } else {
                                var7 = 0.064267926;
                            }
                        }
                    } else {
                        if ((input[4]) >= (0.11013012)) {
                            if ((input[1]) >= (0.012190267)) {
                                var7 = -0.40287027;
                            } else {
                                var7 = 0.060152702;
                            }
                        } else {
                            if ((input[5]) >= (0.0049313987)) {
                                var7 = 0.103119925;
                            } else {
                                var7 = -0.20063968;
                            }
                        }
                    }
                } else {
                    if ((input[5]) >= (0.0037638708)) {
                        if ((input[1]) >= (0.014479052)) {
                            if ((input[5]) >= (0.004791174)) {
                                var7 = -0.043525267;
                            } else {
                                var7 = 0.18994494;
                            }
                        } else {
                            if ((input[5]) >= (0.0050166175)) {
                                var7 = 0.04986217;
                            } else {
                                var7 = -0.28378263;
                            }
                        }
                    } else {
                        if ((input[5]) >= (0.002264711)) {
                            if ((input[1]) >= (0.013185391)) {
                                var7 = -0.23842776;
                            } else {
                                var7 = 0.20557566;
                            }
                        } else {
                            if ((input[1]) >= (0.021494675)) {
                                var7 = 0.30998462;
                            } else {
                                var7 = -0.16768835;
                            }
                        }
                    }
                }
            }
        } else {
            if ((input[4]) >= (0.046003718)) {
                if ((input[5]) >= (0.0017875874)) {
                    if ((input[5]) >= (0.0018959448)) {
                        var7 = -0.24673183;
                    } else {
                        if ((input[6]) >= (0.09477715)) {
                            var7 = -0.23913461;
                        } else {
                            if ((input[1]) >= (0.0117424615)) {
                                var7 = 0.3037363;
                            } else {
                                var7 = -0.07336944;
                            }
                        }
                    }
                } else {
                    if ((input[6]) >= (0.18792593)) {
                        var7 = -0.10700952;
                    } else {
                        if ((input[1]) >= (0.011991243)) {
                            if ((input[6]) >= (0.05037392)) {
                                var7 = 0.13477886;
                            } else {
                                var7 = -0.055477686;
                            }
                        } else {
                            if ((input[5]) >= (0.0017019551)) {
                                var7 = 0.099286176;
                            } else {
                                var7 = 0.30191258;
                            }
                        }
                    }
                }
            } else {
                if ((input[5]) >= (0.0013221102)) {
                    if ((input[6]) >= (0.12571618)) {
                        if ((input[6]) >= (0.12966648)) {
                            if ((input[5]) >= (0.00167688)) {
                                var7 = 0.050704796;
                            } else {
                                var7 = 0.3055635;
                            }
                        } else {
                            var7 = -0.2747745;
                        }
                    } else {
                        if ((input[5]) >= (0.0016310166)) {
                            if ((input[1]) >= (0.02184297)) {
                                var7 = 0.33959445;
                            } else {
                                var7 = 0.19749612;
                            }
                        } else {
                            var7 = 0.35294268;
                        }
                    }
                } else {
                    if ((input[1]) >= (0.018857598)) {
                        var7 = 0.116815366;
                    } else {
                        var7 = -0.15019634;
                    }
                }
            }
        }
    } else {
        if ((input[4]) >= (0.11756506)) {
            if ((input[5]) >= (0.002007401)) {
                if ((input[6]) >= (0.033818826)) {
                    if ((input[5]) >= (0.005215876)) {
                        if ((input[5]) >= (0.0138495285)) {
                            var7 = -0.023283165;
                        } else {
                            if ((input[6]) >= (0.04646885)) {
                                var7 = -0.28501073;
                            } else {
                                var7 = -0.05990727;
                            }
                        }
                    } else {
                        if ((input[5]) >= (0.0030418066)) {
                            if ((input[4]) >= (0.16263941)) {
                                var7 = 0.16989048;
                            } else {
                                var7 = -0.056300033;
                            }
                        } else {
                            var7 = -0.2721824;
                        }
                    }
                } else {
                    if ((input[4]) >= (0.2820632)) {
                        var7 = -0.23267151;
                    } else {
                        if ((input[6]) >= (0.021590978)) {
                            var7 = 0.2619286;
                        } else {
                            if ((input[1]) >= (0.0025873221)) {
                                var7 = -0.0712865;
                            } else {
                                var7 = 0.11931692;
                            }
                        }
                    }
                }
            } else {
                if ((input[6]) >= (0.03050178)) {
                    var7 = 0.3067909;
                } else {
                    var7 = -0.012156527;
                }
            }
        } else {
            if ((input[0]) >= (0.019650655)) {
                var7 = 0.24298728;
            } else {
                if ((input[1]) >= (0.009403921)) {
                    if ((input[4]) >= (0.06830855)) {
                        if ((input[4]) >= (0.09247212)) {
                            var7 = -0.2011651;
                        } else {
                            var7 = 0.29758054;
                        }
                    } else {
                        if ((input[1]) >= (0.0095034335)) {
                            if ((input[5]) >= (0.0017458817)) {
                                var7 = -0.26365235;
                            } else {
                                var7 = -0.06410906;
                            }
                        } else {
                            if ((input[5]) >= (0.001851192)) {
                                var7 = 0.20968068;
                            } else {
                                var7 = -0.11016871;
                            }
                        }
                    }
                } else {
                    if ((input[6]) >= (0.011971533)) {
                        var7 = -0.28917643;
                    } else {
                        if ((input[6]) >= (0.010509016)) {
                            var7 = 0.11842658;
                        } else {
                            var7 = -0.19680832;
                        }
                    }
                }
            }
        }
    }
    double var8;
    if ((input[1]) >= (0.009702458)) {
        if ((input[5]) >= (0.0018026687)) {
            if ((input[3]) >= (0.08770161)) {
                if ((input[6]) >= (0.09767203)) {
                    if ((input[4]) >= (0.060873605)) {
                        var8 = -0.34407204;
                    } else {
                        if ((input[6]) >= (0.11181472)) {
                            var8 = 0.15500927;
                        } else {
                            var8 = -0.18387672;
                        }
                    }
                } else {
                    if ((input[5]) >= (0.004435242)) {
                        if ((input[4]) >= (0.05901487)) {
                            if ((input[6]) >= (0.05525903)) {
                                var8 = -0.14058106;
                            } else {
                                var8 = 0.060474288;
                            }
                        } else {
                            if ((input[5]) >= (0.009598256)) {
                                var8 = 0.02698311;
                            } else {
                                var8 = 0.23938178;
                            }
                        }
                    } else {
                        if ((input[5]) >= (0.0031149916)) {
                            if ((input[6]) >= (0.03241662)) {
                                var8 = 0.085305125;
                            } else {
                                var8 = -0.39478388;
                            }
                        } else {
                            if ((input[3]) >= (0.18649194)) {
                                var8 = -0.10387104;
                            } else {
                                var8 = 0.24469805;
                            }
                        }
                    }
                }
            } else {
                if ((input[1]) >= (0.066275254)) {
                    if ((input[5]) >= (0.002734811)) {
                        if ((input[6]) >= (0.017022494)) {
                            if ((input[4]) >= (0.013475837)) {
                                var8 = 0.24326396;
                            } else {
                                var8 = -0.16584867;
                            }
                        } else {
                            if ((input[6]) >= (0.0011911223)) {
                                var8 = -0.33333525;
                            } else {
                                var8 = -0.028753417;
                            }
                        }
                    } else {
                        var8 = 0.28490472;
                    }
                } else {
                    if ((input[5]) >= (0.013814899)) {
                        if ((input[5]) >= (0.020938445)) {
                            if ((input[5]) >= (0.03889419)) {
                                var8 = 0.20699911;
                            } else {
                                var8 = -0.08398992;
                            }
                        } else {
                            if ((input[6]) >= (0.006799952)) {
                                var8 = 0.1862357;
                            } else {
                                var8 = -0.09038426;
                            }
                        }
                    } else {
                        if ((input[4]) >= (0.022769518)) {
                            if ((input[5]) >= (0.003770688)) {
                                var8 = -0.022990778;
                            } else {
                                var8 = -0.11177996;
                            }
                        } else {
                            if ((input[5]) >= (0.004871384)) {
                                var8 = -0.20059861;
                            } else {
                                var8 = 0.16294853;
                            }
                        }
                    }
                }
            }
        } else {
            if ((input[1]) >= (0.011593193)) {
                if ((input[3]) >= (0.03125)) {
                    if ((input[3]) >= (0.033266127)) {
                        if ((input[1]) >= (0.012936611)) {
                            if ((input[3]) >= (0.043346774)) {
